{
  "board_height": 24,
  "board_width": 44,
  "conv1": {
    "bias": [
      -0.06287664920091629,
      -0.23659299314022064,
      -0.03830242156982422,
      -0.40308550000190735,
      -0.11725624650716782,
      0.10052842646837234,
      -0.17119364440441132,
      -0.09095920622348785,
      0.07047297805547714,
      -0.026801567524671555,
      0.0036334549076855183,
      -0.18911521136760712,
      -0.19566753506660461,
      -0.18021221458911896,
      -0.22558890283107758,
      0.30922597646713257,
      -0.031270239502191544,
      0.047495871782302856,
      -0.27974411845207214,
      -0.005511689931154251,
      0.10051567852497101,
      -0.3032611012458801,
      -0.749845027923584,
      -0.31795328855514526,
      -0.4247831702232361,
      -0.231022447347641,
      -0.15255558490753174,
      -0.4290739893913269,
      -0.11393144726753235,
      -0.22292903065681458,
      0.10847993195056915,
      -0.16199368238449097,
      -0.09449492394924164,
      -0.025320211425423622,
      -0.050835754722356796,
      -0.2893376052379608,
      -0.0752970278263092,
      -0.2450600117444992,
      -0.1124541237950325,
      -0.24002227187156677,
      -0.039749711751937866,
      -0.17726504802703857,
      -0.21093587577342987,
      -0.14829371869564056,
      0.020076625049114227,
      -0.38326263427734375,
      -0.283856064081192,
      -0.09650282561779022
    ],
    "in_channels": 19,
    "kernel_size": 3,
    "out_channels": 48,
    "weights": [
      0.11331126093864441,
      -0.004425899125635624,
      -2.9941906929016113,
      -0.028737571090459824,
      -3.088061571121216,
      -0.029577402397990227,
      -0.03156517073512077,
      0.06087825819849968,
      0.03789393976330757,
      -0.8750281929969788,
      0.37439844012260437,
      0.18347984552383423,
      -0.7046443819999695,
      0.30663174390792847,
      1.2977217435836792,
      0.5708409547805786,
      1.6004717350006104,
      1.073400616645813,
      -0.009651005268096924,
      0.3401845693588257,
      -0.13472969830036163,
      0.2041025012731552,
      0.008411236107349396,
      0.1680501401424408,
      -0.1292051374912262,
      0.00565761886537075,
      -0.0391371063888073,
      -1.699150562286377,
      0.7643179893493652,
      -2.1275811195373535,
      0.2810157537460327,
      -0.27557802200317383,
      0.0014355151215568185,
      0.1509394347667694,
      -1.2810523509979248,
      -0.0762205496430397,
      -0.7980607748031616,
      -0.8121902942657471,
      -1.0834802389144897,
      -0.4372541904449463,
      0.13908004760742188,
      -0.12326500564813614,
      0.3372308015823364,
      0.24144040048122406,
      0.03652743995189667,
      -0.11602425575256348,
      1.1358968019485474,
      0.1934543401002884,
      0.39664337038993835,
      -0.08341648429632187,
      -0.5477588772773743,
      0.07965721189975739,
      -1.478139042854309,
      0.33461934328079224,
      -0.15308444201946259,
      -0.5356590151786804,
      -0.4873143136501312,
      -0.13226673007011414,
      0.17674623429775238,
      -0.03850700706243515,
      0.14745216071605682,
      0.33291345834732056,
      0.09534694999456406,
      0.01364480797201395,
      1.050222396850586,
      -2.3625714778900146,
      0.20930549502372742,
      0.19618768990039825,
      0.5079638957977295,
      0.08499220013618469,
      -0.8371098041534424,
      -0.11750926077365875,
      -1.2804248332977295,
      -0.7450735569000244,
      -1.1876615285873413,
      -0.3164446949958801,
      0.25142499804496765,
      -0.48924991488456726,
      0.16767220199108124,
      0.08174976706504822,
      -0.2030961960554123,
      -0.18676550686359406,
      1.0778887271881104,
      -2.3645973205566406,
      0.4133058190345764,
      -0.12394021451473236,
      0.37681055068969727,
      -0.1921299397945404,
      -1.3571118116378784,
      -0.8598470687866211,
      -0.19168399274349213,
      -1.8062479496002197,
      -0.05283629521727562,
      0.00528927193954587,
      0.14419257640838623,
      -2.2355217933654785,
      0.023923354223370552,
      0.1640152931213379,
      -0.40495550632476807,
      -0.026851370930671692,
      0.06870423257350922,
      -0.2671948969364166,
      -0.12090412527322769,
      -0.21187752485275269,
      -0.15377680957317352,
      -0.051840975880622864,
      0.2745739221572876,
      0.5679531097412109,
      -0.37021297216415405,
      -1.412450909614563,
      -0.5306974649429321,
      -0.10541274398565292,
      -0.6095361113548279,
      -0.20838554203510284,
      0.08648565411567688,
      0.22575527429580688,
      0.27427199482917786,
      -0.09583652764558792,
      0.08056510984897614,
      -1.0058592557907104,
      -0.15863899886608124,
      -0.3451972007751465,
      -0.19841355085372925,
      0.03393872454762459,
      0.29771971702575684,
      0.34682366251945496,
      -0.25480538606643677,
      -1.6501338481903076,
      -0.4394339323043823,
      -0.11443643271923065,
      -0.9434873461723328,
      -0.19747978448867798,
      0.12461164593696594,
      0.5040611624717712,
      0.20698076486587524,
      -0.012790806591510773,
      -0.10590428113937378,
      -0.27674099802970886,
      -0.16999682784080505,
      -0.5696457624435425,
      -0.2596660554409027,
      0.1571817398071289,
      0.1666572093963623,
      0.5862109065055847,
      -0.24880078434944153,
      -0.23974251747131348,
      -0.6065502166748047,
      -0.26699408888816833,
      -0.512206494808197,
      -0.3024894595146179,
      0.17477627098560333,
      0.43872636556625366,
      0.30573275685310364,
      -0.3072013258934021,
      -0.031459741294384,
      -1.1092240810394287,
      -0.13805542886257172,
      0.004805039614439011,
      -0.22343838214874268,
      -0.015810828655958176,
      0.019141241908073425,
      0.4490068554878235,
      -0.462566077709198,
      -1.610600471496582,
      -0.4438857436180115,
      0.0847880095243454,
      -0.6311795711517334,
      -0.20950697362422943,
      0.07768040150403976,
      0.19408383965492249,
      0.3438895046710968,
      -0.07815559208393097,
      -0.6405472159385681,
      -0.12553659081459045,
      0.12700261175632477,
      -0.677033007144928,
      0.1891949474811554,
      -0.12441550940275192,
      -0.022003818303346634,
      -0.1887691468000412,
      0.2066056877374649,
      -0.7048539519309998,
      -0.06877803802490234,
      -0.6981114745140076,
      0.4186877906322479,
      -1.8044778108596802,
      0.21463502943515778,
      0.6320220828056335,
      0.2778685688972473,
      0.0015684411628171802,
      0.06339535862207413,
      -0.05463027581572533,
      -0.057045817375183105,
      0.28444114327430725,
      0.020023971796035767,
      0.02309054508805275,
      -0.2669302225112915,
      0.056183233857154846,
      -1.1337831020355225,
      0.24510149657726288,
      -1.2213382720947266,
      -1.3070088624954224,
      0.8731611967086792,
      -0.7492752075195312,
      -0.17065998911857605,
      0.6313377618789673,
      -1.7350519895553589,
      -0.7417191863059998,
      0.47756046056747437,
      -0.7134604454040527,
      -1.4856343269348145,
      0.3577958643436432,
      -1.3909685611724854,
      -0.4967387020587921,
      0.13015998899936676,
      -0.763007640838623,
      -2.311260461807251,
      0.2058533877134323,
      -2.0158395767211914,
      -0.8975626230239868,
      0.762014627456665,
      -0.5441704392433167,
      0.1471758335828781,
      0.6202874779701233,
      -1.457379698753357,
      -0.5523728728294373,
      0.578027069568634,
      -0.7451210021972656,
      -2.4527788162231445,
      0.6514658331871033,
      -2.2681374549865723,
      -0.2417038530111313,
      0.28658753633499146,
      -0.6798317432403564,
      -2.199012041091919,
      0.1040240079164505,
      -1.5932533740997314,
      -1.159546971321106,
      0.7334890365600586,
      -0.8678279519081116,
      -0.3746284246444702,
      0.7038983702659607,
      -1.632977843284607,
      -0.8825616836547852,
      0.46762406826019287,
      -0.4690524637699127,
      -2.1282706260681152,
      0.3993840515613556,
      -0.8840844631195068,
      -0.43034860491752625,
      0.18116119503974915,
      -0.36197397112846375,
      -1.8774107694625854,
      0.04701773077249527,
      -1.3667629957199097,
      -0.44326505064964294,
      0.8465023636817932,
      -0.7156096696853638,
      -0.05995125696063042,
      0.6110684871673584,
      -1.7097147703170776,
      -0.5268077254295349,
      0.5310099124908447,
      -0.36446622014045715,
      -2.23828125,
      0.41590428352355957,
      -1.2287468910217285,
      -0.11103859543800354,
      0.0718633383512497,
      -0.3995395004749298,
      0.5332523584365845,
      -1.3857965469360352,
      0.43441227078437805,
      -0.3427850306034088,
      -1.2013105154037476,
      0.18325833976268768,
      -0.10885704308748245,
      -1.5231378078460693,
      -0.031733978539705276,
      0.0955115258693695,
      -1.974845290184021,
      0.017333507537841797,
      0.18736881017684937,
      -0.15382592380046844,
      0.2864256501197815,
      0.29673537611961365,
      -2.0119717121124268,
      0.3151598572731018,
      0.5832651257514954,
      -0.6766003370285034,
      0.5406764149665833,
      -0.17237426340579987,
      -1.2426148653030396,
      0.13961350917816162,
      -0.2789643704891205,
      -1.598327875137329,
      -0.04889216646552086,
      0.12054503709077835,
      -1.9830868244171143,
      0.09573826938867569,
      0.21033263206481934,
      -0.22856023907661438,
      0.2669799327850342,
      0.19601891934871674,
      -1.6327526569366455,
      0.25195935368537903,
      0.37955889105796814,
      -1.7524229288101196,
      0.5476818680763245,
      -0.14416439831256866,
      -1.588984489440918,
      0.02530549466609955,
      -0.05796556919813156,
      -1.7047066688537598,
      -0.3581881821155548,
      -0.00623082322999835,
      -0.41293761134147644,
      0.03765736520290375,
      0.3297443389892578,
      -1.5346897840499878,
      0.2751893103122711,
      0.2297016829252243,
      -2.136427164077759,
      0.3234482407569885,
      0.4249361455440521,
      -1.3779610395431519,
      0.3814166784286499,
      -0.13002128899097443,
      -0.6387406587600708,
      -0.06711048632860184,
      -0.3157472014427185,
      -1.7731105089187622,
      -0.08868501335382462,
      -0.015496626496315002,
      -1.620792031288147,
      -0.08220493793487549,
      0.43314704298973083,
      -1.6642673015594482,
      0.46046626567840576,
      0.12233931571245193,
      -1.8711888790130615,
      0.21039074659347534,
      0.059774138033390045,
      0.03485643491148949,
      -0.0722372755408287,
      -0.12626013159751892,
      -0.12042785435914993,
      -0.25228744745254517,
      -0.0014822898665443063,
      -0.08509241044521332,
      -0.04111083596944809,
      0.31350821256637573,
      -1.0136431455612183,
      0.482799768447876,
      -0.14541082084178925,
      -0.3895260691642761,
      0.6605694890022278,
      -0.8437693119049072,
      -0.8206107020378113,
      -0.43248870968818665,
      0.017394736409187317,
      0.4692503809928894,
      0.08503171056509018,
      -0.13552357256412506,
      -0.05577545240521431,
      -0.21263979375362396,
      0.11609841883182526,
      0.0043646772392094135,
      0.19300498068332672,
      0.5669432878494263,
      -0.25718218088150024,
      -1.104175090789795,
      0.12319284677505493,
      1.58738112449646,
      -0.06822691112756729,
      0.3052104115486145,
      -2.146632194519043,
      -0.2034599930047989,
      -0.23946622014045715,
      0.3736957609653473,
      0.018009614199399948,
      -0.4595401883125305,
      -0.09941703826189041,
      -2.071812152862549,
      -0.09299639612436295,
      0.5739521980285645,
      0.26968449354171753,
      -1.0866011381149292,
      1.2887883186340332,
      -0.593749463558197,
      0.11132988333702087,
      1.2048020362854004,
      -0.4160008132457733,
      0.7132575511932373,
      -0.5599018335342407,
      -0.2260793298482895,
      -0.906845211982727,
      0.5799089670181274,
      -0.7529956102371216,
      -0.2642252743244171,
      0.45553192496299744,
      -0.7769900560379028,
      -0.45115795731544495,
      0.04950443655252457,
      -0.22856858372688293,
      -0.11233271658420563,
      -0.4769502282142639,
      0.5698365569114685,
      -0.4240283966064453,
      0.9272679090499878,
      0.3311522901058197,
      -0.033461738377809525,
      -0.33357423543930054,
      0.39349040389060974,
      -0.680178165435791,
      -1.0811917781829834,
      -0.4055373966693878,
      0.4506862759590149,
      0.30896568298339844,
      0.23573024570941925,
      -0.05764111131429672,
      -0.5531278848648071,
      0.14221470057964325,
      0.1286706030368805,
      1.426176905632019,
      -0.8188424110412598,
      -0.21204529702663422,
      1.4059048891067505,
      -0.6178892254829407,
      0.5975446701049805,
      0.48869892954826355,
      0.1853133738040924,
      -0.9558139443397522,
      0.49284330010414124,
      -0.7424370050430298,
      -0.12679946422576904,
      0.7446765899658203,
      -0.8174688220024109,
      -0.2818514108657837,
      -0.061351049691438675,
      -0.20652888715267181,
      0.698306679725647,
      0.3630247414112091,
      -0.34894660115242004,
      0.31092533469200134,
      -0.21020591259002686,
      -0.4256371259689331,
      0.534294843673706,
      -1.2387288808822632,
      0.45252150297164917,
      0.2553301751613617,
      -0.11805501580238342,
      -0.14761659502983093,
      -0.3003131151199341,
      -0.20156070590019226,
      -0.03878246620297432,
      -0.211014062166214,
      -0.18387258052825928,
      -0.23469538986682892,
      0.6222199201583862,
      0.3588440418243408,
      0.04485711827874184,
      -0.4673759639263153,
      0.23442432284355164,
      -0.3379457890987396,
      -0.11640475690364838,
      -0.6375371217727661,
      0.07108177244663239,
      0.11098677664995193,
      -0.09142296761274338,
      0.07258619368076324,
      -0.1887582689523697,
      0.06567435711622238,
      -0.13572627305984497,
      -0.26230308413505554,
      -0.10733547061681747,
      -0.2554093897342682,
      0.56150883436203,
      0.17530173063278198,
      -0.015408653765916824,
      -0.3788797855377197,
      -0.09773677587509155,
      -0.3343711793422699,
      0.18799223005771637,
      -0.11007682979106903,
      0.35002148151397705,
      0.24228188395500183,
      -0.05782490596175194,
      -0.16066855192184448,
      -0.23333103954792023,
      -0.36088699102401733,
      0.08230230212211609,
      -0.32072141766548157,
      -0.16332629323005676,
      -0.3868720233440399,
      0.5613592863082886,
      0.03586272895336151,
      -0.015723781660199165,
      -0.3199656903743744,
      -0.4170859158039093,
      -0.5201947689056396,
      0.22074422240257263,
      -0.19908440113067627,
      0.43096214532852173,
      0.30045977234840393,
      -0.15063130855560303,
      -0.023130163550376892,
      -0.22108682990074158,
      -0.42320841550827026,
      -0.1005491241812706,
      -0.20137736201286316,
      -0.07922614365816116,
      -0.19202812016010284,
      -0.07056789100170135,
      -0.03267816826701164,
      -0.08045468479394913,
      -0.12941700220108032,
      0.2867662310600281,
      -0.08830729126930237,
      -0.15253257751464844,
      0.011632569134235382,
      -0.09153251349925995,
      0.263977587223053,
      0.18244341015815735,
      0.012654854916036129,
      -0.12101948261260986,
      0.276768296957016,
      -0.3418062627315521,
      0.0497550331056118,
      -0.1528581827878952,
      -0.42826563119888306,
      0.13098639249801636,
      -0.09585119783878326,
      0.060171257704496384,
      0.08548776060342789,
      0.055050790309906006,
      -0.02278156951069832,
      0.001491199480369687,
      0.010080558247864246,
      -0.04942798987030983,
      -1.3715273141860962,
      -0.06787531822919846,
      0.5165395736694336,
      0.5223579406738281,
      0.3169209063053131,
      0.8078653216362,
      -0.4923863112926483,
      -0.8735329508781433,
      -0.3352735936641693,
      0.12961256504058838,
      0.6198738813400269,
      -2.0955352783203125,
      -0.14170554280281067,
      0.4416314661502838,
      0.23190432786941528,
      0.19469165802001953,
      0.17276416718959808,
      0.06300229579210281,
      0.4754433035850525,
      0.021944068372249603,
      0.11102524399757385,
      0.5824762582778931,
      0.4094429314136505,
      0.7509879469871521,
      -0.19401036202907562,
      0.540665864944458,
      -0.29345425963401794,
      -0.16354718804359436,
      -0.2764762341976166,
      -0.24670779705047607,
      -0.11563701182603836,
      0.3771163821220398,
      0.2885347604751587,
      0.16416560113430023,
      0.0750003531575203,
      0.12403023988008499,
      1.1068661212921143,
      1.934827208518982,
      1.384140133857727,
      0.24681176245212555,
      -0.9688208699226379,
      0.20625565946102142,
      -1.253084421157837,
      0.7450230717658997,
      -1.0857232809066772,
      0.33315739035606384,
      -2.1766581535339355,
      -0.007330728229135275,
      0.020088179036974907,
      0.9222664833068848,
      0.33462631702423096,
      0.052712950855493546,
      -0.5941929817199707,
      -0.13715103268623352,
      0.417849063873291,
      0.04223091900348663,
      0.3708845376968384,
      0.6286696195602417,
      0.49293768405914307,
      0.6318536996841431,
      0.10354958474636078,
      0.3751469850540161,
      -1.1442303657531738,
      -0.25971919298171997,
      -0.3049074709415436,
      -0.8902214765548706,
      0.14244812726974487,
      0.6898465752601624,
      0.6052544116973877,
      0.1365101933479309,
      -0.06694795191287994,
      0.19072167575359344,
      -0.019573763012886047,
      -0.29076245427131653,
      0.045853834599256516,
      -0.06582621484994888,
      0.09807160496711731,
      0.4416354298591614,
      -0.2727360427379608,
      0.029067061841487885,
      -0.12083052843809128,
      0.00016686844173818827,
      -0.4328230917453766,
      0.12278394401073456,
      -0.18017591536045074,
      0.4084755480289459,
      0.10858869552612305,
      -0.22766318917274475,
      -0.028238143771886826,
      -0.26433709263801575,
      0.13668671250343323,
      -0.17532499134540558,
      0.06953932344913483,
      -0.13970661163330078,
      0.0004711582441814244,
      0.04177609458565712,
      -0.41303935647010803,
      0.0699659138917923,
      -0.25582394003868103,
      0.11105740815401077,
      -0.6116387844085693,
      0.06770721822977066,
      -0.253292977809906,
      0.3150237202644348,
      0.03017311915755272,
      -0.28498825430870056,
      0.041690368205308914,
      -0.11828046292066574,
      -0.19251692295074463,
      -0.2213301807641983,
      0.06973766535520554,
      -0.2436942458152771,
      0.0021578797604888678,
      0.3067033886909485,
      -0.3572675883769989,
      -0.06455186009407043,
      -0.30163323879241943,
      -0.03393688425421715,
      -0.4975396990776062,
      0.06870480626821518,
      -0.12582720816135406,
      0.1886543482542038,
      0.15443788468837738,
      -0.24869312345981598,
      0.11654432117938995,
      -0.23427540063858032,
      0.1876385509967804,
      -0.03579048439860344,
      0.31173035502433777,
      -0.05258714035153389,
      -0.012942752800881863,
      0.20947717130184174,
      -0.3332887589931488,
      0.07014676183462143,
      -0.3164222240447998,
      0.020998474210500717,
      -0.6541301012039185,
      0.20531341433525085,
      -0.2252584993839264,
      0.3222839832305908,
      -0.016595760360360146,
      -0.328948050737381,
      0.07517950981855392,
      -0.23585620522499084,
      0.10273628681898117,
      0.036648206412792206,
      0.005291976034641266,
      -0.016229312866926193,
      -2.272693634033203,
      0.17826975882053375,
      0.002631149487569928,
      0.054302509874105453,
      -0.08105874061584473,
      0.34852704405784607,
      0.439073771238327,
      -0.20137709379196167,
      0.40670302510261536,
      0.3944397270679474,
      -0.3780185580253601,
      0.17561902105808258,
      -0.5562095046043396,
      -1.6940195560455322,
      0.3352417051792145,
      -0.10481134802103043,
      0.04378078132867813,
      -0.08987145870923996,
      0.04244235157966614,
      0.12889724969863892,
      -0.24184241890907288,
      0.34833937883377075,
      0.0619412437081337,
      -0.5358489751815796,
      -0.6252437829971313,
      0.21517705917358398,
      -0.9486876726150513,
      0.36930423974990845,
      0.1657075732946396,
      0.5045173764228821,
      1.1294209957122803,
      -0.03623834624886513,
      0.0698472186923027,
      0.1810053586959839,
      -0.21805353462696075,
      -0.788582980632782,
      0.08556164056062698,
      0.1746712327003479,
      -0.42721128463745117,
      -0.48353826999664307,
      -0.11003778129816055,
      -1.0216838121414185,
      -0.4593473970890045,
      0.06870367377996445,
      -1.1829837560653687,
      0.5669972896575928,
      0.016180673614144325,
      0.20035067200660706,
      1.4690128564834595,
      -0.8189666271209717,
      0.1621774137020111,
      0.11796726286411285,
      -0.08698950707912445,
      -0.4072001278400421,
      0.04406927153468132,
      0.01863674819469452,
      0.12900161743164062,
      -0.12488843500614166,
      0.01706334762275219,
      -0.470790833234787,
      -0.6047927141189575,
      0.25683459639549255,
      -1.0666131973266602,
      0.42747002840042114,
      -0.08824652433395386,
      0.46584469079971313,
      1.6278574466705322,
      -0.13375309109687805,
      0.10881780833005905,
      0.18921275436878204,
      -0.27004992961883545,
      -0.582329511642456,
      0.05971311777830124,
      0.2601422965526581,
      -0.22469940781593323,
      -0.34121668338775635,
      0.009032756090164185,
      -0.5654004812240601,
      -0.7804533839225769,
      0.11266133934259415,
      -1.4351797103881836,
      0.1655617505311966,
      -0.08738548308610916,
      0.4797118902206421,
      1.6534008979797363,
      -0.8076770305633545,
      0.21465598046779633,
      0.06306642293930054,
      -0.17234866321086884,
      -1.2090132236480713,
      0.3042941093444824,
      -0.12406054139137268,
      -0.5454264283180237,
      -0.061532486230134964,
      -0.008367396891117096,
      -0.2698637545108795,
      -0.4273158013820648,
      -0.16521501541137695,
      -0.8051706552505493,
      -0.9266397356987,
      -0.0148857980966568,
      0.2791338860988617,
      0.23262211680412292,
      0.39952075481414795,
      -0.17590568959712982,
      -0.09658490121364594,
      0.15778933465480804,
      -0.21588370203971863,
      -0.2221350371837616,
      -0.374216765165329,
      0.27431195974349976,
      -0.37177348136901855,
      -0.014026215299963951,
      -0.14781156182289124,
      -0.42450305819511414,
      0.10444609075784683,
      -0.41147133708000183,
      -1.163373589515686,
      -0.16441664099693298,
      0.33677905797958374,
      0.2018018513917923,
      0.47448909282684326,
      -0.09623979032039642,
      -0.07265204191207886,
      0.1464223712682724,
      -0.3137771487236023,
      -0.11043106019496918,
      -0.4210245609283447,
      0.23771177232265472,
      -0.43083858489990234,
      0.011183408088982105,
      -0.4015254080295563,
      -0.22139623761177063,
      -0.2844054698944092,
      -0.36439982056617737,
      -0.9497770667076111,
      0.16513200104236603,
      0.1690397709608078,
      0.37501004338264465,
      0.52313631772995,
      -0.14442241191864014,
      -0.02395121194422245,
      0.17757108807563782,
      -0.14242762327194214,
      -0.2223590910434723,
      -0.4657997488975525,
      0.10640257596969604,
      -0.32674750685691833,
      0.012016289867460728,
      -0.10286232084035873,
      -0.7019349932670593,
      -0.10694781690835953,
      -1.290633201599121,
      -0.8470277786254883,
      -0.8713015913963318,
      0.22804489731788635,
      0.34205666184425354,
      0.44903022050857544,
      -0.12312264740467072,
      -0.1886247843503952,
      0.18743060529232025,
      -0.37758636474609375,
      -0.0016424411442130804,
      -0.3562445342540741,
      0.22731633484363556,
      -0.4374660551548004,
      -0.05026273429393768,
      -0.012122449465095997,
      -0.08625281602144241,
      -0.01800687424838543,
      0.09224338084459305,
      0.3464227616786957,
      -0.023088619112968445,
      -0.21512730419635773,
      0.014002364128828049,
      -0.1337721198797226,
      -0.09214016050100327,
      0.3220956027507782,
      -0.1610483080148697,
      -0.1577158123254776,
      -0.04222194850444794,
      -0.15577936172485352,
      0.6650508046150208,
      0.7235701084136963,
      0.2550126612186432,
      0.19236743450164795,
      0.10192660987377167,
      0.001985920825973153,
      0.099570631980896,
      -0.18110834062099457,
      0.01358859334141016,
      -0.15166634321212769,
      0.24214136600494385,
      -0.16288840770721436,
      -1.0465490818023682,
      -1.3023148775100708,
      -1.082940936088562,
      -0.9206191897392273,
      -1.2469589710235596,
      -0.8688954710960388,
      -0.5598649978637695,
      0.12798015773296356,
      -0.7567538619041443,
      0.39049047231674194,
      0.19242917001247406,
      0.31973326206207275,
      0.43865394592285156,
      0.4457109570503235,
      0.4493948817253113,
      0.34668564796447754,
      0.07375528663396835,
      0.3909260630607605,
      -0.9792141318321228,
      -1.1557130813598633,
      -1.1107640266418457,
      -0.008672382682561874,
      -0.8872500658035278,
      -0.1541333645582199,
      0.022285105660557747,
      0.2791026532649994,
      0.014987314119935036,
      0.5545908212661743,
      0.768531858921051,
      0.36123958230018616,
      0.17062634229660034,
      -0.11107173562049866,
      0.05537335202097893,
      0.3367636501789093,
      0.41766735911369324,
      0.34349822998046875,
      -1.2598812580108643,
      -0.8897797465324402,
      -1.0568770170211792,
      -2.2423250675201416,
      -1.2106695175170898,
      -1.166542887687683,
      0.044142529368400574,
      0.23220674693584442,
      -0.01994427479803562,
      0.4895918667316437,
      0.2590824365615845,
      0.3616710603237152,
      0.4166056215763092,
      0.23821179568767548,
      0.5732777714729309,
      0.0871378630399704,
      0.09394621104001999,
      0.3415370583534241,
      -0.5290073156356812,
      -0.7672235369682312,
      -0.9531505107879639,
      -0.7247180342674255,
      -0.7262545824050903,
      -0.5375139713287354,
      0.04359273239970207,
      0.4252147376537323,
      0.049827903509140015,
      0.3146505057811737,
      0.3336891531944275,
      0.1773597002029419,
      0.022764043882489204,
      0.07983311265707016,
      0.13417673110961914,
      0.22464004158973694,
      0.2904762327671051,
      0.2882995009422302,
      1.3817548751831055,
      0.624457061290741,
      0.6036871075630188,
      0.11109273880720139,
      -0.3116607069969177,
      0.1209813728928566,
      -1.329854965209961,
      0.38624250888824463,
      -0.6598395705223083,
      0.20947349071502686,
      -0.20851309597492218,
      0.361357182264328,
      -1.055433988571167,
      -1.2333221435546875,
      -0.7192829251289368,
      -0.8676207065582275,
      0.15940506756305695,
      -0.31176137924194336,
      1.6705803871154785,
      0.4881235957145691,
      1.3482111692428589,
      0.010169328190386295,
      -0.6294729709625244,
      0.16473470628261566,
      -0.5991910696029663,
      -0.46434569358825684,
      -0.403786838054657,
      0.2747372090816498,
      -0.2884354889392853,
      0.37304165959358215,
      -0.842653214931488,
      -1.6025340557098389,
      -0.5127312541007996,
      -1.0850193500518799,
      0.5549924373626709,
      -1.008332371711731,
      1.6718270778656006,
      0.6721790432929993,
      1.2877906560897827,
      0.2501666843891144,
      -0.4492127001285553,
      0.07083497941493988,
      -0.8414223790168762,
      0.503200352191925,
      -0.1732494980096817,
      0.4087926745414734,
      -0.3023815155029297,
      0.49123239517211914,
      -0.9849024415016174,
      -1.3318568468093872,
      -0.6879047751426697,
      -1.028786540031433,
      0.34682127833366394,
      -0.7266408801078796,
      1.7331624031066895,
      0.48748159408569336,
      1.0826610326766968,
      -0.03222602233290672,
      -0.36620643734931946,
      -0.1386597752571106,
      -1.1035372018814087,
      -0.12019025534391403,
      -0.6133372783660889,
      0.3955008089542389,
      -0.05310032144188881,
      0.39313140511512756,
      -0.9717243313789368,
      -1.3889539241790771,
      -0.48804771900177,
      -0.9812798500061035,
      0.3941253423690796,
      -0.7905839681625366,
      -0.10477890074253082,
      -0.138397216796875,
      -0.09269054234027863,
      0.15202030539512634,
      -0.25953587889671326,
      0.061682071536779404,
      0.036478083580732346,
      -0.0224187932908535,
      0.025556381791830063,
      -0.13683737814426422,
      0.04561791196465492,
      0.20079180598258972,
      0.2431187629699707,
      0.13574372231960297,
      0.350124716758728,
      -0.3175254762172699,
      -0.4886460602283478,
      0.1822381466627121,
      -0.1444873958826065,
      -1.056459903717041,
      -0.09207022935152054,
      0.050875719636678696,
      0.3844773769378662,
      -0.10521015524864197,
      -0.04627607762813568,
      -0.227772518992424,
      0.02454499714076519,
      0.5410158634185791,
      1.076939344406128,
      0.6424421072006226,
      0.671874463558197,
      1.101804256439209,
      0.4800816774368286,
      0.1167985200881958,
      0.7722682356834412,
      0.6923390030860901,
      0.4603829085826874,
      -0.21498315036296844,
      0.32661011815071106,
      0.345505952835083,
      -0.1131078377366066,
      -0.1927712857723236,
      -0.36842745542526245,
      0.07899489253759384,
      -0.2156374156475067,
      0.4268666207790375,
      -0.8936223983764648,
      -0.9162081480026245,
      0.5948781371116638,
      -0.5584038496017456,
      0.32131707668304443,
      -0.19570355117321014,
      0.3937518000602722,
      0.8134275674819946,
      0.1531408429145813,
      0.17733460664749146,
      0.3297024667263031,
      -1.6413347721099854,
      1.0907349586486816,
      -2.0836918354034424,
      -0.28023654222488403,
      0.5258488655090332,
      -0.20406801998615265,
      1.3961189985275269,
      2.0844430923461914,
      0.630791425704956,
      1.183016300201416,
      2.2061803340911865,
      0.7645811438560486,
      0.7056602835655212,
      1.2046635150909424,
      0.7160041928291321,
      0.3118024170398712,
      -0.35619843006134033,
      0.23699115216732025,
      0.0962042510509491,
      0.09055018424987793,
      -0.08121888339519501,
      -0.617901623249054,
      0.4043276607990265,
      -0.36260080337524414,
      0.41618025302886963,
      -1.3987116813659668,
      -0.285491019487381,
      0.5874841213226318,
      -1.9714504480361938,
      0.38145026564598083,
      -1.781653642654419,
      0.490817129611969,
      0.5079783797264099,
      -0.06723953783512115,
      -0.6873312592506409,
      -0.225303053855896,
      -1.662175178527832,
      0.8659579753875732,
      -2.4104743003845215,
      0.010344598442316055,
      0.47950100898742676,
      -0.1395380198955536,
      -0.10604971647262573,
      -1.1824382543563843,
      -0.414031982421875,
      0.1941947191953659,
      -0.3810073733329773,
      -0.0279310904443264,
      -0.12241001427173615,
      -0.370679646730423,
      -0.16658875346183777,
      0.026467328891158104,
      -0.3427853584289551,
      -0.015389259904623032,
      -0.021516451612114906,
      -0.7764660716056824,
      0.12956178188323975,
      -0.07923854887485504,
      -0.48432835936546326,
      0.1232817992568016,
      -0.05573031306266785,
      -0.6805711388587952,
      -0.4741983711719513,
      -0.001188563066534698,
      -0.34071364998817444,
      0.13453011214733124,
      -0.300406813621521,
      -0.02483363263309002,
      -0.2425323724746704,
      -0.036659322679042816,
      -0.44348856806755066,
      0.03461785241961479,
      0.09044796228408813,
      -0.568684458732605,
      0.20232877135276794,
      -0.09683530032634735,
      -0.4518211781978607,
      0.10280440002679825,
      0.01741548627614975,
      -0.8896481990814209,
      -0.6412211060523987,
      0.007996146567165852,
      0.012749848887324333,
      0.14077527821063995,
      0.007430960424244404,
      -0.286624550819397,
      -0.04669255390763283,
      0.15457427501678467,
      -0.46495959162712097,
      0.014299516566097736,
      -0.11354972422122955,
      -1.8971012830734253,
      0.10844597965478897,
      -0.011456781066954136,
      -0.7274290323257446,
      0.20171336829662323,
      -0.045810990035533905,
      -1.0415335893630981,
      -0.2848256826400757,
      -0.19431017339229584,
      0.09757199883460999,
      -0.05603111535310745,
      -0.19440403580665588,
      -0.241835817694664,
      -0.047939233481884,
      0.057707175612449646,
      -0.43260452151298523,
      -0.04269782453775406,
      0.020837150514125824,
      -0.7988423705101013,
      0.1560688018798828,
      -0.07819367200136185,
      -0.4312453269958496,
      0.11609489470720291,
      0.05526401475071907,
      -0.08928980678319931,
      0.027342597022652626,
      -0.009960882365703583,
      -2.935276985168457,
      -0.001045837765559554,
      -0.040358755737543106,
      0.08664758503437042,
      -0.008919610641896725,
      0.28092673420906067,
      0.031190959736704826,
      0.005572320893406868,
      0.042548149824142456,
      0.1493331342935562,
      0.05607711523771286,
      -0.23140954971313477,
      0.4597407281398773,
      -0.02090419828891754,
      -0.294187992811203,
      -0.06985654681921005,
      -0.2534717619419098,
      -0.3308238685131073,
      -0.26082509756088257,
      -0.18133659660816193,
      -0.11837125569581985,
      -0.29371264576911926,
      -0.12970632314682007,
      0.3555773198604584,
      0.1573999971151352,
      -0.006609160453081131,
      2.0863699913024902,
      -0.3577011823654175,
      1.0685490369796753,
      -0.036033302545547485,
      -0.5145401358604431,
      0.1170363575220108,
      -1.287150502204895,
      0.168687641620636,
      -0.410339891910553,
      -1.9285149574279785,
      -0.13145069777965546,
      -0.9079029560089111,
      -1.6347320079803467,
      -0.27783361077308655,
      -0.90057373046875,
      0.36215853691101074,
      0.4268161654472351,
      0.2672561705112457,
      1.0747348070144653,
      -1.0852329730987549,
      2.0842113494873047,
      0.02912893332540989,
      0.46987560391426086,
      0.1188250258564949,
      -0.3767654299736023,
      0.32145413756370544,
      -1.4478576183319092,
      -1.2129937410354614,
      0.0969429686665535,
      -0.20294725894927979,
      -0.6534119248390198,
      0.14229056239128113,
      -1.9287848472595215,
      0.35640403628349304,
      0.6828470826148987,
      0.28070947527885437,
      1.2296435832977295,
      -0.6925181150436401,
      1.7582980394363403,
      -0.2868509292602539,
      0.6061428189277649,
      0.17943163216114044,
      -0.651470959186554,
      0.2719132602214813,
      -1.1610934734344482,
      -0.7809522747993469,
      0.0009763524867594242,
      -1.1995289325714111,
      -0.8390721082687378,
      0.09754551947116852,
      -1.5958179235458374,
      0.37865114212036133,
      0.5657360553741455,
      0.06511320173740387,
      1.3002701997756958,
      0.24335364997386932,
      1.5543675422668457,
      -0.16667915880680084,
      0.32605624198913574,
      -0.21789389848709106,
      -0.8491395711898804,
      -0.881923496723175,
      -1.2306643724441528,
      -0.4369111955165863,
      -0.52015620470047,
      -0.4315313696861267,
      -0.8894168138504028,
      -0.2180420607328415,
      -1.2898062467575073,
      0.4163815379142761,
      -0.17258800566196442,
      0.33826643228530884,
      0.2486659586429596,
      -2.3921468257904053,
      0.12352757900953293,
      -0.06226710230112076,
      0.16836082935333252,
      -0.1861342042684555,
      0.19502362608909607,
      0.22094696760177612,
      0.20784053206443787,
      0.11004474759101868,
      -0.24011169373989105,
      -0.024819137528538704,
      0.3263179361820221,
      -0.3968776762485504,
      0.2885511815547943,
      0.5909277200698853,
      -0.5288938283920288,
      0.41127076745033264,
      0.4426211416721344,
      -1.7380918264389038,
      0.13338850438594818,
      -0.1265484243631363,
      -0.028537072241306305,
      -0.08373213559389114,
      0.25412246584892273,
      0.1394427865743637,
      0.18152834475040436,
      -0.0491703636944294,
      -0.06343778967857361,
      -0.06079370900988579,
      0.2353806346654892,
      -0.46065014600753784,
      0.2024809718132019,
      0.5860563516616821,
      -0.3378216624259949,
      0.578986406326294,
      -0.022190462797880173,
      -2.4268760681152344,
      0.07852523773908615,
      -0.12481781840324402,
      0.24621424078941345,
      -0.19572176039218903,
      0.21872492134571075,
      0.2362050712108612,
      0.1277807652950287,
      -0.07061009854078293,
      -0.2245158553123474,
      0.01742572709918022,
      0.2847214341163635,
      -0.2863740921020508,
      0.13783839344978333,
      0.6522007584571838,
      -0.38233309984207153,
      0.40721216797828674,
      0.3550945520401001,
      -2.2842912673950195,
      0.23316584527492523,
      -0.007403356954455376,
      0.4096980392932892,
      0.010491895489394665,
      0.17404931783676147,
      0.2590802311897278,
      0.2056228220462799,
      0.07384392619132996,
      -0.2909439504146576,
      0.08046562969684601,
      0.28748685121536255,
      -0.3352115750312805,
      0.1477450579404831,
      -0.023419419303536415,
      0.016733666881918907,
      -0.044315773993730545,
      0.005627806764096022,
      0.013971187174320221,
      -0.0663398802280426,
      -0.06500094383955002,
      -0.010073447600007057,
      -0.025849999859929085,
      -0.20124517381191254,
      0.1944541484117508,
      0.3726564049720764,
      0.3470832109451294,
      0.2228267341852188,
      0.18287253379821777,
      0.28437381982803345,
      0.49862444400787354,
      0.5260956883430481,
      -0.3784918785095215,
      0.25590184330940247,
      -0.6673596501350403,
      -0.46451637148857117,
      -0.003275842173025012,
      -0.13729271292686462,
      0.006741190794855356,
      0.2527703642845154,
      -0.09824347496032715,
      -0.8940447568893433,
      -0.5426281094551086,
      -0.15847612917423248,
      -0.9315979480743408,
      -0.07690280675888062,
      -1.8849598169326782,
      -0.11141464859247208,
      -0.9324806928634644,
      -1.0070284605026245,
      -0.4344072639942169,
      -0.16784320771694183,
      -0.023852571845054626,
      -1.562535047531128,
      -0.1321234107017517,
      -0.34031254053115845,
      1.1654900312423706,
      0.0863659456372261,
      0.35702425241470337,
      -1.063899040222168,
      -0.7201600074768066,
      -0.37115952372550964,
      -0.9151574373245239,
      -0.5090256333351135,
      -1.8189806938171387,
      -0.11589446663856506,
      -0.9509936571121216,
      -0.3379670977592468,
      -0.1859998106956482,
      -0.3591351807117462,
      -0.22047759592533112,
      -0.24945960938930511,
      0.05463903024792671,
      0.32674840092658997,
      0.907581090927124,
      0.06059897691011429,
      0.6746760010719299,
      1.0697641372680664,
      -1.3013440370559692,
      -0.035380005836486816,
      -1.1997482776641846,
      -1.022674560546875,
      1.1758531332015991,
      -0.0012518343282863498,
      -0.2748579978942871,
      0.8153126835823059,
      -0.4607914984226227,
      0.4308660328388214,
      -0.6029400825500488,
      -0.7629923224449158,
      -0.08571027964353561,
      -4.399802207946777,
      1.5087350606918335,
      0.7045644521713257,
      0.8277924656867981,
      -0.7427172660827637,
      -0.6416866183280945,
      -0.3375689387321472,
      -0.6479203104972839,
      -0.4120541512966156,
      -0.704475998878479,
      -1.8524962663650513,
      -0.8701701164245605,
      -0.10097545385360718,
      -0.12069551646709442,
      -0.06247904524207115,
      -0.12252335995435715,
      0.4118051528930664,
      -0.2525714933872223,
      0.4449787139892578,
      0.496017724275589,
      0.23481467366218567,
      0.7047706842422485,
      0.4290066957473755,
      0.19651205837726593,
      0.07175283133983612,
      -0.2157052457332611,
      0.07770967483520508,
      0.06102501228451729,
      0.930820107460022,
      0.10908270627260208,
      0.10492799431085587,
      0.062027398496866226,
      0.27582991123199463,
      0.015054811723530293,
      -0.314236581325531,
      -0.3827051520347595,
      0.24206426739692688,
      0.6514233350753784,
      -0.17094071209430695,
      0.5206488370895386,
      -0.43087419867515564,
      0.02608594298362732,
      0.03795004263520241,
      -0.38365328311920166,
      0.3140674829483032,
      -0.2930443584918976,
      0.9505626559257507,
      -0.1681186705827713,
      0.12009816616773605,
      0.03673000633716583,
      0.2535308301448822,
      0.02716842107474804,
      0.01638040877878666,
      -0.5792686939239502,
      0.20120546221733093,
      0.7240883111953735,
      0.028977621346712112,
      0.5882710814476013,
      0.3800082802772522,
      0.8669590353965759,
      0.0514591820538044,
      0.881193220615387,
      0.11006668210029602,
      -0.3254539370536804,
      0.9132956266403198,
      0.09397485852241516,
      0.27821096777915955,
      -0.04221221059560776,
      0.47866952419281006,
      -0.17297284305095673,
      0.2120649516582489,
      -0.1355433613061905,
      0.25499066710472107,
      0.37566831707954407,
      -0.3432192802429199,
      0.47345367074012756,
      -0.07507378607988358,
      0.30688831210136414,
      0.2671533226966858,
      0.05887230485677719,
      0.2427479326725006,
      0.009428625926375389,
      0.5957822799682617,
      0.07377979159355164,
      0.10046668350696564,
      -0.04394688457250595,
      0.2125392109155655,
      0.018956603482365608,
      0.0946744903922081,
      -0.35305917263031006,
      0.3033249080181122,
      0.45893171429634094,
      0.06248678267002106,
      0.4167324900627136,
      -0.02503800578415394,
      -0.22019536793231964,
      0.014138291589915752,
      -0.026782726868987083,
      -0.022173771634697914,
      0.01689244620501995,
      0.006224143784493208,
      0.05447559803724289,
      -0.08392050862312317,
      0.29859209060668945,
      -0.25313159823417664,
      0.12194716930389404,
      -0.17598947882652283,
      0.3258804380893707,
      -1.3724007606506348,
      0.5953124165534973,
      0.5001136660575867,
      0.5176117420196533,
      -0.31129616498947144,
      -0.5840429663658142,
      -0.4665180742740631,
      0.2958037555217743,
      -0.06818775087594986,
      0.12452656775712967,
      -0.1772649586200714,
      0.14041583240032196,
      -0.1562393754720688,
      0.22314363718032837,
      -0.703771710395813,
      0.04777507483959198,
      0.23203954100608826,
      -0.4275014102458954,
      0.18452005088329315,
      0.10917412489652634,
      0.6929389834403992,
      -0.17432285845279694,
      0.20213302969932556,
      0.16986753046512604,
      0.17831668257713318,
      0.41069161891937256,
      0.25999894738197327,
      -0.08027703315019608,
      -0.11130651831626892,
      -0.20465828478336334,
      0.13151825964450836,
      0.06580853462219238,
      0.7220527529716492,
      0.10584992170333862,
      -0.22820408642292023,
      0.1655166745185852,
      -0.09440486133098602,
      -1.2662755250930786,
      0.47833240032196045,
      -1.5296634435653687,
      -0.020515721291303635,
      -2.0066275596618652,
      -0.9503583908081055,
      0.6842049956321716,
      -2.1184465885162354,
      1.0087475776672363,
      0.8454458117485046,
      -0.48365476727485657,
      0.5529675483703613,
      -0.6433702707290649,
      -0.5926215648651123,
      0.009976361878216267,
      0.3434847593307495,
      -1.0420384407043457,
      -0.01828479953110218,
      0.2270163893699646,
      0.5894572138786316,
      0.33949604630470276,
      0.2813974916934967,
      -0.09836619347333908,
      0.20869311690330505,
      0.41040346026420593,
      0.6054806113243103,
      0.11031936854124069,
      0.181056410074234,
      0.11943625658750534,
      0.14885638654232025,
      0.2660084664821625,
      -1.6883553266525269,
      -0.12974324822425842,
      0.5948193669319153,
      0.3736470639705658,
      0.4107564389705658,
      0.7974576950073242,
      0.7098879814147949,
      0.5992655158042908,
      0.19650593400001526,
      0.28388711810112,
      0.1351582109928131,
      0.5392553210258484,
      -0.04024384915828705,
      0.3781374990940094,
      -0.4278683662414551,
      -0.2370554506778717,
      -0.15521445870399475,
      0.9846652746200562,
      0.3839535713195801,
      0.13282103836536407,
      0.5229862928390503,
      -0.666533350944519,
      0.06517604738473892,
      -0.1406073421239853,
      -0.5615770220756531,
      -1.9388222694396973,
      -0.12525436282157898,
      -0.6030385494232178,
      0.034396082162857056,
      0.3968591094017029,
      -1.1547789573669434,
      0.41730231046676636,
      -1.4063959121704102,
      0.41645511984825134,
      -0.24777169525623322,
      0.7666208744049072,
      0.623132586479187,
      0.123464435338974,
      -0.0686330646276474,
      -0.5275956988334656,
      0.24614301323890686,
      0.1952500343322754,
      -0.17592881619930267,
      -0.49794867634773254,
      -0.05259300395846367,
      -0.5015262961387634,
      0.02155371941626072,
      -0.6831237077713013,
      -1.2052745819091797,
      0.3696534037590027,
      -0.17237357795238495,
      -0.31279200315475464,
      -0.24177920818328857,
      0.04632474109530449,
      1.232041597366333,
      0.10162723064422607,
      -0.3060842454433441,
      -0.3761522173881531,
      -0.0068495990708470345,
      0.07205049693584442,
      -0.5725130438804626,
      -1.1246486902236938,
      -0.08790338039398193,
      -0.3630066514015198,
      -0.02985139563679695,
      -0.32763949036598206,
      -0.42596936225891113,
      0.015255097299814224,
      0.1838206797838211,
      -0.6135074496269226,
      0.04371297359466553,
      1.258448600769043,
      1.040704369544983,
      -0.040515411645174026,
      0.4879790246486664,
      -0.399168998003006,
      0.1098882332444191,
      0.014964846894145012,
      -0.12459676712751389,
      -2.1284003257751465,
      -0.042423564940690994,
      -0.425481915473938,
      -0.027527913451194763,
      -0.3689773380756378,
      -1.5058884620666504,
      0.21830718219280243,
      -1.1019935607910156,
      0.1722773313522339,
      -0.03717790171504021,
      -0.05517329275608063,
      0.0030673618894070387,
      -0.05320164933800697,
      -0.3001561164855957,
      -0.08348491042852402,
      -0.2513870596885681,
      0.03771355375647545,
      -0.5369799137115479,
      -0.01368812844157219,
      0.06750330328941345,
      0.2395990937948227,
      0.10846938192844391,
      0.5860881209373474,
      0.44038429856300354,
      -0.044702161103487015,
      -0.1969873309135437,
      -0.50772625207901,
      0.02009350247681141,
      -0.0759647935628891,
      0.10608390718698502,
      -0.06719522178173065,
      -0.09899154305458069,
      0.331081748008728,
      -0.27933481335639954,
      0.09847886860370636,
      0.2131398767232895,
      -0.03387937322258949,
      -2.4407577514648438,
      -1.099973201751709,
      -0.25186222791671753,
      -0.9022025465965271,
      -0.31265050172805786,
      -2.3879127502441406,
      0.7254345417022705,
      -0.3146841526031494,
      0.7956135272979736,
      0.49937519431114197,
      0.18872231245040894,
      0.5349186062812805,
      0.9709511399269104,
      0.4274548888206482,
      0.675798773765564,
      -0.3149929344654083,
      0.27243712544441223,
      -0.3572622239589691,
      -0.5751272439956665,
      -0.7546237111091614,
      -0.8708212971687317,
      -0.6820195317268372,
      -0.07526900619268417,
      -1.7581684589385986,
      -0.06515409052371979,
      -0.3889821171760559,
      -0.8287082314491272,
      0.28050896525382996,
      0.5705261826515198,
      0.07280239462852478,
      0.7899437546730042,
      0.47061246633529663,
      0.4913666546344757,
      -0.07815351337194443,
      0.2121020406484604,
      -0.03361506387591362,
      -2.1650891304016113,
      -0.8578112721443176,
      -1.0675183534622192,
      -2.3959414958953857,
      -0.5204313397407532,
      -1.8568334579467773,
      -0.11869140714406967,
      -1.3083527088165283,
      -0.014930831268429756,
      0.40006351470947266,
      0.3257216811180115,
      0.389782190322876,
      1.0654561519622803,
      0.3679533898830414,
      0.9252973198890686,
      -0.35244429111480713,
      -0.14659610390663147,
      -0.09561491012573242,
      0.10582563281059265,
      -1.2303446531295776,
      0.21850551664829254,
      0.010929733514785767,
      -0.02278396300971508,
      -1.536902904510498,
      0.9127230644226074,
      0.024814872071146965,
      0.07205966114997864,
      0.5002371072769165,
      0.3166757822036743,
      0.6452962756156921,
      0.04724311828613281,
      0.25786322355270386,
      -0.18506458401679993,
      0.17579753696918488,
      0.25946736335754395,
      0.25504374504089355,
      -0.4624801278114319,
      -0.3499296009540558,
      -0.7176915407180786,
      -0.949552059173584,
      0.6184756755828857,
      -0.49022820591926575,
      0.1825566440820694,
      -0.3497547507286072,
      0.24584415555000305,
      0.11473935842514038,
      0.43522971868515015,
      -0.07017949223518372,
      0.09826705604791641,
      0.08453521877527237,
      0.24175356328487396,
      0.4003632068634033,
      -0.15883564949035645,
      0.5217460989952087,
      -0.036540113389492035,
      -0.01099385041743517,
      -0.041680753231048584,
      -0.3882617950439453,
      0.38305240869522095,
      0.16144756972789764,
      0.4893660247325897,
      0.3184479773044586,
      0.2296251356601715,
      0.2991182506084442,
      0.34175214171409607,
      0.2349633127450943,
      -0.1527211219072342,
      0.004792641848325729,
      0.019681276753544807,
      0.3038395643234253,
      0.13957904279232025,
      0.27105966210365295,
      -0.3676190972328186,
      -0.2862672209739685,
      -1.0575402975082397,
      -0.7901188135147095,
      0.6304931044578552,
      -1.3090845346450806,
      -0.014094429090619087,
      -0.19277270138263702,
      0.2426263689994812,
      0.19675065577030182,
      0.5285829305648804,
      -0.1830919235944748,
      -0.15400487184524536,
      -0.1293497383594513,
      0.1403687745332718,
      0.5572454333305359,
      -0.04867534339427948,
      0.7228227257728577,
      -0.013964680023491383,
      -1.1208924055099487,
      -0.17495976388454437,
      -0.5509579181671143,
      -0.43044599890708923,
      -0.39652734994888306,
      0.13223867118358612,
      0.3364127278327942,
      0.33609476685523987,
      0.2611759901046753,
      0.1292661428451538,
      0.12132249027490616,
      -0.0403006374835968,
      0.29467663168907166,
      0.24476702511310577,
      0.28164637088775635,
      0.22068822383880615,
      0.195196732878685,
      -0.10461901873350143,
      -0.053627174347639084,
      0.02936505898833275,
      0.028441859409213066,
      -0.08407092839479446,
      0.0216064453125,
      0.06089087575674057,
      0.050218574702739716,
      0.07747769355773926,
      0.34863075613975525,
      -1.0513046979904175,
      -1.1426990032196045,
      0.510213315486908,
      0.43653032183647156,
      -0.7175934910774231,
      0.6149271726608276,
      -1.29899263381958,
      -0.2458651065826416,
      -0.3852708041667938,
      0.21110926568508148,
      -0.16099445521831512,
      0.20507660508155823,
      0.20516055822372437,
      0.1505947709083557,
      0.017217371612787247,
      -0.34074756503105164,
      -0.08600857108831406,
      0.0014387447154149413,
      0.5917168259620667,
      -0.4763167202472687,
      -0.42523762583732605,
      1.5848323106765747,
      0.6343709230422974,
      0.6406671404838562,
      0.7167217135429382,
      0.7141382098197937,
      -1.2444894313812256,
      0.6441150903701782,
      -0.7687952518463135,
      -0.033502012491226196,
      0.954700767993927,
      -0.8761313557624817,
      -0.78717440366745,
      -0.29552382230758667,
      -0.24089257419109344,
      0.08668062090873718,
      0.09685953706502914,
      -2.0713486671447754,
      0.016047567129135132,
      0.04017195478081703,
      0.04408800229430199,
      -1.2119945287704468,
      -1.824865698814392,
      -1.188929557800293,
      -0.5026772022247314,
      -0.7122017741203308,
      -0.16849671304225922,
      0.8566390872001648,
      0.735161542892456,
      0.20114806294441223,
      -0.5224878787994385,
      -0.11540188640356064,
      0.24224108457565308,
      0.008200414478778839,
      -0.25024160742759705,
      0.16772449016571045,
      -0.015283675864338875,
      1.0409563779830933,
      0.27054476737976074,
      -1.0290043354034424,
      -0.7788454294204712,
      0.1559937447309494,
      -0.42098268866539,
      -0.401944100856781,
      -0.6846032738685608,
      -0.2270028442144394,
      0.7313105463981628,
      -0.9935675263404846,
      -1.5216810703277588,
      0.23610346019268036,
      -0.703006386756897,
      -0.5233005285263062,
      -0.17397896945476532,
      -0.28917938470840454,
      -0.31362733244895935,
      0.028857406228780746,
      0.4621889293193817,
      -1.117479681968689,
      -0.7626090049743652,
      -1.1136415004730225,
      -0.8824949860572815,
      0.20458443462848663,
      -0.4169583022594452,
      0.449184775352478,
      0.22367805242538452,
      0.28047114610671997,
      -0.21629269421100616,
      -0.13008591532707214,
      -0.07033094763755798,
      0.026279961690306664,
      0.4427092671394348,
      0.5821395516395569,
      -0.08765305578708649,
      -1.3359742164611816,
      0.39243417978286743,
      -0.7126411199569702,
      -0.5094674825668335,
      0.5487789511680603,
      0.17275607585906982,
      -0.24597609043121338,
      -0.05604296177625656,
      -0.20187968015670776,
      -0.12707121670246124,
      0.12826496362686157,
      -0.152289018034935,
      0.07902152836322784,
      -0.44144147634506226,
      0.00474553881213069,
      0.19274666905403137,
      0.22126130759716034,
      -0.4317004978656769,
      0.0393415167927742,
      0.13328538835048676,
      0.5011255741119385,
      -0.7617619037628174,
      -0.12351187318563461,
      -0.052637193351984024,
      -0.19254112243652344,
      -0.02028033509850502,
      0.21342095732688904,
      -0.2963734567165375,
      0.19113154709339142,
      -0.2196497768163681,
      -0.04176226630806923,
      -0.10048801451921463,
      0.23241056501865387,
      0.16464447975158691,
      0.48324155807495117,
      -0.39648422598838806,
      -1.171540379524231,
      -0.030333837494254112,
      -0.04022911563515663,
      -0.5948578715324402,
      0.28412699699401855,
      0.09385362267494202,
      -0.24253720045089722,
      0.1579011082649231,
      0.02702810801565647,
      -0.11841214448213577,
      -0.04303891956806183,
      -0.21511642634868622,
      -0.08325646817684174,
      -0.02282796800136566,
      0.28222545981407166,
      -0.011058391071856022,
      0.4201201796531677,
      -0.7760143280029297,
      -0.49985969066619873,
      0.14821800589561462,
      -0.04427091032266617,
      -0.7516893148422241,
      -0.33162400126457214,
      0.09829920530319214,
      -0.2765256464481354,
      0.016811411827802658,
      -0.07550432533025742,
      0.0013485327363014221,
      0.030544450506567955,
      -0.1352527141571045,
      -0.1515408158302307,
      -0.1080223023891449,
      -0.019955869764089584,
      -0.32388100028038025,
      -0.0453353226184845,
      -0.06164875999093056,
      0.1342240273952484,
      -0.003517190460115671,
      -0.02100294455885887,
      0.01061643473803997,
      0.02076864242553711,
      -0.21740645170211792,
      0.242031529545784,
      0.06616697460412979,
      0.008076409809291363,
      0.26733505725860596,
      0.021490534767508507,
      -0.18252834677696228,
      0.07478305697441101,
      0.06841316819190979,
      -0.01538865827023983,
      0.07694309204816818,
      -0.0024451243225485086,
      -0.0922834724187851,
      -0.03840942680835724,
      -0.17090687155723572,
      0.0037267988082021475,
      0.12995754182338715,
      -0.07221204042434692,
      0.554174542427063,
      -1.7635308504104614,
      0.6259623169898987,
      1.186568021774292,
      -0.29618290066719055,
      1.0569636821746826,
      0.8010509014129639,
      0.1870824545621872,
      -0.03252258896827698,
      -0.40267184376716614,
      0.007776099257171154,
      0.5068448185920715,
      0.35738715529441833,
      -0.6604494452476501,
      0.2752342224121094,
      -0.444600373506546,
      0.5458548665046692,
      -0.08470578491687775,
      0.37429654598236084,
      -0.01440935768187046,
      -0.3826415538787842,
      0.39341384172439575,
      0.4610925018787384,
      0.45713526010513306,
      0.07665205001831055,
      -0.5221532583236694,
      0.04019194841384888,
      -0.4980336129665375,
      0.8732233643531799,
      -0.11870779097080231,
      -0.3131105303764343,
      -0.4678974151611328,
      -0.2691132426261902,
      0.20939631760120392,
      -0.504347026348114,
      0.21163977682590485,
      -0.021693991497159004,
      1.086872935295105,
      -0.8574907183647156,
      -0.6579267978668213,
      1.280096173286438,
      -0.3196184039115906,
      0.7672649621963501,
      1.5675489902496338,
      -0.10744816809892654,
      0.9813736081123352,
      -0.2579328119754791,
      0.7422452569007874,
      0.2466660737991333,
      -0.4460517168045044,
      0.7670630812644958,
      -0.25015705823898315,
      0.2700374126434326,
      -0.2619132995605469,
      0.5536558628082275,
      1.0392966270446777,
      0.10334333777427673,
      -1.8933486938476562,
      -2.0690603256225586,
      -1.9016399383544922,
      -1.0079376697540283,
      0.6599406003952026,
      0.051694534718990326,
      -0.19858764111995697,
      0.007784455083310604,
      -0.3288922905921936,
      -0.27782905101776123,
      1.2366701364517212,
      -0.33074522018432617,
      -1.3303009271621704,
      -1.6217515468597412,
      -1.1519019603729248,
      -0.27348658442497253,
      0.23039603233337402,
      -0.23684266209602356,
      -0.051250606775283813,
      0.09720615297555923,
      -0.26929882168769836,
      -0.4647499918937683,
      -0.2788957357406616,
      0.057510558515787125,
      -0.042706139385700226,
      -0.23177756369113922,
      -0.10412683337926865,
      0.0397699773311615,
      0.13274334371089935,
      0.09775203466415405,
      0.023739328607916832,
      -0.22861070930957794,
      0.012370873242616653,
      -0.11305557191371918,
      -0.27183809876441956,
      0.040347870439291,
      0.139996737241745,
      0.09317151457071304,
      0.11169354617595673,
      -0.3625686466693878,
      -0.27800458669662476,
      0.03878272324800491,
      0.08813797682523727,
      -0.32237789034843445,
      -0.14955683052539825,
      -0.067903071641922,
      0.22594237327575684,
      0.18901003897190094,
      0.004748519975692034,
      -0.1947854906320572,
      0.010976871475577354,
      -0.20924648642539978,
      -0.36299872398376465,
      -0.1743931770324707,
      0.4773680567741394,
      -0.06342174857854843,
      0.09216424077749252,
      0.05927807837724686,
      -0.5944135189056396,
      -0.1346750557422638,
      -0.12174096703529358,
      -0.2688818871974945,
      -0.12200063467025757,
      0.1397656500339508,
      0.18101762235164642,
      0.1572839468717575,
      0.054586831480264664,
      -0.25586602091789246,
      0.09062866121530533,
      0.09323076903820038,
      -0.29828178882598877,
      -0.05091318115592003,
      0.05413709953427315,
      0.10025206953287125,
      -0.06887147575616837,
      -0.06373941898345947,
      0.051007021218538284,
      -0.36742186546325684,
      -0.1319819986820221,
      -0.130083829164505,
      -0.08031405508518219,
      0.16567428410053253,
      0.04624853655695915,
      0.11408258229494095,
      -0.021730760112404823,
      -0.26188820600509644,
      0.13605542480945587,
      -0.09698645025491714,
      -0.010887264274060726,
      0.018137754872441292,
      -0.07691973447799683,
      0.05763706564903259,
      -0.12888990342617035,
      -0.0026843214873224497,
      0.08474906533956528,
      -0.057059455662965775,
      -0.5918619632720947,
      -0.1586269736289978,
      -0.1835366040468216,
      -0.1523631513118744,
      -0.04695048928260803,
      -0.06230122596025467,
      -0.5045351386070251,
      -0.7035447955131531,
      -0.10367871820926666,
      0.1267247349023819,
      0.0503203384578228,
      -0.01561762671917677,
      0.10271851718425751,
      -0.033803850412368774,
      -0.0332329198718071,
      0.035510264337062836,
      0.10879340022802353,
      0.11473194509744644,
      0.007133368402719498,
      -0.5029148459434509,
      0.27790817618370056,
      0.4276803135871887,
      -0.6015525460243225,
      0.23012857139110565,
      -0.14852958917617798,
      0.4373418390750885,
      0.0652073472738266,
      0.4049686789512634,
      -0.04210999608039856,
      -0.2057047039270401,
      -0.6707822680473328,
      -0.20112943649291992,
      0.549342155456543,
      0.03233278915286064,
      0.38594362139701843,
      -0.502640426158905,
      -1.2052770853042603,
      1.6403253078460693,
      0.1745060235261917,
      1.5405278205871582,
      1.6088768243789673,
      0.32958608865737915,
      -0.06539150327444077,
      0.08215732872486115,
      0.47960054874420166,
      0.1673993021249771,
      0.3732195794582367,
      -0.4527255892753601,
      -0.2550150752067566,
      0.25070273876190186,
      -0.13469742238521576,
      0.5855099558830261,
      -0.2168666124343872,
      -0.48885881900787354,
      0.5868157148361206,
      -0.3217878043651581,
      0.41109660267829895,
      0.43994489312171936,
      0.29366278648376465,
      0.801762044429779,
      0.5567534565925598,
      0.9229861497879028,
      0.9393889307975769,
      -0.3691926598548889,
      -0.366061270236969,
      -0.257982462644577,
      0.08052999526262283,
      -0.056077998131513596,
      0.08802062273025513,
      0.16350482404232025,
      -0.1308976411819458,
      -0.19028404355049133,
      -0.5787693858146667,
      -0.006511310581117868,
      -0.1910696178674698,
      1.1639093160629272,
      1.5548609495162964,
      0.1947740614414215,
      -0.8930467963218689,
      -0.59197598695755,
      -0.9558190107345581,
      -0.44067713618278503,
      0.5129244327545166,
      -0.025247709825634956,
      -1.4342036247253418,
      -0.943328857421875,
      -1.0452207326889038,
      -0.9711026549339294,
      0.5827378630638123,
      0.26270395517349243,
      -0.34146302938461304,
      0.14220286905765533,
      -0.15017220377922058,
      -0.13771690428256989,
      0.1524461954832077,
      -0.21068964898586273,
      0.04677595943212509,
      -0.4306434690952301,
      -0.2483038306236267,
      -0.1127065047621727,
      0.07847315073013306,
      -0.08820633590221405,
      -0.2665824592113495,
      -0.006383530329912901,
      -0.28056907653808594,
      0.15056680142879486,
      -0.06828662008047104,
      -0.00991751067340374,
      -0.2692357301712036,
      -0.035713572055101395,
      -0.25981268286705017,
      -0.30267298221588135,
      -0.15220671892166138,
      -0.1855039894580841,
      -0.18083730340003967,
      -0.20174001157283783,
      -0.360952764749527,
      -0.09058798104524612,
      0.023915788158774376,
      0.09924712777137756,
      -0.10485202819108963,
      -0.03233369067311287,
      -0.11327915638685226,
      0.06320849806070328,
      0.20949454605579376,
      -0.08208595216274261,
      -0.23855243623256683,
      0.05559263750910759,
      -0.32558757066726685,
      0.036361921578645706,
      0.0054814196191728115,
      -0.14296691119670868,
      -0.10498594492673874,
      -0.35270482301712036,
      -0.2915423512458801,
      -0.05334533751010895,
      0.08181603252887726,
      -0.03829043358564377,
      -0.07293640077114105,
      -0.12500762939453125,
      -0.004362201318144798,
      -0.06514780223369598,
      0.1235959604382515,
      -0.22746804356575012,
      -0.2470642775297165,
      -0.10225537419319153,
      -0.3002641797065735,
      -0.11534380912780762,
      -0.13814952969551086,
      -0.10035710036754608,
      -0.06850043684244156,
      -0.46774372458457947,
      -0.3295736610889435,
      -0.14259682595729828,
      0.11763385683298111,
      -0.019823305308818817,
      -0.21356338262557983,
      -0.22006382048130035,
      -0.11163715273141861,
      0.08264240622520447,
      0.1491117924451828,
      -0.10665886104106903,
      0.009455358609557152,
      -0.15941785275936127,
      -0.00021722666861023754,
      0.027335213497281075,
      -2.7223944664001465,
      0.06340032070875168,
      0.05042463541030884,
      -0.6399469375610352,
      0.059473492205142975,
      0.012372394092381,
      0.15397635102272034,
      0.21341301500797272,
      0.030298462137579918,
      0.07804691791534424,
      0.015643952414393425,
      -0.9028022289276123,
      -1.4423191547393799,
      -1.3804709911346436,
      0.05682660639286041,
      -0.41775134205818176,
      0.1231972724199295,
      0.1378624141216278,
      0.0038331549149006605,
      0.12371505796909332,
      0.06263776868581772,
      0.14777038991451263,
      0.07669395953416824,
      0.3718407154083252,
      -0.2742110788822174,
      0.1494799554347992,
      0.25523999333381653,
      -2.30178165435791,
      0.30278024077415466,
      -0.374144047498703,
      1.7533462047576904,
      -0.19308599829673767,
      -0.1715138703584671,
      0.11071009188890457,
      0.07482144236564636,
      -0.01838007941842079,
      0.5653577446937561,
      -0.1783725470304489,
      0.21958544850349426,
      -0.9240544438362122,
      0.16751493513584137,
      0.2881667912006378,
      -0.2860040068626404,
      0.28178152441978455,
      0.2070198655128479,
      -2.0770528316497803,
      0.3801012635231018,
      -0.4787689745426178,
      1.6775121688842773,
      -0.48499995470046997,
      -0.1458822637796402,
      0.031902704387903214,
      -0.14788152277469635,
      -0.16291740536689758,
      0.4101085364818573,
      -0.24375395476818085,
      0.28930577635765076,
      -0.7742784023284912,
      0.2208673357963562,
      0.4821981191635132,
      -0.16328860819339752,
      0.0030007720924913883,
      0.34503018856048584,
      -0.6812264323234558,
      0.5967285633087158,
      -0.35664916038513184,
      1.7894268035888672,
      -0.4422747790813446,
      0.017765017226338387,
      -0.19037246704101562,
      -0.028137756511569023,
      -0.18620498478412628,
      0.5064956545829773,
      0.05077265948057175,
      0.32363903522491455,
      -0.9204034805297852,
      0.008420119062066078,
      0.2329012006521225,
      -0.10469254851341248,
      0.22958533465862274,
      0.25538092851638794,
      -2.2837975025177,
      0.39925652742385864,
      -0.46455395221710205,
      1.557769536972046,
      -0.6131245493888855,
      -0.12562888860702515,
      0.2085283398628235,
      -0.06791757047176361,
      -0.022590983659029007,
      0.41973310708999634,
      -0.0591399259865284,
      0.24002179503440857,
      -1.3786665201187134,
      0.09917634725570679,
      0.23843695223331451,
      -0.6501040458679199,
      0.14961645007133484,
      -0.2470090091228485,
      -2.051344156265259,
      -0.31257760524749756,
      -0.08370649814605713,
      -0.3240337669849396,
      0.04861152917146683,
      0.058256328105926514,
      -0.18657875061035156,
      -0.005403446964919567,
      -0.24990125000476837,
      -0.37835758924484253,
      -0.2825605273246765,
      -0.03145603835582733,
      -0.3693295419216156,
      -0.0642714723944664,
      0.1960739642381668,
      -0.5329177975654602,
      0.09998781979084015,
      -0.14125345647335052,
      -2.1094038486480713,
      -0.21964634954929352,
      0.043693576008081436,
      -0.49529150128364563,
      0.017347849905490875,
      0.1139577105641365,
      -0.10097623616456985,
      0.012640748172998428,
      -0.28439950942993164,
      -0.5308406949043274,
      -0.1978386491537094,
      0.049761343747377396,
      -0.26290082931518555,
      -0.05504298582673073,
      0.27970215678215027,
      -0.5222442150115967,
      0.17110268771648407,
      0.016685696318745613,
      -2.090033769607544,
      -0.19019541144371033,
      -0.05371138080954552,
      0.24883247911930084,
      -0.008720670826733112,
      -0.011558040045201778,
      -0.22539417445659637,
      -0.03954342380166054,
      -0.23163777589797974,
      -0.5117501616477966,
      -0.24233278632164001,
      0.07192442566156387,
      -0.28233611583709717,
      -0.1087343692779541,
      0.19391022622585297,
      -0.4714867174625397,
      0.0867248997092247,
      -0.044179171323776245,
      -2.0688672065734863,
      -0.2086491882801056,
      -0.04237614944577217,
      -0.34238097071647644,
      0.1085769385099411,
      0.06884650141000748,
      -0.06392133980989456,
      0.022877322509884834,
      -0.2965918779373169,
      -0.5643512606620789,
      -0.2318219244480133,
      0.0281588826328516,
      -0.30555734038352966,
      -0.08270911872386932,
      -0.006439050659537315,
      -0.1809268742799759,
      0.028410494327545166,
      0.014222814701497555,
      -0.044486552476882935,
      0.009840353392064571,
      0.07637328654527664,
      0.14070627093315125,
      0.08665263652801514,
      0.17589081823825836,
      0.4038417339324951,
      0.13314104080200195,
      -0.34667450189590454,
      0.32498398423194885,
      0.4242919981479645,
      -0.32904183864593506,
      -0.0487893782556057,
      0.2319861203432083,
      0.01798747107386589,
      -0.6541815996170044,
      0.3446366488933563,
      0.055029965937137604,
      0.29465970396995544,
      -0.05441483482718468,
      -0.17729385197162628,
      -0.5075200796127319,
      -0.20022211968898773,
      -0.4651586413383484,
      -1.523516058921814,
      -0.6831203699111938,
      0.7191898822784424,
      0.19353263080120087,
      -0.06378667801618576,
      -0.3517904579639435,
      -2.4267079830169678,
      -0.323618620634079,
      -0.3308844566345215,
      -0.3741689920425415,
      -0.05572963133454323,
      -0.371550589799881,
      0.8906106352806091,
      0.18658123910427094,
      -0.9751994013786316,
      -1.177309513092041,
      -0.09922805428504944,
      -0.5971677899360657,
      -0.9603897929191589,
      -0.31475910544395447,
      -0.020443450659513474,
      -0.035687852650880814,
      -0.14831705391407013,
      -0.3147563338279724,
      -0.7305797934532166,
      -0.25484538078308105,
      0.30776503682136536,
      -0.02042865753173828,
      -0.44810783863067627,
      -1.6094399690628052,
      -0.18147704005241394,
      -0.2916627526283264,
      -0.06741451472043991,
      0.4141612648963928,
      0.1489347666501999,
      -0.12386664748191833,
      0.23747092485427856,
      -0.7259030938148499,
      0.42050328850746155,
      0.6830236315727234,
      -0.02777066081762314,
      -0.5667369961738586,
      -1.3919824361801147,
      -0.7421966791152954,
      -0.3918531835079193,
      -0.16975891590118408,
      -0.3676290512084961,
      0.13597600162029266,
      0.5721317529678345,
      0.47755107283592224,
      -0.6678871512413025,
      -0.9363172054290771,
      -0.42103299498558044,
      -0.5869176983833313,
      -1.854291558265686,
      -0.3409673571586609,
      -0.10654829442501068,
      -0.17271780967712402,
      -0.3939715325832367,
      -1.1743929386138916,
      -1.495903730392456,
      -0.9715142846107483,
      0.38231638073921204,
      -0.7943407893180847,
      0.2720998525619507,
      0.7241964936256409,
      0.8447024822235107,
      0.5905660390853882,
      -0.12130367010831833,
      0.21637067198753357,
      -0.3727053701877594,
      -0.699675440788269,
      -0.5880374908447266,
      -0.9637420177459717,
      -0.22244614362716675,
      -1.0650651454925537,
      -0.07448483258485794,
      0.06735769659280777,
      0.20145656168460846,
      0.4461517632007599,
      0.13468824326992035,
      0.06893033534288406,
      0.2679152488708496,
      -0.2869304418563843,
      -0.07098115235567093,
      -0.1816779226064682,
      0.16902603209018707,
      0.21194590628147125,
      0.13791684806346893,
      -0.5253700017929077,
      -0.38819247484207153,
      -1.0781642198562622,
      -0.3115651607513428,
      -0.6486117243766785,
      -0.03842156007885933,
      0.08660847693681717,
      -0.085025854408741,
      0.412067711353302,
      0.20833121240139008,
      0.18969789147377014,
      0.19813363254070282,
      -0.525094747543335,
      -0.03310862183570862,
      -0.1494157463312149,
      0.12180697917938232,
      0.11581175774335861,
      0.04954589903354645,
      -0.628013551235199,
      -0.4355309307575226,
      -1.1232150793075562,
      -0.6550469994544983,
      -0.6417638659477234,
      -0.17986012995243073,
      -0.07851728796958923,
      0.2405986338853836,
      0.6488281488418579,
      0.03667079284787178,
      0.04407985880970955,
      0.20919257402420044,
      -0.44919586181640625,
      0.01332266815006733,
      -0.20384204387664795,
      0.21794718503952026,
      0.0882769227027893,
      0.1751522421836853,
      -0.4677298069000244,
      -0.6346980929374695,
      -0.8269139528274536,
      -0.7251731753349304,
      -0.8268936276435852,
      0.058811940252780914,
      0.163437619805336,
      -0.21100449562072754,
      0.42384764552116394,
      0.33175286650657654,
      0.03492337092757225,
      0.23447126150131226,
      -0.5790687799453735,
      -0.05043184757232666,
      -0.22263039648532867,
      0.19534999132156372,
      0.31139758229255676,
      0.14590758085250854,
      -0.22341904044151306,
      -0.019751278683543205,
      -0.10015232861042023,
      0.0016341878799721599,
      0.023316994309425354,
      -0.09676912426948547,
      0.07193533331155777,
      -0.085469089448452,
      0.01437515951693058,
      -0.04924963787198067,
      -0.0596112385392189,
      0.12606264650821686,
      -0.07872084528207779,
      -1.3990100622177124,
      0.16285662353038788,
      -0.3504711091518402,
      -1.485729694366455,
      -0.11441762745380402,
      -0.09474247694015503,
      0.22864188253879547,
      -0.19061677157878876,
      -0.47341784834861755,
      0.10764109343290329,
      -0.33592167496681213,
      0.1777527779340744,
      0.07743744552135468,
      -0.20933327078819275,
      0.7140706181526184,
      0.2900412976741791,
      0.24185851216316223,
      -0.16221091151237488,
      0.16214609146118164,
      -0.14183755218982697,
      0.2356371432542801,
      0.9633145928382874,
      -1.2215782403945923,
      -0.5157475471496582,
      -0.27306243777275085,
      -0.18075524270534515,
      0.29845836758613586,
      0.14255212247371674,
      -1.2828505039215088,
      -0.6815162897109985,
      -0.18050150573253632,
      -0.2922688126564026,
      -0.4251527190208435,
      1.084472417831421,
      -0.23315556347370148,
      -1.0797392129898071,
      0.8900471329689026,
      -1.043370246887207,
      0.37109875679016113,
      0.740311861038208,
      -0.24322137236595154,
      -1.0005571842193604,
      0.16472163796424866,
      -0.8562955260276794,
      -0.32972854375839233,
      0.6621347665786743,
      -0.3301324248313904,
      -0.3439251184463501,
      -0.4396025836467743,
      0.00422139884904027,
      1.1214510202407837,
      1.4035874605178833,
      0.40113207697868347,
      -0.36692020297050476,
      0.5593533515930176,
      -1.3578293323516846,
      0.47675731778144836,
      -1.1765025854110718,
      -1.5675519704818726,
      -1.5366801023483276,
      -0.6900086998939514,
      -1.2591668367385864,
      0.007683702744543552,
      0.545609712600708,
      0.015628039836883545,
      -0.6644046902656555,
      -0.1700071543455124,
      0.21210458874702454,
      0.36703598499298096,
      0.5865147113800049,
      0.4286811649799347,
      -0.9581367373466492,
      1.483437180519104,
      -1.3418289422988892,
      0.24977101385593414,
      0.8640993237495422,
      -0.21333707869052887,
      -1.1923370361328125,
      0.3590999245643616,
      -1.1142303943634033,
      -0.8734526038169861,
      0.3777710199356079,
      -0.8489271998405457,
      -0.4860517382621765,
      -0.013017017394304276,
      -0.11232607811689377,
      0.0877409428358078,
      0.07568194717168808,
      0.05234808474779129,
      0.27232983708381653,
      0.626313328742981,
      0.05457357317209244,
      0.07036283612251282,
      0.030649643391370773,
      0.10604932904243469,
      -0.47773462533950806,
      -0.36290600895881653,
      -0.361218124628067,
      -0.40395447611808777,
      -0.10617923736572266,
      -0.4276735186576843,
      -0.1019686758518219,
      0.251861035823822,
      -0.05499371513724327,
      0.13458681106567383,
      0.21689064800739288,
      -0.006816853303462267,
      0.2859932780265808,
      -0.022425003349781036,
      0.06157037988305092,
      0.008115924894809723,
      0.27534741163253784,
      -0.10209427028894424,
      -0.447794646024704,
      -0.7300284504890442,
      -0.38910266757011414,
      -0.3552118241786957,
      -0.2121785283088684,
      -0.197859525680542,
      -0.14574375748634338,
      0.15595896542072296,
      -0.06464222073554993,
      -0.23505380749702454,
      0.22419199347496033,
      -0.3090948164463043,
      0.35822761058807373,
      0.5756346583366394,
      0.36031588912010193,
      0.06839233636856079,
      0.2608068883419037,
      0.396348774433136,
      -0.4644303023815155,
      -0.32243356108665466,
      -0.4797091782093048,
      -0.2982012927532196,
      -0.03748215734958649,
      -0.08433900773525238,
      -0.22049930691719055,
      0.09065745770931244,
      -0.20032180845737457,
      -0.06553443521261215,
      0.3365372121334076,
      -0.18730971217155457,
      0.24673403799533844,
      0.32103216648101807,
      -0.14168082177639008,
      0.039870377629995346,
      0.3124731779098511,
      -0.12981972098350525,
      -0.42970332503318787,
      -0.5443993806838989,
      -0.3941539227962494,
      -0.39363738894462585,
      -0.02135075256228447,
      -0.09894610941410065,
      -0.1477735936641693,
      0.3737642467021942,
      -0.1409275084733963,
      0.010736995376646519,
      -0.06328175961971283,
      -2.899461269378662,
      -0.026215067133307457,
      -0.01736082136631012,
      -0.062145259231328964,
      -0.063515804708004,
      -0.21000102162361145,
      0.0021275465842336416,
      0.06882840394973755,
      0.12443503737449646,
      0.5170737504959106,
      -0.27669429779052734,
      -0.43209776282310486,
      0.150140181183815,
      -0.4146389067173004,
      -0.46130651235580444,
      -1.516262173652649,
      -0.04829709976911545,
      -0.1537076085805893,
      0.0611959807574749,
      -0.0512666255235672,
      0.15932705998420715,
      -0.1390123963356018,
      -0.13823546469211578,
      0.0028571232687681913,
      -0.11788641661405563,
      -0.06393904238939285,
      -1.1228387355804443,
      -1.1435059309005737,
      0.08624181896448135,
      -0.8001706004142761,
      1.850160002708435,
      -0.23290936648845673,
      -0.07657033205032349,
      -0.11289485543966293,
      -0.08069578558206558,
      0.11699965596199036,
      -2.8888282775878906,
      -0.30502402782440186,
      0.31281718611717224,
      -1.3371018171310425,
      0.1662415713071823,
      0.14932562410831451,
      -1.2116034030914307,
      0.010666989721357822,
      -1.0775916576385498,
      -0.030424082651734352,
      0.21995052695274353,
      -0.5483479499816895,
      -0.34927091002464294,
      -0.21967549622058868,
      -0.7613232731819153,
      -0.8758682012557983,
      -0.4906485080718994,
      0.04065946117043495,
      0.051620036363601685,
      -0.04890144243836403,
      0.4173452854156494,
      0.2031330168247223,
      0.12407926470041275,
      -0.9110613465309143,
      0.18070672452449799,
      -0.03562019392848015,
      -1.06796395778656,
      -0.45307624340057373,
      -0.5368725657463074,
      -0.6110382080078125,
      1.567103385925293,
      -0.5099623799324036,
      -0.5875681638717651,
      0.17650005221366882,
      0.354543000459671,
      -0.17764368653297424,
      -0.09239155054092407,
      -0.3699572682380676,
      0.7268202304840088,
      -1.0002456903457642,
      0.20445364713668823,
      -0.1749068796634674,
      -1.6349111795425415,
      -0.15493851900100708,
      -0.5459988117218018,
      -2.0431625843048096,
      -0.05299830064177513,
      0.6488739848136902,
      1.4582982063293457,
      -0.3525919020175934,
      -0.5403133034706116,
      0.08797456324100494,
      0.23443184792995453,
      -0.31220611929893494,
      -0.039392147213220596,
      -0.6034979224205017,
      0.9460490942001343,
      -0.9539949893951416,
      0.21479353308677673,
      -0.5802015066146851,
      -1.2246760129928589,
      -0.12629015743732452,
      -0.279792457818985,
      -0.5346641540527344,
      0.15911269187927246,
      0.15133048593997955,
      0.781315803527832,
      0.02216414175927639,
      -0.09932757169008255,
      0.20137609541416168,
      -0.032366134226322174,
      -0.12350113689899445,
      -0.23652876913547516,
      -0.06015090271830559,
      -0.21103830635547638,
      0.06581774353981018,
      0.11167167127132416,
      -0.1209627091884613,
      0.08211374282836914,
      -0.1282077580690384,
      -0.8452103734016418,
      -0.10570644587278366,
      0.2514753043651581,
      -0.021306654438376427,
      0.7088631391525269,
      0.0687163919210434,
      -0.2064303755760193,
      0.2260703444480896,
      -0.08009634166955948,
      -0.06541004776954651,
      -0.2063044309616089,
      -0.03922851011157036,
      -0.12427163869142532,
      0.17212927341461182,
      0.07658716291189194,
      -0.16384848952293396,
      0.22834090888500214,
      -0.043862033635377884,
      -0.597721517086029,
      -0.5174082517623901,
      0.1257079839706421,
      0.15372715890407562,
      0.6136482357978821,
      0.38698023557662964,
      -0.12468922883272171,
      0.3301813006401062,
      -0.10126497596502304,
      -0.16381989419460297,
      -0.12736588716506958,
      -0.170892596244812,
      -0.1602349430322647,
      0.04186752438545227,
      0.000734978006221354,
      -0.14252153038978577,
      0.10620066523551941,
      0.009152551181614399,
      -0.22161509096622467,
      -0.29833972454071045,
      0.1833946704864502,
      0.15421812236309052,
      0.8575100898742676,
      0.10420657694339752,
      -0.07706198841333389,
      0.30607396364212036,
      -0.0320592038333416,
      -0.08791111409664154,
      -0.1702532023191452,
      -0.1353333741426468,
      -0.3522967994213104,
      0.10956345498561859,
      0.012165426276624203,
      -0.09199529141187668,
      0.12367498874664307,
      -0.04988624528050423,
      0.11137885600328445,
      -0.11709010601043701,
      -0.02098643220961094,
      0.04389820992946625,
      0.12410100549459457,
      0.04193871468305588,
      -0.8114222288131714,
      -0.010523224249482155,
      -0.07298211008310318,
      -2.3165245056152344,
      -0.2689685523509979,
      -0.2231769859790802,
      -0.07839243859052658,
      -0.4132094085216522,
      0.07022636383771896,
      0.49641960859298706,
      0.4299252927303314,
      -0.00962929055094719,
      -0.0202286746352911,
      -0.08946924656629562,
      0.09736496210098267,
      0.31334546208381653,
      0.2573409974575043,
      0.13082942366600037,
      -0.4270879924297333,
      0.13017472624778748,
      -1.2003593444824219,
      -1.2480665445327759,
      0.2999969720840454,
      0.09440839290618896,
      0.5500816702842712,
      1.0485308170318604,
      0.1826775223016739,
      0.14820298552513123,
      0.7094721794128418,
      0.19184421002864838,
      -0.47901400923728943,
      0.3471452593803406,
      0.22211863100528717,
      -0.08264295011758804,
      0.28232866525650024,
      -0.2934553921222687,
      0.4870244562625885,
      -1.730385184288025,
      -0.7892491221427917,
      -0.7735130190849304,
      -0.45501452684402466,
      -0.037735097110271454,
      1.5174311399459839,
      0.14866264164447784,
      -0.2787573039531708,
      0.2720681428909302,
      0.8754798769950867,
      0.17825621366500854,
      -0.20821815729141235,
      0.2633935809135437,
      -0.5785312056541443,
      -0.08952564746141434,
      -0.18141084909439087,
      -0.5396024584770203,
      0.5424466133117676,
      -0.8150486946105957,
      -0.4538259208202362,
      0.40230613946914673,
      -0.5985625386238098,
      -0.5374871492385864,
      2.192711353302002,
      1.0822855234146118,
      0.3523617684841156,
      -0.9593865871429443,
      1.0450975894927979,
      0.33989301323890686,
      -0.36822932958602905,
      0.22169357538223267,
      -0.4348924160003662,
      0.847133457660675,
      -0.39340198040008545,
      -0.38379064202308655,
      -0.476816326379776,
      -0.9587959051132202,
      -0.7002880573272705,
      -0.5128224492073059,
      0.28018680214881897,
      -0.5547425746917725,
      1.0945022106170654,
      -0.015709221363067627,
      -0.3898704946041107,
      -1.503495454788208,
      0.9233707189559937,
      0.038795169442892075,
      -0.32833707332611084,
      0.4125019907951355,
      -0.11853272467851639,
      -0.13483764231204987,
      -0.25660941004753113,
      -0.7465973496437073,
      0.32199397683143616,
      -0.35205432772636414,
      -0.32339006662368774,
      0.34710198640823364,
      0.015483316965401173,
      -0.11528071761131287,
      0.12079806625843048,
      0.21984660625457764,
      -0.3904973566532135,
      -0.9665546417236328,
      -0.5231060981750488,
      -0.19842824339866638,
      0.01931638829410076,
      -0.08161886036396027,
      -0.287178099155426,
      -0.1929471641778946,
      -0.3981497883796692,
      -0.2667942941188812,
      0.378486692905426,
      -0.11092803627252579,
      -0.47385671734809875,
      0.44243982434272766,
      -0.06001967564225197,
      -0.2006945013999939,
      0.1503721922636032,
      3.252036185585894e-05,
      -0.2103773057460785,
      0.30481815338134766,
      -0.2395102083683014,
      -0.3080602288246155,
      -0.12218426913022995,
      -0.1289670616388321,
      -0.17054861783981323,
      -0.14284257590770721,
      -0.19704854488372803,
      -0.4448780417442322,
      0.5089626312255859,
      -0.40329205989837646,
      -0.3183494508266449,
      0.5789605379104614,
      0.2108115404844284,
      -0.28862428665161133,
      0.08912184834480286,
      0.12378919124603271,
      0.23554952442646027,
      -0.23598439991474152,
      -0.22434665262699127,
      -0.057667702436447144,
      -0.3486991822719574,
      -0.25174078345298767,
      -0.23590992391109467,
      -0.38883504271507263,
      -0.4454991817474365,
      -0.4457224905490875,
      0.49447131156921387,
      -0.34702348709106445,
      -0.6862925291061401,
      0.39165621995925903,
      -0.026315322145819664,
      -0.2146162986755371,
      -0.026619741693139076,
      0.01025954820215702,
      0.08428505063056946,
      -0.4806099832057953,
      -0.5103620886802673,
      -0.1833033561706543,
      -0.0014246556675061584,
      0.10313136130571365,
      -0.0609615258872509,
      -0.3157273232936859,
      -0.06153029575943947,
      -0.47616201639175415,
      0.4362567067146301,
      -0.3877238929271698,
      -0.002860876964405179,
      -0.01204525213688612,
      -0.06334160268306732,
      -0.5017000436782837,
      -0.18026967346668243,
      -0.04229101911187172,
      -0.012967859394848347,
      -0.0667981281876564,
      -0.07276979088783264,
      0.1376553475856781,
      -0.155032679438591,
      -0.14221732318401337,
      0.5735679268836975,
      -0.1954706311225891,
      0.09532483667135239,
      0.0675090104341507,
      -0.7868596911430359,
      -0.17329654097557068,
      -0.09522756189107895,
      0.013921456411480904,
      -0.04990917444229126,
      -0.36460477113723755,
      0.16336682438850403,
      -0.1536373347043991,
      -0.02614772319793701,
      -0.06073474884033203,
      0.022893307730555534,
      0.253253310918808,
      -0.614936888217926,
      -0.21779872477054596,
      0.9233129024505615,
      -0.29444220662117004,
      0.6251775622367859,
      0.8519264459609985,
      0.47803062200546265,
      0.11967623233795166,
      -0.4845411777496338,
      -1.2782297134399414,
      -0.9372274875640869,
      -2.039706230163574,
      0.5847796201705933,
      -0.9609974026679993,
      -0.30158865451812744,
      0.2680436074733734,
      -0.4085828959941864,
      0.7949499487876892,
      -0.011494515463709831,
      -0.4529159665107727,
      2.0795295238494873,
      -1.4662070274353027,
      -0.4730444550514221,
      0.8092182874679565,
      -0.45653635263442993,
      -0.6838513016700745,
      -2.680978775024414,
      -0.18343070149421692,
      0.14719898998737335,
      -1.4765129089355469,
      0.1293080598115921,
      -0.17125104367733002,
      -1.8250641822814941,
      0.289919912815094,
      0.1814890205860138,
      -0.2580184042453766,
      0.22565262019634247,
      -1.0955764055252075,
      -1.5411338806152344,
      2.503532648086548,
      -0.9438730478286743,
      -1.9566103219985962,
      0.6772351861000061,
      -1.4968435764312744,
      -0.03690320998430252,
      -0.032149940729141235,
      -0.03921176493167877,
      -1.909820318222046,
      -0.852179229259491,
      -2.045233964920044,
      -0.5299074649810791,
      1.2072395086288452,
      -0.5181360244750977,
      1.2870221138000488,
      -0.0740332379937172,
      0.5667199492454529,
      0.00020187610061839223,
      -0.746009349822998,
      -0.8242385387420654,
      -0.24567298591136932,
      -0.2549625635147095,
      -0.23776079714298248,
      0.42973190546035767,
      -0.004884271416813135,
      0.07558754086494446,
      -1.174485683441162,
      0.35337141156196594,
      -0.5740009546279907,
      0.37009769678115845,
      0.3013758659362793,
      0.18241657316684723,
      -0.06114538386464119,
      -0.03134726732969284,
      -0.12884443998336792,
      0.17019078135490417,
      0.17126555740833282,
      0.2884444296360016,
      -0.599789023399353,
      -0.012927062809467316,
      -0.2370925098657608,
      0.02217712067067623,
      -0.1621432900428772,
      -0.07826641201972961,
      0.03678739443421364,
      -0.40854233503341675,
      0.013889801688492298,
      -0.25810670852661133,
      -0.5430759787559509,
      -0.20185653865337372,
      -0.1119777038693428,
      -0.0709860622882843,
      -0.3189404010772705,
      -0.24611642956733704,
      0.0636681616306305,
      0.28045493364334106,
      -0.6878995299339294,
      -0.09769891202449799,
      -0.24894559383392334,
      0.00944758765399456,
      0.01613849774003029,
      -0.058544278144836426,
      0.21777255833148956,
      -0.4138052761554718,
      0.10557092726230621,
      0.10895927250385284,
      -0.7512650489807129,
      -0.15305007994174957,
      -0.15939977765083313,
      -0.08670003712177277,
      -0.3895878493785858,
      -0.49440476298332214,
      -0.16804198920726776,
      0.24805253744125366,
      -0.6039149165153503,
      -0.18082235753536224,
      -0.1571008861064911,
      -0.01047788467258215,
      -0.09824078530073166,
      -0.04108044505119324,
      0.18480995297431946,
      -0.2646763324737549,
      -0.04707198217511177,
      -0.005133543163537979,
      -0.3415268063545227,
      0.07390183955430984,
      -0.07413925230503082,
      -0.17523521184921265,
      -0.34915420413017273,
      -0.5250810384750366,
      -0.1250777393579483,
      0.17040200531482697,
      -0.5579594969749451,
      -0.003054908011108637,
      -0.2294635772705078,
      0.01653921790421009,
      -0.0024617782328277826,
      -0.11183904111385345,
      0.13923045992851257,
      -0.3611346185207367,
      0.0828646719455719,
      -0.10326919704675674,
      -0.23594681918621063,
      -0.025999322533607483,
      0.07794059067964554,
      -0.028851930052042007,
      -0.027054790407419205,
      0.03979378193616867,
      -0.08631402999162674,
      -0.1663665920495987,
      -0.03042132407426834,
      -0.0821610763669014,
      -0.12747487425804138,
      0.0709066092967987,
      -0.28271162509918213,
      0.011414632201194763,
      -0.2486836463212967,
      -0.10880161821842194,
      -0.13047760725021362,
      -0.094526506960392,
      -0.19897224009037018,
      -0.11334747821092606,
      0.06692835688591003,
      0.0704897865653038,
      -0.22776566445827484,
      -0.0036306586116552353,
      -0.012798829935491085,
      -0.004590185359120369,
      -0.11367011070251465,
      0.1446831077337265,
      -0.09092340618371964,
      1.1567960977554321,
      -0.7657791972160339,
      -0.799231767654419,
      1.5654971599578857,
      -1.0395686626434326,
      -0.2886377274990082,
      1.1106380224227905,
      -0.5816372632980347,
      0.5436209440231323,
      -2.808875322341919,
      -0.3815607726573944,
      -0.06365136057138443,
      -2.2728359699249268,
      0.18601106107234955,
      -0.20016168057918549,
      -1.5058457851409912,
      0.5355677604675293,
      0.3029303550720215,
      -0.02901139296591282,
      -0.5968190431594849,
      0.19156044721603394,
      -2.5572943687438965,
      -1.6543856859207153,
      0.2584867775440216,
      -0.7553574442863464,
      -0.3241678476333618,
      0.6458464860916138,
      0.24942393600940704,
      0.45666810870170593,
      -0.3129216730594635,
      0.2566174864768982,
      -0.2992732524871826,
      -0.5628814101219177,
      0.23032379150390625,
      -0.0506475530564785,
      -0.3252011835575104,
      -1.5160329341888428,
      -0.6774253249168396,
      0.10371928662061691,
      0.8395234942436218,
      0.3001384735107422,
      1.5796281099319458,
      -0.3787340521812439,
      -0.6554136872291565,
      -0.07037536054849625,
      -0.2535935342311859,
      -0.07626548409461975,
      -1.9961258172988892,
      -0.5323976874351501,
      1.2579569816589355,
      -1.819936752319336,
      -0.1241140067577362,
      -0.5699486136436462,
      -1.8993459939956665,
      0.6999980807304382,
      -0.46698126196861267,
      0.49337974190711975,
      0.14044597744941711,
      0.011835883371531963,
      0.7075327634811401,
      -0.3658234477043152,
      -0.22653722763061523,
      0.9717897772789001,
      0.10458652675151825,
      0.265026330947876,
      -1.2477716207504272,
      -0.7711811065673828,
      1.0285754203796387,
      -2.083324909210205,
      0.17342688143253326,
      -0.6478704810142517,
      -0.8362560272216797,
      -0.06322333961725235,
      -0.05290770158171654,
      0.3229996860027313,
      -0.007635840214788914,
      -0.15634691715240479,
      -0.2027890533208847,
      0.007792849559336901,
      -0.18067078292369843,
      -0.24884635210037231,
      -0.0395561121404171,
      -0.024108652025461197,
      -0.11078717559576035,
      -0.05369539558887482,
      -0.20155666768550873,
      0.33652326464653015,
      0.0055560152977705,
      0.07244568318128586,
      -0.4312925338745117,
      0.015639597550034523,
      0.06254750490188599,
      0.00015022032312117517,
      -0.05838038772344589,
      -0.0019408202497288585,
      -0.16181319952011108,
      -0.01792777143418789,
      -0.4890895485877991,
      -0.15512819588184357,
      0.0365113839507103,
      -0.07988152652978897,
      0.04341898113489151,
      -0.23648923635482788,
      -0.03016733005642891,
      -0.12392381578683853,
      0.052646148949861526,
      -0.20350615680217743,
      -0.02912168763577938,
      -0.03893798962235451,
      -0.02336178533732891,
      0.15361115336418152,
      -0.1395280808210373,
      -0.15176047384738922,
      -0.24809114634990692,
      -0.09692882746458054,
      -0.31642043590545654,
      -0.17745797336101532,
      -0.042688336223363876,
      0.03551046550273895,
      0.019605975598096848,
      -0.04812153801321983,
      -0.15874534845352173,
      0.030845465138554573,
      -0.023955369368195534,
      -0.13497193157672882,
      -0.08996900171041489,
      0.09107755124568939,
      0.12624876201152802,
      0.31434720754623413,
      -0.09175986051559448,
      -0.059728506952524185,
      -0.3292960822582245,
      -0.061114974319934845,
      -0.27104276418685913,
      0.025959618389606476,
      0.006775389891117811,
      0.043382905423641205,
      0.03834930807352066,
      -0.1945641040802002,
      -0.10547836124897003,
      -0.027184488251805305,
      0.0553039014339447,
      -0.12118455022573471,
      -0.038148995488882065,
      0.11689373850822449,
      0.012883800081908703,
      0.0917670801281929,
      -0.1011493131518364,
      -0.844595193862915,
      0.016495663672685623,
      0.009782882407307625,
      0.04171661287546158,
      -0.00917774811387062,
      -0.3327736258506775,
      0.3421083986759186,
      -0.4070696234703064,
      0.06451842188835144,
      0.508397102355957,
      0.025236712768673897,
      0.13596215844154358,
      0.8697007894515991,
      0.39804771542549133,
      -0.012529547326266766,
      0.5221712589263916,
      0.08860974758863449,
      0.05546167492866516,
      0.3462497889995575,
      0.03962814807891846,
      0.0057718888856470585,
      -0.0775102823972702,
      -0.04691961407661438,
      0.9057350754737854,
      1.2103660106658936,
      0.3440287411212921,
      0.9375662803649902,
      1.011268138885498,
      0.4954931437969208,
      -0.27991166710853577,
      0.697356641292572,
      -0.6368986368179321,
      -0.08468607813119888,
      -0.1661674827337265,
      0.15466533601284027,
      -0.07441704720258713,
      -0.5975121259689331,
      -0.6384239792823792,
      -0.173034206032753,
