{
  "board_height": 24,
  "board_width": 44,
  "conv1": {
    "bias": [
      0.20888370275497437,
      -0.45787227153778076,
      -0.0030777512583881617,
      -0.463225394487381,
      -0.11487376689910889,
      -0.004807525314390659,
      -0.0008900549728423357,
      0.015482009388506413,
      -0.036180634051561356,
      -0.16947011649608612,
      -0.35035473108291626,
      -0.040036045014858246,
      -0.3252328038215637,
      -0.2071448713541031,
      -0.0318378210067749,
      0.11080954223871231,
      0.21158325672149658,
      0.04270003363490105,
      -0.5689943432807922,
      -0.2524402141571045,
      0.21873697638511658,
      -0.6835814714431763,
      -0.5167355537414551,
      -0.3147333562374115
    ],
    "in_channels": 19,
    "kernel_size": 3,
    "out_channels": 24,
    "weights": [
      -0.05249067768454552,
      0.013238796964287758,
      -0.06642693281173706,
      -0.04354831948876381,
      0.14274485409259796,
      -0.03812921419739723,
      0.0025833058170974255,
      0.023711474612355232,
      0.0027158197481185198,
      -0.052711836993694305,
      0.11027137190103531,
      0.13332001864910126,
      -0.14133837819099426,
      -0.4227672219276428,
      0.00011789498967118561,
      0.11978533864021301,
      -0.2094765603542328,
      -0.06599874794483185,
      -0.07030534744262695,
      -0.220475971698761,
      0.05346543341875076,
      0.07836402952671051,
      0.15937671065330505,
      -0.03814820200204849,
      -0.016819145530462265,
      0.02153436467051506,
      -0.05354495346546173,
      0.04427047073841095,
      -1.358946442604065,
      -0.8092510104179382,
      2.0241289138793945,
      -0.6946729421615601,
      0.1896858513355255,
      -0.45107877254486084,
      -0.9018129110336304,
      0.20982246100902557,
      -2.2411863803863525,
      -1.2254241704940796,
      -0.37041306495666504,
      -0.4795611798763275,
      1.1532789468765259,
      -0.09496456384658813,
      -2.3125503063201904,
      0.10312151163816452,
      -0.45160526037216187,
      -0.3466528058052063,
      -0.7995434999465942,
      -0.35946589708328247,
      1.520641803741455,
      -0.5597291588783264,
      -0.5567656755447388,
      -1.4851489067077637,
      -1.625359296798706,
      -0.17261482775211334,
      -0.9111360311508179,
      -0.3466697633266449,
      0.02154240570962429,
      -0.0020656450651586056,
      0.48985356092453003,
      -0.2847084403038025,
      -1.942773461341858,
      0.21566149592399597,
      -0.46352922916412354,
      0.8279498219490051,
      -0.7056924700737,
      1.1913188695907593,
      1.2897443771362305,
      1.535990834236145,
      -0.4758475720882416,
      -0.16596747934818268,
      1.6349369287490845,
      -0.3599547743797302,
      -0.2185019552707672,
      -0.4958025813102722,
      -0.5459005236625671,
      -1.0663976669311523,
      0.6692195534706116,
      -0.4190109372138977,
      -0.3655085265636444,
      0.614632248878479,
      -0.9448782801628113,
      -0.12884803116321564,
      0.4857596158981323,
      -0.33350950479507446,
      1.0898146629333496,
      -1.0917941331863403,
      1.0144301652908325,
      0.2751345932483673,
      0.08153223246335983,
      0.06545806676149368,
      -0.46131280064582825,
      -1.5005749464035034,
      -0.12145014107227325,
      1.1919811964035034,
      -0.07427696883678436,
      -1.7717947959899902,
      0.1457233726978302,
      -1.0999611616134644,
      -0.10044693201780319,
      -0.08430534601211548,
      -0.044803109019994736,
      0.20485714077949524,
      -0.14104120433330536,
      -0.27808013558387756,
      -0.19211344420909882,
      -0.1456400454044342,
      -0.1255408227443695,
      -0.028397252783179283,
      0.020788362249732018,
      -0.06532817333936691,
      0.0490296445786953,
      -0.18706008791923523,
      -0.13348978757858276,
      -0.006362864747643471,
      -0.10130378603935242,
      -0.046380579471588135,
      0.04365529492497444,
      0.016387401148676872,
      0.13912709057331085,
      0.08811914175748825,
      -0.1557517647743225,
      -0.3207772374153137,
      -0.05199776962399483,
      -0.07099635154008865,
      -0.34652432799339294,
      -0.13659414649009705,
      0.07112418115139008,
      -0.11041635274887085,
      0.08757206052541733,
      -0.163405179977417,
      -0.20943062007427216,
      -0.18563902378082275,
      0.006544909905642271,
      -0.07365068793296814,
      0.030707377940416336,
      -0.09464587271213531,
      -0.04708275571465492,
      -0.021716153249144554,
      -0.2770003378391266,
      -0.1285194307565689,
      -0.06849668174982071,
      -0.19731944799423218,
      -0.43723493814468384,
      0.09274104982614517,
      0.038948412984609604,
      -0.029926398769021034,
      0.04429902136325836,
      -0.22506241500377655,
      -0.052522338926792145,
      -0.004616342019289732,
      -0.02115306630730629,
      -0.01673242822289467,
      0.005176607519388199,
      -0.13613317906856537,
      0.38962987065315247,
      -0.12677329778671265,
      -0.21861794590950012,
      -0.08222036063671112,
      -0.09657508879899979,
      0.03218244016170502,
      -0.27307814359664917,
      0.024557171389460564,
      -0.11968260258436203,
      0.07701916247606277,
      -0.026782894507050514,
      -0.20794866979122162,
      0.042293984442949295,
      -0.10684368014335632,
      -0.06321848183870316,
      0.024660997092723846,
      -0.12755027413368225,
      -0.06912054121494293,
      0.023826053366065025,
      -0.0793500617146492,
      -0.09354439377784729,
      -1.6472430229187012,
      -0.10438638925552368,
      0.16107377409934998,
      0.28033512830734253,
      0.1598939746618271,
      -0.41904976963996887,
      -0.5583105683326721,
      -0.18789348006248474,
      0.008239232935011387,
      0.6285072565078735,
      0.011450357735157013,
      -0.5050305724143982,
      0.5192884802818298,
      -0.15081068873405457,
      -0.07411200553178787,
      0.07652600109577179,
      -0.000956802919972688,
      -0.3632566034793854,
      -0.15397821366786957,
      -0.3529883921146393,
      -0.15364372730255127,
      -0.09023264050483704,
      -0.12007933855056763,
      -1.7505862712860107,
      0.702359676361084,
      -2.3919382095336914,
      1.8080897331237793,
      0.4626801013946533,
      1.9376205205917358,
      0.29304373264312744,
      1.7557817697525024,
      -0.18181158602237701,
      -0.8339746594429016,
      0.7514272332191467,
      -1.1417559385299683,
      -1.184874415397644,
      0.6629389524459839,
      -1.7649117708206177,
      -1.4073786735534668,
      -0.20990419387817383,
      -2.127652406692505,
      -1.9655418395996094,
      0.47710245847702026,
      -1.4914262294769287,
      0.9889512062072754,
      0.08569114655256271,
      0.9639961123466492,
      -0.03441690281033516,
      1.339432716369629,
      -0.2575679123401642,
      -0.10283321887254715,
      0.5856234431266785,
      -0.00035369544639252126,
      -0.8868992328643799,
      0.4238199293613434,
      -1.009192705154419,
      -0.9577206373214722,
      0.1656804233789444,
      -0.873033344745636,
      -1.082351565361023,
      0.20183338224887848,
      -1.1697208881378174,
      -1.2481396198272705,
      0.05429033935070038,
      1.2495955228805542,
      0.29188522696495056,
      1.3836523294448853,
      -0.4920843541622162,
      0.10866477340459824,
      0.4636838734149933,
      0.06250065565109253,
      -0.6119810938835144,
      0.3535095751285553,
      -0.5018989443778992,
      -1.1880522966384888,
      0.16452686488628387,
      -1.0863832235336304,
      -1.554998517036438,
      0.39278537034988403,
      -1.2725170850753784,
      0.9785850644111633,
      0.15248361229896545,
      0.7198558449745178,
      -0.015517758205533028,
      1.0316314697265625,
      -0.054098039865493774,
      0.08868440985679626,
      0.26383090019226074,
      0.12346833944320679,
      -0.8501365780830383,
      0.5771880745887756,
      -0.8322269320487976,
      -0.652820885181427,
      0.0476473867893219,
      -0.40862685441970825,
      0.11824217438697815,
      -0.40619343519210815,
      0.17553652822971344,
      0.2024260312318802,
      -2.156139850616455,
      0.05261221528053284,
      -0.12167143076658249,
      -0.7557947039604187,
      -0.22575293481349945,
      0.34679552912712097,
      -0.21924050152301788,
      0.23292343318462372,
      0.3776761591434479,
      -1.5998024940490723,
      0.37543120980262756,
      0.5037845373153687,
      -1.0463335514068604,
      0.4881269335746765,
      -0.12345193326473236,
      -0.5739388465881348,
      0.19564323127269745,
      0.2953833043575287,
      -2.324425220489502,
      0.1831100583076477,
      -0.07695186138153076,
      -0.386752724647522,
      -0.12384855002164841,
      0.29973626136779785,
      -0.019725507125258446,
      0.20566362142562866,
      0.3380914330482483,
      -1.8359471559524536,
      0.37668877840042114,
      0.5134606957435608,
      -1.0257693529129028,
      0.54393070936203,
      -0.18926697969436646,
      -0.5414716005325317,
      -0.1285855621099472,
      0.26542073488235474,
      -2.0994179248809814,
      0.19943052530288696,
      0.07053869962692261,
      -0.6798778772354126,
      -0.09778029471635818,
      0.2977546155452728,
      -0.10256994515657425,
      0.25662654638290405,
      0.42146000266075134,
      -2.061600685119629,
      0.36505764722824097,
      0.5187383890151978,
      -1.057586908340454,
      0.46527597308158875,
      -0.21620143949985504,
      -0.34005409479141235,
      0.037229422479867935,
      0.20389659702777863,
      -2.110779285430908,
      0.33729684352874756,
      -0.0878676176071167,
      -0.774448573589325,
      -0.12036538869142532,
      0.2422729730606079,
      -0.047653358429670334,
      0.12232640385627747,
      0.45648568868637085,
      -2.2587153911590576,
      0.45619383454322815,
      0.5014203786849976,
      -1.002941608428955,
      0.49749287962913513,
      -0.02369719371199608,
      -0.04322962090373039,
      -0.020480431616306305,
      0.06264390796422958,
      0.028666697442531586,
      -0.1160573959350586,
      -0.05951199308037758,
      -0.020718595013022423,
      0.07269391417503357,
      -0.49455526471138,
      -0.25137704610824585,
      0.2337247133255005,
      -1.2379624843597412,
      0.22046197950839996,
      0.42152929306030273,
      -0.7408290505409241,
      0.15244744718074799,
      0.3992307186126709,
      0.132354274392128,
      -0.12089957296848297,
      0.10865995287895203,
      0.030065350234508514,
      -0.006370285525918007,
      -0.02636929228901863,
      -0.01851547509431839,
      -0.013286372646689415,
      -0.1212797686457634,
      0.05242214724421501,
      0.13280551135540009,
      -1.5851171016693115,
      1.7922348976135254,
      1.5483678579330444,
      0.15064774453639984,
      0.14110489189624786,
      0.6461576223373413,
      -1.2438768148422241,
      -0.33687931299209595,
      0.9098998308181763,
      -1.2687127590179443,
      -0.787673830986023,
      -0.18853986263275146,
      -0.9374826550483704,
      -1.320800542831421,
      -0.49408385157585144,
      -0.6138036251068115,
      1.1312280893325806,
      -0.5866498947143555,
      -1.4302475452423096,
      1.7411555051803589,
      -1.7984496355056763,
      0.4201281666755676,
      1.4348526000976562,
      1.3455449342727661,
      -1.5167067050933838,
      0.6197865605354309,
      -1.184983730316162,
      0.37384289503097534,
      0.6999690532684326,
      0.3029356300830841,
      -0.8308462500572205,
      -0.803225040435791,
      -0.511888325214386,
      -0.25530627369880676,
      1.3069469928741455,
      -1.6828196048736572,
      -1.156964898109436,
      1.4506720304489136,
      -0.6573326587677002,
      0.270236074924469,
      0.7477859854698181,
      2.217323064804077,
      -0.12089677900075912,
      -0.566020667552948,
      -0.4278194308280945,
      0.45813581347465515,
      0.9099074006080627,
      -0.5579806566238403,
      -1.0817432403564453,
      -1.4696694612503052,
      -1.8427668809890747,
      -2.600402355194092,
      1.9145280122756958,
      -1.14091157913208,
      0.21114756166934967,
      1.5485705137252808,
      -1.330908179283142,
      0.3153945505619049,
      -0.7879185676574707,
      1.8575588464736938,
      0.36255016922950745,
      0.23416607081890106,
      -0.5967381000518799,
      -0.16852445900440216,
      -0.6550115346908569,
      0.648417592048645,
      0.40665385127067566,
      -0.6016842722892761,
      0.2589683532714844,
      -0.17638912796974182,
      0.25183093547821045,
      0.10866203159093857,
      -0.32393157482147217,
      -0.007014277391135693,
      0.11421629041433334,
      0.026599645614624023,
      -0.6335428357124329,
      0.31249967217445374,
      0.12337204813957214,
      -0.2536957859992981,
      0.1037978082895279,
      -0.1993110179901123,
      -0.021565362811088562,
      -0.00507340719923377,
      -0.07721125334501266,
      -0.09316232055425644,
      0.12408946454524994,
      0.012856184504926205,
      -0.008868806064128876,
      0.061062198132276535,
      -0.496147096157074,
      0.356018990278244,
      0.3109971880912781,
      -0.3183983564376831,
      -0.623633086681366,
      0.289312481880188,
      0.09284453839063644,
      -0.2167617529630661,
      0.11366355419158936,
      -0.1449667364358902,
      -0.06846778094768524,
      0.00996442325413227,
      -0.0025547929108142853,
      -0.06130803003907204,
      0.22393758594989777,
      -0.13006670773029327,
      -0.17605282366275787,
      -0.4218499958515167,
      -0.5873869061470032,
      -0.019025621935725212,
      0.14169315993785858,
      -0.09853311628103256,
      -0.6023763418197632,
      0.43944844603538513,
      0.5420693159103394,
      -0.22630123794078827,
      0.06753452122211456,
      -0.1771191954612732,
      0.009115518070757389,
      0.02811269275844097,
      0.1176406592130661,
      -0.17283238470554352,
      0.00015967345098033547,
      -0.04869050532579422,
      -0.07210920006036758,
      -0.3051368296146393,
      -0.12500785291194916,
      -0.11288482695817947,
      0.12731856107711792,
      0.01273244060575962,
      -0.12938906252384186,
      0.20804759860038757,
      0.29443228244781494,
      -0.1638101041316986,
      -0.07482865452766418,
      -0.20614156126976013,
      0.0979638397693634,
      0.07301060110330582,
      -0.04848581552505493,
      -0.015748322010040283,
      0.03453560546040535,
      -0.017092835158109665,
      -0.06669629365205765,
      -1.0048742294311523,
      -0.038190316408872604,
      0.1221303939819336,
      -0.06949735432863235,
      0.034711115062236786,
      -0.01809827983379364,
      0.07451748847961426,
      0.0047639403492212296,
      -0.08092711865901947,
      0.30733057856559753,
      0.05508416146039963,
      0.15971224009990692,
      0.383123517036438,
      -0.01955598033964634,
      -0.11484511941671371,
      0.2894308865070343,
      -0.035454705357551575,
      0.2132045179605484,
      0.17266526818275452,
      -0.01640024222433567,
      0.11535599827766418,
      -0.023756004869937897,
      0.07514545321464539,
      0.010201745666563511,
      0.012754326686263084,
      -0.010209876112639904,
      0.42799022793769836,
      0.18526074290275574,
      1.0725966691970825,
      0.40583768486976624,
      -0.2540922164916992,
      0.15809784829616547,
      0.06896821409463882,
      0.03023618273437023,
      0.20232774317264557,
      -0.09379329532384872,
      -0.6715081930160522,
      -0.19633883237838745,
      -0.8451228141784668,
      0.33122897148132324,
      0.3000694215297699,
      -0.08677956461906433,
      -0.20697571337223053,
      0.10820779204368591,
      1.2204201221466064,
      1.6520204544067383,
      1.58329176902771,
      -0.06823647767305374,
      -0.29913604259490967,
      -0.17505669593811035,
      0.5360254049301147,
      -1.6398749351501465,
      0.39923301339149475,
      -0.9770293831825256,
      -2.722696542739868,
      -1.3440128564834595,
      -0.26135846972465515,
      0.4304022192955017,
      0.032203372567892075,
      0.39486822485923767,
      -0.3241844177246094,
      0.4435310661792755,
      2.3114120960235596,
      2.461517810821533,
      1.4915568828582764,
      0.377868115901947,
      0.033699896186590195,
      -0.027178894728422165,
      0.5624994039535522,
      -0.2897833287715912,
      0.4743032455444336,
      -1.1320271492004395,
      -2.623453378677368,
      -0.3982125222682953,
      -0.5306330919265747,
      0.07706963270902634,
      -0.39188477396965027,
      0.3058029115200043,
      -0.7126590013504028,
      0.44552209973335266,
      0.8506525158882141,
      1.2754453420639038,
      1.064152479171753,
      0.3077240288257599,
      -0.1540311723947525,
      0.0029179484117776155,
      0.54045170545578,
      -0.14285074174404144,
      0.3075627386569977,
      -0.969173789024353,
      -1.0414116382598877,
      -0.702608048915863,
      -0.20071038603782654,
      0.3047197163105011,
      -0.36531496047973633,
      0.08029323816299438,
      -0.19504737854003906,
      0.26446014642715454,
      -0.11551663279533386,
      -0.8742569088935852,
      -0.13899080455303192,
      0.13968650996685028,
      -0.21254020929336548,
      0.02129346691071987,
      0.1265999972820282,
      0.11747248470783234,
      0.13675816357135773,
      -0.2913706600666046,
      -0.5356659293174744,
      -0.14559516310691833,
      -0.00605529360473156,
      -0.33781710267066956,
      0.0027780551463365555,
      -0.004168718121945858,
      0.1163252517580986,
      0.0469486229121685,
      -0.18087241053581238,
      -0.9669777750968933,
      -0.10011853277683258,
      0.14822983741760254,
      -0.20390114188194275,
      0.15151835978031158,
      0.16720467805862427,
      0.2940913438796997,
      0.058330390602350235,
      -0.3354106545448303,
      -0.34599313139915466,
      -0.10194281488656998,
      0.07073995471000671,
      -0.3879203498363495,
      0.08431994915008545,
      -0.1016981303691864,
      0.12137756496667862,
      -0.032175347208976746,
      -0.4839892089366913,
      -0.6905429363250732,
      -0.23761112987995148,
      0.10505156964063644,
      -0.3456075191497803,
      0.04986777901649475,
      0.14031322300434113,
      0.1865410953760147,
      0.0018875631503760815,
      -0.3545794188976288,
      -0.3057754337787628,
      -0.20403724908828735,
      0.11279410123825073,
      -0.34519150853157043,
      0.09921402484178543,
      -0.016222387552261353,
      0.18894599378108978,
      0.03675967454910278,
      -0.3787619471549988,
      -0.37067916989326477,
      -0.27279943227767944,
      0.0043664672411978245,
      -0.2574785649776459,
      0.15548136830329895,
      0.0682678073644638,
      0.18518853187561035,
      0.06592616438865662,
      -0.3467814326286316,
      -0.4138121008872986,
      -0.11666135489940643,
      0.059636276215314865,
      -0.3278537392616272,
      -0.025419961661100388,
      0.018952446058392525,
      0.11566370725631714,
      0.03926774114370346,
      0.07180604338645935,
      -0.026850732043385506,
      0.07515332102775574,
      0.006558096036314964,
      -3.8879950046539307,
      0.09746295213699341,
      0.004032182041555643,
      0.10336104035377502,
      -0.0469600073993206,
      -0.23451459407806396,
      0.44042330980300903,
      0.18570837378501892,
      0.4460771679878235,
      0.626759946346283,
      0.0638865977525711,
      0.4640986919403076,
      0.5526149272918701,
      0.25616154074668884,
      -0.18650098145008087,
      -0.2880588471889496,
      -0.389284610748291,
      -0.20085269212722778,
      -0.03236549347639084,
      0.02008112147450447,
      -0.4370444715023041,
      0.17006351053714752,
      -0.07619542628526688,
      0.26856857538223267,
      1.37758469581604,
      0.37386149168014526,
      0.4050219655036926,
      0.8804528117179871,
      0.11939820647239685,
      0.41260021924972534,
      0.6675748229026794,
      0.1776399463415146,
      0.1538228988647461,
      0.31392380595207214,
      0.0032975422218441963,
      -0.12113349139690399,
      -0.8357240557670593,
      0.11474175751209259,
      -0.22338472306728363,
      -0.33835917711257935,
      -0.6337606310844421,
      -0.2023114711046219,
      0.9017617702484131,
      0.18983657658100128,
      0.9629029035568237,
      0.2268027812242508,
      0.030307721346616745,
      0.24816705286502838,
      1.5307104587554932,
      -0.014504562132060528,
      0.018662627786397934,
      0.3216875493526459,
      -0.04435693472623825,
      -0.15710856020450592,
      -0.6599173545837402,
      0.2215881645679474,
      -0.764833927154541,
      -0.05649448186159134,
      -0.387349009513855,
      0.31348368525505066,
      0.931592583656311,
      0.4891700744628906,
      2.5327296257019043,
      0.17727255821228027,
      2.9014482498168945,
      0.4374455511569977,
      0.5686586499214172,
      0.08535537123680115,
      -1.6488147974014282,
      0.4734218120574951,
      -2.7588565349578857,
      -0.5814474821090698,
      -1.6422923803329468,
      -1.7959712743759155,
      -2.3064024448394775,
      -0.15066948533058167,
      -3.295830726623535,
      -0.34320107102394104,
      0.4517492949962616,
      0.4051796495914459,
      2.050616979598999,
      0.5975361466407776,
      1.3631412982940674,
      0.2249123901128769,
      0.10879434645175934,
      -0.19968239963054657,
      -1.333187222480774,
      0.018230702728033066,
      -1.3411329984664917,
      -1.4934691190719604,
      -1.125848412513733,
      0.04747065529227257,
      -1.8755639791488647,
      -0.5022753477096558,
      -2.202421188354492,
      -0.026168299838900566,
      -0.5478683710098267,
      -0.1215801015496254,
      0.3545665144920349,
      -3.205516815185547,
      0.07454150915145874,
      0.41382119059562683,
      0.48052749037742615,
      0.14605030417442322,
      0.004129622597247362,
      0.1450456976890564,
      0.12389752268791199,
      0.19928975403308868,
      -0.2637097239494324,
      0.25880342721939087,
      0.38232919573783875,
      -0.3617185354232788,
      -0.02609572932124138,
      0.14337283372879028,
      -0.6559808850288391,
      -0.12538011372089386,
      0.12164174765348434,
      -3.1607844829559326,
      0.006621720269322395,
      0.5019336342811584,
      0.351056307554245,
      0.2981947362422943,
      -0.04719295725226402,
      0.23689702153205872,
      0.08221851289272308,
      0.19111014902591705,
      -0.25699281692504883,
      0.148776575922966,
      0.42037516832351685,
      -0.3451051115989685,
      0.04899543896317482,
      0.14423222839832306,
      -0.5470086932182312,
      0.1478494107723236,
      0.330705463886261,
      -3.601573944091797,
      0.08155492693185806,
      0.4027034342288971,
      0.3792448937892914,
      0.24486669898033142,
      -0.03237362951040268,
      0.06939703226089478,
      0.0914168730378151,
      0.15983517467975616,
      -0.0893169716000557,
      0.12147650122642517,
      0.41439077258110046,
      -0.46061477065086365,
      -0.009110965766012669,
      0.257200688123703,
      -0.4861980080604553,
      -0.017269732430577278,
      0.17729145288467407,
      -2.9603688716888428,
      0.12503200769424438,
      0.5439806580543518,
      0.5867952704429626,
      0.12135666608810425,
      0.0007539591169916093,
      0.10369392484426498,
      0.0621614046394825,
      0.20890113711357117,
      -0.09912457317113876,
      0.1267426311969757,
      0.32143357396125793,
      -0.4358702003955841,
      -0.07928186655044556,
      -0.11482268571853638,
      -0.012174012139439583,
      -0.053536221385002136,
      0.05680259317159653,
      -0.26895788311958313,
      0.040661633014678955,
      -0.013132251799106598,
      -0.16127021610736847,
      -0.031699735671281815,
      0.09388429671525955,
      0.00018022670701611787,
      0.03848676010966301,
      -0.9355784058570862,
      -0.22937838733196259,
      -0.5910740494728088,
      -0.22615548968315125,
      -0.0420871265232563,
      -0.19293120503425598,
      0.041660334914922714,
      0.06420706957578659,
      0.05909678339958191,
      0.237600177526474,
      0.06662672758102417,
      0.1983960121870041,
      -0.07235213369131088,
      -0.05724475905299187,
      -0.028185004368424416,
      -0.391900897026062,
      0.9347571134567261,
      -0.44709816575050354,
      -0.03842337429523468,
      1.4232155084609985,
      -1.315566897392273,
      -1.4549994468688965,
      -0.04407879710197449,
      -2.1635818481445312,
      -0.16816233098506927,
      -0.6795676946640015,
      0.08509902656078339,
      1.2752329111099243,
      -1.4611836671829224,
      0.8821586966514587,
      -0.00978072639554739,
      0.04931440204381943,
      0.08623422682285309,
      -0.04644245654344559,
      -2.0755183696746826,
      0.02574707195162773,
      -0.18942685425281525,
      -1.2202426195144653,
      0.1103198304772377,
      0.0707181990146637,
      -1.1196422576904297,
      -0.10290348529815674,
      -0.3266717791557312,
      0.24839816987514496,
      -0.5845128297805786,
      0.0420139916241169,
      0.8293437361717224,
      0.25486865639686584,
      0.26637738943099976,
      -1.337374210357666,
      -0.03011293336749077,
      0.9916695952415466,
      -2.421414613723755,
      1.3622370958328247,
      1.298680067062378,
      0.4203939437866211,
      1.2806875705718994,
      -0.3170551061630249,
      0.13160152733325958,
      -1.122329831123352,
      0.07703781872987747,
      0.08162504434585571,
      -0.09330584108829498,
      0.7988670468330383,
      -1.0478488206863403,
      0.38117435574531555,
      0.280078262090683,
      -0.3202236294746399,
      -0.09474057704210281,
      -0.48974210023880005,
      0.05015816539525986,
      -2.1562209129333496,
      -0.7414447665214539,
      0.9554237723350525,
      0.8933649659156799,
      -0.3629503846168518,
      1.130933165550232,
      -0.3203144371509552,
      -0.441448450088501,
      -0.011810434982180595,
      0.5185997486114502,
      -0.5250353813171387,
      0.7931997776031494,
      -1.6600613594055176,
      -0.715645968914032,
      0.6134729385375977,
      0.4820176064968109,
      0.2856070399284363,
      0.004270263481885195,
      0.22048120200634003,
      0.005627851467579603,
      -0.6416471004486084,
      0.23804783821105957,
      0.02346109226346016,
      -0.18794643878936768,
      0.04144889488816261,
      -0.09010333567857742,
      0.01656939648091793,
      -0.05337857827544212,
      -0.07875818759202957,
      0.07303222268819809,
      -0.024912649765610695,
      -0.06913688778877258,
      -0.06956027448177338,
      -0.20621252059936523,
      0.06965955346822739,
      0.3248552680015564,
      0.06415332853794098,
      0.11973569542169571,
      -0.3056350648403168,
      0.016371125355362892,
      -0.19027402997016907,
      -0.11181246489286423,
      -0.15585483610630035,
      0.08635097742080688,
      0.17975643277168274,
      -0.08974015712738037,
      -0.11092354357242584,
      -0.12120355665683746,
      -0.04792304337024689,
      -0.04552169516682625,
      -0.14172543585300446,
      -0.09783658385276794,
      0.2802339494228363,
      0.24452011287212372,
      -0.0163751021027565,
      0.03202600032091141,
      0.14661742746829987,
      0.18448205292224884,
      0.14767134189605713,
      0.061393171548843384,
      0.16332609951496124,
      0.04423508793115616,
      -0.12700055539608002,
      -0.04628744721412659,
      -0.17052315175533295,
      0.0695226863026619,
      -0.06416326016187668,
      -0.05432438850402832,
      -0.1788797527551651,
      -0.18894383311271667,
      -0.0013621551916003227,
      0.2521517276763916,
      0.37283241748809814,
      -0.11708734184503555,
      -0.17461267113685608,
      -0.21360532939434052,
      0.2045670449733734,
      -0.021501213312149048,
      0.26277390122413635,
      0.03957947716116905,
      0.026842154562473297,
      -0.15729515254497528,
      -0.08260265737771988,
      0.17594856023788452,
      -0.024807075038552284,
      -0.13902726769447327,
      -0.11436966806650162,
      -0.18960322439670563,
      -0.07475689053535461,
      -0.05368955805897713,
      0.02774166129529476,
      -0.1477213203907013,
      -0.06923454254865646,
      -0.15150000154972076,
      -0.013676836155354977,
      0.05165226757526398,
      0.037185076624155045,
      0.8793387413024902,
      0.6752164959907532,
      -1.566842794418335,
      -0.18509776890277863,
      0.3324286937713623,
      -1.2030898332595825,
      0.6538322567939758,
      0.7361178994178772,
      -1.6457639932632446,
      -0.5424237847328186,
      0.1490786373615265,
      -0.11371035128831863,
      0.3511451184749603,
      0.4180162250995636,
      -0.22887365520000458,
      -0.34633153676986694,
      -0.2691669166088104,
      -0.19790156185626984,
      0.7779937386512756,
      0.1331424117088318,
      1.1696734428405762,
      -0.6548380255699158,
      -2.2917094230651855,
      0.9435854554176331,
      0.5507842898368835,
      0.5968389511108398,
      0.24488765001296997,
      -1.7873218059539795,
      -0.37144866585731506,
      0.3601022958755493,
      1.177406668663025,
      -0.061505310237407684,
      -2.5852596759796143,
      -0.5719810724258423,
      -0.003801963524892926,
      -0.20013877749443054,
      0.2421020120382309,
      0.5448068380355835,
      0.7902024388313293,
      -0.3453564941883087,
      -0.9612874984741211,
      1.1961692571640015,
      0.5529620051383972,
      0.6710143089294434,
      0.001254533533938229,
      -1.47641122341156,
      -0.5124778747558594,
      -0.02615608088672161,
      0.6423882842063904,
      0.2632165849208832,
      -2.2713756561279297,
      -0.5242276191711426,
      0.04561522603034973,
      -0.2654920518398285,
      0.15609723329544067,
      2.321209192276001,
      1.2975419759750366,
      -0.26206865906715393,
      -2.347383737564087,
      0.8030166625976562,
      0.9688250422477722,
      0.3777773380279541,
      1.8106529712677002,
      -3.1513588428497314,
      -2.435375213623047,
      -2.203207492828369,
      -0.7150226831436157,
      0.7917758822441101,
      -0.1279163658618927,
      -0.18528851866722107,
      -0.5937400460243225,
      0.21811741590499878,
      0.007403730880469084,
      1.9502302408218384,
      0.3860155940055847,
      -0.36880332231521606,
      -1.8612316846847534,
      0.8988492488861084,
      -0.4182860851287842,
      -1.4244905710220337,
      1.1056385040283203,
      -2.319650173187256,
      -1.6296515464782715,
      -1.6244028806686401,
      -1.8408446311950684,
      -0.0016525582177564502,
      0.7470531463623047,
      0.04479334130883217,
      -0.1800311952829361,
      -0.1723342388868332,
      -0.22974061965942383,
      -0.10130131244659424,
      0.33844193816185,
      -0.5945072174072266,
      -0.4732511639595032,
      0.07040681689977646,
      -0.2087799310684204,
      -0.20919863879680634,
      -0.1878998875617981,
      0.36664897203445435,
      -0.43898677825927734,
      0.1333300769329071,
      -0.4016561508178711,
      -0.05405482277274132,
      0.32199326157569885,
      0.13820111751556396,
      0.11327828466892242,
      -0.28227072954177856,
      -0.23843415081501007,
      -0.09000492841005325,
      0.3256887197494507,
      -0.674214780330658,
      -0.19988036155700684,
      -0.11587324738502502,
      -0.23251524567604065,
      -0.20589064061641693,
      -0.24372608959674835,
      0.39212101697921753,
      -0.48886018991470337,
      0.08030462265014648,
      -0.4812711477279663,
      -0.1122247502207756,
      0.3733314871788025,
      0.10067462921142578,
      0.13770058751106262,
      -0.16547878086566925,
      -0.14936982095241547,
      0.4804600477218628,
      0.28824475407600403,
      -0.9709950089454651,
      -0.21484458446502686,
      -0.1244068294763565,
      -0.09087606519460678,
      -0.0914963111281395,
      0.03389301151037216,
      0.2628520727157593,
      -0.5734394788742065,
      -0.008715078234672546,
      -0.5280762314796448,
      0.2748255431652069,
      -0.004337309394031763,
      -0.1527327299118042,
      0.13708369433879852,
      -0.22040048241615295,
      -0.17414216697216034,
      -0.026951612904667854,
      0.27990666031837463,
      -0.7823154330253601,
      -0.20439811050891876,
      -0.23525473475456238,
      -0.08843250572681427,
      -0.28863561153411865,
      -0.1781841367483139,
      0.28294068574905396,
      -0.4712127149105072,
      0.16053110361099243,
      -0.21787555515766144,
      -0.19144265353679657,
      0.20518574118614197,
      -0.03897114470601082,
      0.2758844494819641,
      -0.20813508331775665,
      -0.0548110269010067,
      0.0039962478913366795,
      -0.01914394460618496,
      -0.09404673427343369,
      0.006891991943120956,
      -0.03995167464017868,
      0.05907074734568596,
      0.13475418090820312,
      0.02248704619705677,
      -0.1650608628988266,
      -0.6022964119911194,
      -0.09217805415391922,
      -0.0975589007139206,
      -1.6831721067428589,
      -0.033632196485996246,
      0.29128867387771606,
      -0.452955424785614,
      -0.02159181237220764,
      -0.03750232607126236,
      -0.04971524327993393,
      -0.0712592601776123,
      0.0085588488727808,
      -0.0007745696930214763,
      0.08065485954284668,
      -0.17262591421604156,
      0.08854683488607407,
      -0.2529502809047699,
      0.06655765324831009,
      0.6394611597061157,
      -0.07672356069087982,
      0.24758389592170715,
      1.1875401735305786,
      0.39474302530288696,
      -0.18710869550704956,
      1.435194969177246,
      -0.19224897027015686,
      -0.7177971601486206,
      -0.04568099603056908,
      -0.7838969230651855,
      0.16575320065021515,
      0.6165175437927246,
      -1.6096996068954468,
      -0.49594646692276,
      0.07939097285270691,
      -0.7522086501121521,
      0.040665145963430405,
      0.6781696677207947,
      -0.6843797564506531,
      -0.04967838525772095,
      0.8621698021888733,
      0.5795230269432068,
      0.3145374059677124,
      1.3642690181732178,
      -0.06014145538210869,
      -0.8534147143363953,
      0.5718386769294739,
      -0.8803178071975708,
      -0.3126608431339264,
      -0.10060043632984161,
      -0.6799151301383972,
      -0.1492118090391159,
      0.1993461549282074,
      -0.3466779291629791,
      0.5365134477615356,
      0.32191193103790283,
      0.4726601541042328,
      0.5250000953674316,
      0.8720167279243469,
      2.721386671066284,
      -0.08778079599142075,
      -0.3390031158924103,
      0.36748433113098145,
      -0.4451231062412262,
      0.2963389754295349,
      -2.6218414306640625,
      -0.9401937127113342,
      1.402869462966919,
      -1.8728694915771484,
      -0.10000650584697723,
      -1.2160146236419678,
      -1.794236183166504,
      0.9898591041564941,
      0.1966233104467392,
      0.4272269904613495,
      3.4982614517211914,
      -0.680586040019989,
      -2.34022855758667,
      -0.674301266670227,
      -0.011967879720032215,
      0.8683355450630188,
      -5.203845024108887,
      0.4292437732219696,
      -0.2925194203853607,
      -2.0657620429992676,
      -0.4108162820339203,
      0.48436760902404785,
      -4.636762619018555,
      0.398629367351532,
      -0.18360966444015503,
      -0.3860822319984436,
      0.2269238382577896,
      -0.34636232256889343,
      -0.2926577627658844,
      0.01043967716395855,
      -0.45356985926628113,
      0.09331018477678299,
      -0.20964950323104858,
      0.10225165635347366,
      -0.20050735771656036,
      0.11823870986700058,
      -0.006167414132505655,
      -0.17491333186626434,
      0.01587371528148651,
      -0.07173700630664825,
      0.0614442378282547,
      0.06463933736085892,
      0.15250690281391144,
      -0.33979666233062744,
      0.17734184861183167,
      -0.054807599633932114,
      -0.20698757469654083,
      0.07093856483697891,
      -0.43239715695381165,
      0.22617721557617188,
      -0.04952976480126381,
      0.1390577256679535,
      -0.1661749929189682,
      -0.023317402228713036,
      0.0431346632540226,
      -0.18079930543899536,
      0.04704532399773598,
      -0.15002867579460144,
      0.043478526175022125,
      0.1351376473903656,
      0.15937542915344238,
      -0.33994707465171814,
      0.23795856535434723,
      -0.23049108684062958,
      -0.08427463471889496,
      0.08791985362768173,
      -0.24727356433868408,
      -0.03845250606536865,
      0.13104791939258575,
      0.15941289067268372,
      -0.3024543821811676,
      0.01619865745306015,
      -0.09157843142747879,
      -0.12106012552976608,
      -0.0502375029027462,
      -0.04054689407348633,
      -0.07301533967256546,
      0.14752060174942017,
      0.05938580259680748,
      -0.2966615557670593,
      0.148650661110878,
      -0.2520054876804352,
      -0.007558170240372419,
      0.2328638732433319,
      -0.20212718844413757,
      -0.00804818980395794,
      0.057986535131931305,
      0.22002777457237244,
      -0.23078425228595734,
      0.020918861031532288,
      0.02756742388010025,
      -0.14458824694156647,
      -0.0001885551173472777,
      -0.07065383344888687,
      -0.05786168947815895,
      0.04062794893980026,
      -0.07215635478496552,
      -0.01785114035010338,
      0.11475712060928345,
      0.016978014260530472,
      -0.0005149520584382117,
      0.028477327898144722,
      -0.0261747557669878,
      -0.003988109063357115,
      -0.05357648432254791,
      0.004716454539448023,
      -0.02290268987417221,
      -0.7104959487915039,
      -0.016199830919504166,
      -0.46012911200523376,
      -0.8510882258415222,
      0.0026097618974745274,
      -0.1511709839105606,
      -0.15255649387836456,
      0.16423684358596802,
      -0.3312068581581116,
      -0.1091490164399147,
      -0.19139938056468964,
      -0.04116205498576164,
      0.22952091693878174,
      0.06485084444284439,
      -0.14580614864826202,
      0.014470446854829788,
      -0.13397325575351715,
      0.4121324121952057,
      0.011773992329835892,
      0.8081933259963989,
      0.8977270126342773,
      1.1046903133392334,
      0.8616989850997925,
      0.30496421456336975,
      0.11051208525896072,
      0.43091902136802673,
      -0.2032628357410431,
      -0.4020801782608032,
      -0.6859182715415955,
      -1.2181493043899536,
      0.988415002822876,
      -2.108816385269165,
      -0.11471447348594666,
      -0.8602438569068909,
      -0.1372622549533844,
      0.25460073351860046,
      -0.8058311343193054,
      0.6024477481842041,
      1.0958356857299805,
      -1.1323611736297607,
      1.792116641998291,
      -0.402334064245224,
      -0.5253307223320007,
      0.3172473907470703,
      -1.4228838682174683,
      -0.6973457336425781,
      -1.02800452709198,
      -0.9541786909103394,
      0.6822609901428223,
      -1.3958001136779785,
      -0.9602292776107788,
      0.004557807929813862,
      -1.6791081428527832,
      -0.53917396068573,
      1.9417840242385864,
      1.2655373811721802,
      0.4592607319355011,
      3.030351161956787,
      1.4527742862701416,
      2.5455222129821777,
      2.4234395027160645,
      0.854512631893158,
      -0.08188700675964355,
      0.718847393989563,
      -0.07992454618215561,
      0.004636453930288553,
      0.0790967270731926,
      -0.032495297491550446,
      -0.21762943267822266,
      0.5564956665039062,
      0.16697852313518524,
      -1.69681715965271,
      1.0590070486068726,
      0.17758381366729736,
      -1.2224359512329102,
      1.857350468635559,
      0.6420599818229675,
      0.5943272113800049,
      1.3877376317977905,
      -0.010934095829725266,
      -0.47282496094703674,
      0.440103679895401,
      -0.7373459935188293,
      -0.48086604475975037,
      -0.38468635082244873,
      -0.4090951383113861,
      -0.0898091122508049,
      -0.18984518945217133,
      0.018619151785969734,
      -0.010986292734742165,
      0.07508643716573715,
      -0.025593126192688942,
      -0.2468813806772232,
      -0.3174770176410675,
      -0.5446133613586426,
      -0.09303224086761475,
      -0.37371429800987244,
      -0.013728098943829536,
      0.039858292788267136,
      -0.09231961518526077,
      0.1058260127902031,
      0.03656218573451042,
      -0.18448708951473236,
      -0.02580185979604721,
      0.14450380206108093,
      -0.04407721385359764,
      0.07854082435369492,
      -0.09342020004987717,
      0.25553658604621887,
      -0.11454576998949051,
      -0.15652239322662354,
      -0.17373225092887878,
      -0.3889113664627075,
      -0.12406422942876816,
      -0.13017815351486206,
      -0.16570740938186646,
      0.0340450294315815,
      0.05497993156313896,
      0.06541962176561356,
      0.09932917356491089,
      -0.33263179659843445,
      0.005605921149253845,
      0.10797785967588425,
      -0.06819827854633331,
      0.026668118312954903,
      -0.12977328896522522,
      0.6529330015182495,
      0.24836137890815735,
      -0.26672834157943726,
      -0.39173492789268494,
      -0.6008326411247253,
      -0.0959753766655922,
      -0.5066264867782593,
      -0.010814248584210873,
      0.08707060664892197,
      -0.04974514991044998,
      0.08728597313165665,
      -0.047065649181604385,
      0.11459922790527344,
      -0.31683310866355896,
      -0.005065579432994127,
      0.09535562247037888,
      0.08712984621524811,
      -0.10021144896745682,
      0.155037060379982,
      -0.06348904222249985,
      -0.20439913868904114,
      -0.3973863422870636,
      -0.20665591955184937,
      0.0307520292699337,
      -0.5781252980232239,
      -0.07786296308040619,
      0.056123342365026474,
      -0.03235635161399841,
      0.11963348835706711,
      0.11289143562316895,
      -0.2975393831729889,
      -0.04848693683743477,
      0.04913413152098656,
      0.0752691701054573,
      0.035465024411678314,
      0.009924258105456829,
      -0.04809967428445816,
      -0.04573643580079079,
      -0.07327906042337418,
      -3.0926151275634766,
      -0.0425100177526474,
      0.08469283580780029,
      0.15073375403881073,
      0.06751645356416702,
      0.01388237439095974,
      0.3540956676006317,
      0.19181135296821594,
      0.4436720311641693,
      0.7085739374160767,
      0.3780043125152588,
      0.8061392307281494,
      1.6322537660598755,
      0.6378411054611206,
      -0.007459965068846941,
      0.28824299573898315,
      -0.023480825126171112,
      -0.22150759398937225,
      0.2670787572860718,
      -0.09521938115358353,
      -0.04580210894346237,
      0.02428607828915119,
      -0.004703619051724672,
      -0.03238410875201225,
      1.7716809511184692,
      0.16459140181541443,
      0.12339558452367783,
      0.7683854103088379,
      -0.06248568743467331,
      -0.3328246772289276,
      -1.5928329229354858,
      0.15157759189605713,
      -0.017370669171214104,
      0.0058527300134301186,
      0.0436033271253109,
      -0.49565309286117554,
      -0.5694882273674011,
      -0.3298428952693939,
      0.8005991578102112,
      -0.8988903760910034,
      0.403995543718338,
      0.08859314024448395,
      1.4162098169326782,
      0.3685261011123657,
      0.654175877571106,
      1.1648099422454834,
      0.2958301305770874,
      -0.16433089971542358,
      0.6129714250564575,
      0.15769033133983612,
      -0.18431833386421204,
      0.259344220161438,
      -0.10659041255712509,
      -0.22042667865753174,
      -0.5721648335456848,
      -0.06745877116918564,
      0.2961384057998657,
      -0.6924383640289307,
      -0.05284130945801735,
      -0.5052616596221924,
      0.37556594610214233,
      0.31512442231178284,
      0.27579382061958313,
      -0.38181862235069275,
      0.4084910452365875,
      -0.589190661907196,
      -0.4428923428058624,
      -0.2664176821708679,
      -0.7097780108451843,
      0.051952071487903595,
      -0.6117138266563416,
      0.49607783555984497,
      -1.0738131999969482,
      0.2766232192516327,
      0.18722587823867798,
      0.2322918027639389,
      -0.34084686636924744,
      -2.29530930519104,
      -0.049088336527347565,
      -2.7876338958740234,
      1.1967015266418457,
      0.8521749973297119,
      0.7567420601844788,
      -0.008745516650378704,
      -1.2755154371261597,
      -0.11311844736337662,
      0.15248368680477142,
      -1.7785983085632324,
      0.04967166483402252,
      -0.8257291913032532,
      1.1649904251098633,
      -0.8497581481933594,
      -0.4777495563030243,
      -0.9877182245254517,
      -0.4999751150608063,
      0.42010563611984253,
      -0.3315066993236542,
      0.6198331117630005,
      0.6313605904579163,
      0.061445072293281555,
      0.48669180274009705,
      0.28052228689193726,
      0.2531414330005646,
      0.2899860143661499,
      0.19104033708572388,
      -0.25017237663269043,
      0.25765061378479004,
      0.04579190909862518,
      0.0008764228550717235,
      -0.12513363361358643,
      -0.17806027829647064,
      -0.19440585374832153,
      -0.23383834958076477,
      -0.05161153897643089,
      0.445382297039032,
      0.07778340578079224,
      0.0029211677610874176,
      0.23719224333763123,
      -0.10920477658510208,
      0.2657177746295929,
      0.23754896223545074,
      0.1722448170185089,
      0.0368361733853817,
      0.44412562251091003,
      -0.011747817508876324,
      -0.03029191866517067,
      -0.4823351502418518,
      -0.22547024488449097,
      0.31777074933052063,
      -0.439995139837265,
      0.3593824803829193,
      -0.14175377786159515,
      0.5266908407211304,
      0.2572557032108307,
      0.06043786182999611,
      0.6948902010917664,
      0.36667802929878235,
      0.22149138152599335,
      0.24995563924312592,
      0.3477615714073181,
      -0.10732784122228622,
      0.3084495961666107,
      0.05646653473377228,
      0.005628855433315039,
      -0.27423354983329773,
      -0.03696572408080101,
      0.3712184429168701,
      -0.8259785771369934,
      -0.06266619265079498,
      -0.2547246217727661,
      0.7116797566413879,
      -0.14713911712169647,
      0.21045361459255219,
      0.32038602232933044,
      0.20651744306087494,
      0.4181478023529053,
      0.20509988069534302,
      0.418440043926239,
      -0.1428001970052719,
      0.4214116036891937,
      -0.16336196660995483,
      0.28720930218696594,
      -0.4467560946941376,
      0.23648013174533844,
      0.19184331595897675,
      -0.7125259637832642,
      0.11740265786647797,
      0.008539244532585144,
      -0.11349091678857803,
      -0.01893608272075653,
      0.002074260264635086,
      0.11045360565185547,
      0.08457489311695099,
      -0.09829497337341309,
      0.08039464801549911,
      -0.1278105527162552,
      0.24027317762374878,
      0.3116295039653778,
      0.018255166709423065,
      0.20432373881340027,
      0.32109224796295166,
      -0.08498083800077438,
      0.231374129652977,
      0.1336120218038559,
      0.06844023615121841,
      0.00874733179807663,
      0.13586623966693878,
      0.1051749512553215,
      -0.1563815325498581,
      0.3779148757457733,
      -0.16632261872291565,
      0.09078406542539597,
      0.14788135886192322,
      -0.12058980762958527,
      -2.190540075302124,
      -2.1092493534088135,
      -0.47717374563217163,
      0.5345745086669922,
      1.037394404411316,
      -1.9311109781265259,
      -0.8636296391487122,
      -1.9242745637893677,
      0.14870773255825043,
      0.3935405910015106,
      -0.10609214007854462,
      0.22705461084842682,
      -0.5434985756874084,
      0.4201602041721344,
      -0.6219093799591064,
      -0.8351107239723206,
      -0.8278741240501404,
      -0.23412193357944489,
      -0.24989238381385803,
      -0.4850451648235321,
      0.027034565806388855,
      0.0773766040802002,
      0.5912683010101318,
      -0.7109019756317139,
      -0.9755816459655762,
      -1.0946412086486816,
      -0.6585142612457275,
      -1.4366474151611328,
      -0.5308344960212708,
      -0.37679749727249146,
      0.9135635495185852,
      0.17366860806941986,
      0.5673591494560242,
      0.5197126269340515,
      -0.5299168825149536,
      0.48848438262939453,
      0.5135109424591064,
      -1.8295714855194092,
      0.5454875230789185,
      -2.001696825027466,
      -2.971773624420166,
      -1.6459370851516724,
      -0.28598448634147644,
      -2.291027545928955,
      -0.1839221566915512,
      -0.7055910229682922,
      -1.2199132442474365,
      -0.03813272342085838,
      0.006841675378382206,
      0.9717845320701599,
      -0.05748021975159645,
      -0.2916048765182495,
      -2.5554885864257812,
      -0.3959186375141144,
      3.6298933029174805,
      3.7750067710876465,
      2.5742859840393066,
      4.37023401260376,
      -1.52583646774292,
      2.561253547668457,
      3.322601318359375,
      -0.7523519396781921,
      1.8414306640625,
      0.24550087749958038,
      0.8211250305175781,
      -0.10189057886600494,
      -1.09706449508667,
      0.40335169434547424,
      -0.5141136050224304,
      -0.5987107753753662,
      -0.3883914649486542,
      -0.5327261686325073,
      -0.11633487790822983,
      0.03725845739245415,
      -0.756481409072876,
      -0.5010572075843811,
      -0.49612534046173096,
      0.260390043258667,
      0.14936065673828125,
      0.11485382169485092,
      0.03717145323753357,
      -0.04891131445765495,
      -0.21985141932964325,
      -0.12076133489608765,
      -0.035260848701000214,
      -0.19456975162029266,
      -0.10404829680919647,
      0.10092364996671677,
      0.02974088117480278,
      0.07564593851566315,
      0.4569647014141083,
      0.12291676551103592,
      0.43388739228248596,
      -0.6406086087226868,
      0.34152066707611084,
      -0.2668306231498718,
      0.13403856754302979,
      -1.1279793977737427,
      0.11880572140216827,
      -0.132187619805336,
      0.01895640604197979,
      -0.3318479061126709,
      -0.07731403410434723,
      -0.13821449875831604,
      -0.08271970599889755,
      -0.09787867218255997,
      -0.253513365983963,
      0.059252142906188965,
      -0.43466946482658386,
      -0.018133752048015594,
      -0.4541538953781128,
      -0.4456646144390106,
      0.027533002197742462,
      -0.015658888965845108,
      0.03224697709083557,
      0.02381112053990364,
      -0.04329460859298706,
      -0.02399837039411068,
      -0.24297329783439636,
      0.04990595206618309,
      -0.08052878826856613,
      -0.11451316624879837,
      -0.010499143041670322,
      0.10189381241798401,
      -0.22261394560337067,
      -0.008915741927921772,
      0.711941123008728,
      -0.09039459377527237,
      0.2769891023635864,
      0.1445663720369339,
      0.47907036542892456,
      0.23381154239177704,
      -0.11752169579267502,
      -0.2574141025543213,
      0.244150310754776,
      -0.09822586178779602,
      0.15284878015518188,
      -0.09278752654790878,
      0.012092513963580132,
      -0.3369823396205902,
      -0.018616825342178345,
      0.11317740380764008,
      -0.3602026700973511,
      0.2964792251586914,
      -0.045390039682388306,
      0.03336983919143677,
      0.003002527402713895,
      -0.026795677840709686,
      -3.7311248779296875,
      -0.050187189131975174,
      -0.035351939499378204,
      0.03607561066746712,
      0.03010866791009903,
      0.16861674189567566,
      0.22271429002285004,
      -0.37302032113075256,
      -0.2123287171125412,
      0.1811302751302719,
      -0.20184960961341858,
      -0.6401770710945129,
      -0.5980239510536194,
      -3.9726734161376953,
      -0.29079508781433105,
      -0.3498970568180084,
      -0.12062110751867294,
      0.02921295538544655,
      -0.051039647310972214,
      -0.17503765225410461,
      0.1368606835603714,
      0.3339942693710327,
      -0.12146461009979248,
      -0.628160834312439,
      0.331082820892334,
      -0.15458007156848907,
      0.9533954858779907,
      0.91572105884552,
      3.2978689670562744,
      -0.6362800002098083,
      0.4997672736644745,
      0.0644068792462349,
      -0.36916935443878174,
      -0.9867636561393738,
      -2.8870019912719727,
      0.5449132323265076,
      0.09044425189495087,
      0.05909574776887894,
      -1.1703640222549438,
      -0.2072565108537674,
      -3.0039761066436768,
      -0.21120205521583557,
      0.15875115990638733,
      0.005497471429407597,
      1.1279245615005493,
      0.612000584602356,
      3.1333537101745605,
      -0.25169986486434937,
      0.41351333260536194,
      0.1442946195602417,
      -0.8700276613235474,
      -0.3025992512702942,
      -2.7782018184661865,
      0.1637634038925171,
      0.28460150957107544,
      -0.025380223989486694,
      -0.8760316967964172,
      -0.10643325001001358,
      -2.950373411178589,
      -0.24442331492900848,
      0.0958920493721962,
      -0.3599945902824402,
      -0.8174434900283813,
      0.8395035862922668,
      -1.3400923013687134,
      -0.14136286079883575,
      0.4561246633529663,
      -0.07031123340129852,
      0.02317751944065094,
      -0.15904021263122559,
      -0.007180332206189632,
      0.3807697594165802,
      0.1894172579050064,
      0.45854246616363525,
      -0.98314368724823,
      -0.14254043996334076,
      -0.8127238154411316,
      -0.12097371369600296,
      0.2127995789051056,
      0.05467244237661362,
      -0.8765052556991577,
      0.4677630364894867,
      2.229931592941284,
      -0.15093807876110077,
      0.43348726630210876,
      -0.032328713685274124,
      -0.10169462114572525,
      0.026143761351704597,
      -1.6072194576263428,
      0.3246810734272003,
      0.15346436202526093,
      -0.6493309140205383,
      -0.7530028223991394,
      -0.08578085899353027,
      -2.0423738956451416,
      0.17853643000125885,
      -0.21082016825675964,
      0.1044124886393547,
      -0.08844628930091858,
      -3.4922521114349365,
      -0.19207368791103363,
      0.06776278465986252,
      -0.14367559552192688,
      0.33007892966270447,
      0.08481695502996445,
      -0.15290772914886475,
      -0.029342399910092354,
      -0.012999205850064754,
      0.18398122489452362,
      0.1154828667640686,
      -0.1754298210144043,
      -0.7645840048789978,
      0.19477175176143646,
      0.32033616304397583,
      -0.4431116580963135,
      0.07373209297657013,
      -0.06708131730556488,
      -3.293334722518921,
      -0.010987767018377781,
      0.104509636759758,
      -0.01895492523908615,
      0.3092782497406006,
      0.14376616477966309,
      -0.06390664726495743,
      -0.009798124432563782,
      -0.07941219955682755,
      0.1570901721715927,
      0.03034876473248005,
      -0.1271243840456009,
      -0.7174326181411743,
      0.18938352167606354,
      0.20507949590682983,
      0.0349179208278656,
      -0.006663861218839884,
      -0.27578601241111755,
      -2.77567982673645,
      -0.179563969373703,
      0.10999022424221039,
      -0.47022804617881775,
      0.39314723014831543,
      0.049594830721616745,
      0.03270719200372696,
      -0.09639501571655273,
      -0.06866229325532913,
      -0.0041522919200360775,
      0.09997034072875977,
      -0.04689376428723335,
      -0.6939960718154907,
      0.21524623036384583,
      0.3042997717857361,
      -0.3533780872821808,
      0.11154438555240631,
      -0.21281613409519196,
      -2.9614036083221436,
      0.006366537418216467,
      0.08319119364023209,
      -0.392659455537796,
      0.3411591947078705,
      0.050498511642217636,
      -0.014955822378396988,
      -0.06265022605657578,
      -0.17611508071422577,
      0.08288733661174774,
      0.03987542539834976,
      -0.07547204941511154,
      -0.6147340536117554,
      0.23057237267494202,
      -0.032177772372961044,
      -0.561146080493927,
      0.11072570830583572,
      0.028260573744773865,
      0.05263923108577728,
      0.08058396726846695,
      -0.022455014288425446,
      0.11985033750534058,
      -0.07317458093166351,
      0.34437766671180725,
      0.5812751054763794,
      -0.19247876107692719,
      -0.058940403163433075,
      0.21044719219207764,
      -0.2399103343486786,
      -0.15036213397979736,
      -0.18858453631401062,
      0.10109055042266846,
      -0.5762781500816345,
      -0.24697504937648773,
      -0.007969124242663383,
      -0.2890758812427521,
      0.3466045558452606,
      0.000950529589317739,
      0.20497621595859528,
      0.3235802948474884,
      0.030631136149168015,
      -2.3651463985443115,
      -2.869986057281494,
      -2.7582552433013916,
      0.5487164258956909,
      1.1889655590057373,
      -1.489662766456604,
      -2.059335231781006,
      -0.2690329849720001,
      -2.250227451324463,
      0.015211624093353748,
      0.07379789650440216,
      -0.029223529621958733,
      0.2107681930065155,
      -0.1702674925327301,
      -0.15020334720611572,
      -0.04414629936218262,
      -0.4055951237678528,
      0.1972799152135849,
      -1.5032579898834229,
      2.7138705253601074,
      1.0181618928909302,
      2.460723638534546,
      4.04200553894043,
      2.762484312057495,
      1.663791298866272,
      1.6565561294555664,
      1.3444721698760986,
      -0.28861087560653687,
      0.14291352033615112,
      -0.16688956320285797,
      0.16137626767158508,
      0.49398791790008545,
      -0.5674000382423401,
      -0.5111472010612488,
      0.21434789896011353,
      0.15939223766326904,
      1.2033848762512207,
      0.1883406639099121,
      1.027132511138916,
      0.5907423496246338,
      2.0326099395751953,
      -0.4346753656864166,
      -0.607028603553772,
      -0.3263431489467621,
      -3.3502612113952637,
      -0.3451492190361023,
      -0.034390270709991455,
      0.15077926218509674,
      -0.06696929037570953,
      0.3294888436794281,
      -0.6415939927101135,
      -0.08253248035907745,
      -0.4255634546279907,
      0.3026270866394043,
      1.437422275543213,
      -3.8555071353912354,
      1.2075753211975098,
      1.0408612489700317,
      1.9030200242996216,
      -0.4976659119129181,
      -1.6474436521530151,
      -0.3409777581691742,
      -2.267184019088745,
      -0.5341785550117493,
      -0.11515983939170837,
      0.07471947371959686,
      -0.14063237607479095,
      0.5815831422805786,
      -0.18447528779506683,
      -0.24237336218357086,
      -0.5111626982688904,
      0.28812873363494873,
      0.07398587465286255,
      -0.3507634699344635,
      -0.2446802407503128,
      0.17997343838214874,
      -0.7272623181343079,
      -0.08770795911550522,
      -0.16954635083675385,
      -0.25702279806137085,
      0.0008269766112789512,
      0.3723393678665161,
      -0.28195300698280334,
      0.033258162438869476,
      0.38112419843673706,
      -0.30112317204475403,
      -0.10969103872776031,
      -0.15662376582622528,
      -0.11675560474395752,
      0.017668185755610466,
      0.012019669637084007,
      -0.37903356552124023,
      0.12136028707027435,
      0.15644268691539764,
      0.6037620902061462,
      -0.05239478871226311,
      -0.16807767748832703,
      -0.18894559144973755,
      0.3842594623565674,
      0.22809748351573944,
      -0.292272686958313,
      0.1704271137714386,
      0.43566545844078064,
      -0.36806410551071167,
      0.07316131889820099,
      -0.027017105370759964,
      -0.20328952372074127,
      0.19107647240161896,
      0.1629897505044937,
      -0.6809678673744202,
      -0.1378922164440155,
      0.04986594244837761,
      0.160259410738945,
      -0.24617113173007965,
      -0.19041256606578827,
      -0.5920565128326416,
      0.14564037322998047,
      0.2221912443637848,
      -0.40673762559890747,
      0.08827745169401169,
      0.2704090178012848,
      -0.15697403252124786,
      -0.23087771236896515,
      -0.049639903008937836,
      -0.15738987922668457,
      0.09688723832368851,
      -0.10076651722192764,
      -0.3372021019458771,
      -0.2310110330581665,
      0.15497873723506927,
      -0.29031503200531006,
      -0.05448264256119728,
      -0.17212596535682678,
      -0.08384326100349426,
      0.3672325015068054,
      0.24729228019714355,
      -0.2751600742340088,
      0.09032313525676727,
      0.3497553765773773,
      -0.34114870429039,
      -0.07492752373218536,
      -0.028472697362303734,
      -0.13800588250160217,
      0.08547822386026382,
      0.07025067508220673,
      0.057737208902835846,
      0.04128699749708176,
      0.015065847896039486,
      -3.200716257095337,
      -0.04809810593724251,
      -0.07917960733175278,
      0.07222089171409607,
      -0.07625927776098251,
      -0.15092146396636963,
      0.050988778471946716,
      -0.1151152178645134,
      -0.18522553145885468,
      0.26250404119491577,
      0.33476483821868896,
      -0.663616418838501,
      -2.201005697250366,
      -0.21866947412490845,
      0.2545221149921417,
      -0.1987757384777069,
      0.2104465663433075,
      -0.09529159218072891,
      -1.4624725580215454,
      -0.04577045887708664,
      0.049496524035930634,
      0.09925311803817749,
      0.012769819237291813,
      -0.8980843424797058,
      -1.253392219543457,
      -0.18233858048915863,
      -1.6695400476455688,
      1.758119821548462,
      -1.4654786586761475,
      0.1161767765879631,
      2.0340919494628906,
      0.22122782468795776,
      -0.13299527764320374,
      0.30056434869766235,
      -0.3339281380176544,
      0.25279009342193604,
      -0.4846915602684021,
      0.187575563788414,
      0.24320298433303833,
      -0.4059681296348572,
      0.3398243486881256,
      -1.5895689725875854,
      -2.128256320953369,
      -1.7328240871429443,
      0.4806395173072815,
      1.7871825695037842,
      -1.0917586088180542,
      0.20157265663146973,
      2.598522901535034,
      0.2380131483078003,
      -0.1393669843673706,
      0.1094108298420906,
      -0.1547924280166626,
      0.13244469463825226,
      -0.04328549653291702,
      0.12183394283056259,
      0.14055490493774414,
      -0.14888331294059753,
      0.04819708690047264,
      -1.5063762664794922,
      -0.5448232293128967,
      -1.0053126811981201,
      0.7192420363426208,
      2.7915401458740234,
      -1.4065123796463013,
      0.4308454692363739,
      0.602756917476654,
      0.19326306879520416,
      -0.3863426446914673,
      0.8621577620506287,
      -0.6562778353691101,
      0.028503431007266045,
      0.145248144865036,
      -0.3343881368637085,
      -0.43654438853263855,
      -1.5683969259262085,
      -0.12211258709430695,
      -1.3952604532241821,
      -1.554492712020874,
      -1.4245729446411133,
      -2.004669189453125,
      1.774903655052185,
      -2.4590773582458496,
      -0.7596656680107117,
      0.12080071866512299,
      0.3529976010322571,
      0.025012686848640442,
      0.09087441116571426,
      -0.4006153345108032,
      0.004306374117732048,
      -0.30297765135765076,
      0.09284383803606033,
      0.10759731382131577,
      -0.18096144497394562,
      -0.05140787735581398,
      -0.29906389117240906,
      -0.40700972080230713,
      -0.047331348061561584,
      -0.06658173352479935,
      -2.315312147140503,
      -0.05016053095459938,
      0.23695477843284607,
      -0.1567569524049759,
      0.33325424790382385,
      0.004237220622599125,
      -0.10074867308139801,
      -0.04855718836188316,
      -0.17053374648094177,
      -0.1861339956521988,
      0.057476986199617386,
      0.16648472845554352,
      -1.1977648735046387,
      0.08933006972074509,
      -0.29232731461524963,
      -0.32455721497535706,
      -0.18345151841640472,
      0.09931257367134094,
      -1.814151406288147,
      -0.1963896006345749,
      0.1251179724931717,
      0.05117078870534897,
      0.03548599034547806,
      -0.062228523194789886,
      -0.01903333142399788,
      0.021395333111286163,
      -0.061827536672353745,
      -0.07564492523670197,
      -0.16362839937210083,
      0.10004919767379761,
      -1.2372509241104126,
      0.11221526563167572,
      -0.2712768018245697,
      -0.3152163326740265,
      -0.16121771931648254,
      -0.04675484821200371,
      -1.6878553628921509,
      -0.15420234203338623,
      0.027524562552571297,
      0.07274084538221359,
      0.09041549265384674,
      -0.08736594766378403,
      0.09973059594631195,
      -0.006721667014062405,
      -0.08706315606832504,
      -0.37474048137664795,
      -0.06915700435638428,
      0.11914867162704468,
      -1.2158714532852173,
      0.13680823147296906,
      -0.33111411333084106,
      -0.3583546578884125,
      -0.20151537656784058,
      0.03414943814277649,
      -1.517252802848816,
      -0.04932934045791626,
      0.2681122124195099,
      -0.15350539982318878,
      0.26404109597206116,
      0.000368220207747072,
      0.02284025400876999,
      0.019526110962033272,
      -0.035973820835351944,
      -0.3027878999710083,
      -0.106672003865242,
      0.1433325856924057,
      -1.3147469758987427,
      0.13439634442329407,
      -0.013467318378388882,
      -0.033004533499479294,
      -0.016887085512280464,
      0.032934896647930145,
      -0.09093180298805237,
      0.1134808212518692,
      0.0022484026849269867,
      -0.0643603652715683,
      0.0654287189245224,
      0.06596112251281738,
      0.14060813188552856,
      -0.10990934073925018,
      -0.1694515496492386,
      0.1793513298034668,
      0.0014241461176425219,
      0.5494853854179382,
      0.13397344946861267,
      0.25824645161628723,
      0.059443630278110504,
      -0.19461949169635773,
      0.035824500024318695,
      0.18209591507911682,
      -0.0497492179274559,
      0.0765455886721611,
      -0.19946248829364777,
      0.037100836634635925,
      -0.2431786060333252,
      1.718849778175354,
      1.3840608596801758,
      1.5798380374908447,
      1.2557014226913452,
      -0.746589720249176,
      0.7947701811790466,
      0.7148330211639404,
      0.33298200368881226,
      1.1750470399856567,
      -0.1369549036026001,
      -4.232760906219482,
      -0.3439981937408447,
      0.4704851806163788,
      0.2822241485118866,
      0.574984073638916,
      0.15476855635643005,
      -1.4633187055587769,
      0.6154793500900269,
      0.7373257279396057,
      0.8778564929962158,
      0.7044152617454529,
      0.6723290085792542,
      -0.6581608653068542,
      0.6049923300743103,
      1.002785325050354,
      -0.37953031063079834,
      1.182626485824585,
      -0.5758258700370789,
      -1.0438050031661987,
      -0.4417968690395355,
      0.18124669790267944,
      0.9593117237091064,
      0.35664278268814087,
      0.25859835743904114,
      -1.5909489393234253,
      0.2606849670410156,
      -0.08606726676225662,
      -0.29891350865364075,
      -0.08331857621669769,
      0.6765086054801941,
      -0.1216522678732872,
      0.9132864475250244,
      0.8000658750534058,
      -0.3536277711391449,
      0.31071731448173523,
      0.25532612204551697,
      0.27992016077041626,
      0.3554105758666992,
      -0.1523570567369461,
      -0.8894674181938171,
      -0.4021858274936676,
      0.24973464012145996,
      0.8406076431274414,
      0.4865529239177704,
      -0.712548553943634,
      -1.3701444864273071,
      -0.27053794264793396,
      0.3819419741630554,
      0.39858028292655945,
      0.7853140830993652,
      -0.5389917492866516,
      -0.008727578446269035,
      -0.4056432843208313,
      0.45388346910476685,
      0.3718523383140564,
      0.2501285672187805,
      -0.9928025603294373,
      -1.2574207782745361,
      -0.8735443949699402,
      0.17138870060443878,
      0.6197588443756104,
      0.05599881708621979,
      -0.030221855267882347,
      -0.25435832142829895,
      0.19524355232715607,
      -0.15198670327663422,
      -0.6215304136276245,
      0.25439587235450745,
      0.1639723777770996,
      -0.1378854513168335,
      0.24501430988311768,
      -0.26040834188461304,
      0.10027366131544113,
      0.05356358736753464,
      -0.04979651793837547,
      -0.055714886635541916,
      -0.1189122274518013,
      0.058173540979623795,
      0.16575682163238525,
      0.1068795844912529,
      0.13658872246742249,
      0.10628245770931244,
      0.5680903792381287,
      0.004751833155751228,
      -0.8275984525680542,
      0.26398301124572754,
      0.2509320378303528,
      0.014089643023908138,
      0.3053629994392395,
      -0.03860931843519211,
      0.08306436985731125,
      0.18830512464046478,
      -0.29130351543426514,
      -0.09180145710706711,
      -0.3051515817642212,
      0.04410862922668457,
      0.21178318560123444,
      0.13688382506370544,
      0.19669513404369354,
      0.008773809298872948,
      0.44842392206192017,
      0.07841657102108002,
      -0.8651593327522278,
      0.11639747768640518,
      0.24028490483760834,
      -0.3097628057003021,
      0.18845337629318237,
      0.029175380244851112,
      0.13189496099948883,
      0.23278391361236572,
      -0.24751794338226318,
      -0.05774938315153122,
      -0.3548365533351898,
      -0.08132258802652359,
      0.16897402703762054,
      0.10531113296747208,
      0.14776889979839325,
      0.11162085086107254,
      0.3237833082675934,
      0.08928491175174713,
      -0.5736834406852722,
      0.23779752850532532,
      0.1750483363866806,
      -0.11293132603168488,
      0.24737851321697235,
      0.08862867951393127,
      0.13621021807193756,
      0.1599077582359314,
      -0.18526935577392578,
      -0.12766747176647186,
      -0.1962212771177292,
      -0.029220139607787132,
      0.2671237587928772,
      0.06034927815198898,
      -0.20692078769207,
      -0.16125927865505219,
      0.020771071314811707,
      0.023878103122115135,
      -0.03583349287509918,
      0.008516141213476658,
      0.020821750164031982,
      -0.040508925914764404,
      -0.0017986358143389225,
      0.11427769064903259,
      0.15861614048480988,
      -0.22141528129577637,
      -0.2061411589384079,
      -0.9671396017074585,
      -0.763495683670044,
      -0.08909063041210175,
      -0.1051233634352684,
      -0.33833175897598267,
      -0.11504969000816345,
      -0.17413659393787384,
      0.10076922923326492,
      0.1095023825764656,
      0.3227149546146393,
      -0.18648529052734375,
      0.0040059336461126804,
      -0.2778624892234802,
      0.03099532425403595,
      -0.16408343613147736,
      0.5080685615539551,
      -0.937302827835083,
      1.6255158185958862,
      1.7052613496780396,
      0.02394448220729828,
      0.006474324036389589,
      0.06607770174741745,
      -0.5527130961418152,
      -1.096701741218567,
      -0.0722813680768013,
      -0.6927647590637207,
      0.3271169364452362,
      0.32503724098205566,
      -0.6242548227310181,
      -2.2238855361938477,
      -0.8164290189743042,
      -0.5830668210983276,
      0.16682523488998413,
      0.10943162441253662,
      -0.19136731326580048,
      1.8117784261703491,
      1.3255120515823364,
      0.08924923092126846,
      -0.12784160673618317,
      -0.007050568703562021,
      -0.6392766237258911,
      -0.7139580249786377,
      -0.4093289375305176,
      -0.22493690252304077,
      0.03836677968502045,
      0.587030827999115,
      -0.5930606722831726,
      -1.5760468244552612,
      -0.6829536557197571,
      -0.533128559589386,
      -0.29828494787216187,
      0.22097796201705933,
      -1.0961560010910034,
      1.7214422225952148,
      2.067962884902954,
      -0.8132497668266296,
      -0.03626907989382744,
      -0.06287050992250443,
      -0.3531011641025543,
      -0.39211055636405945,
      -0.1398283839225769,
      -0.28754785656929016,
      0.05528637021780014,
      0.42005133628845215,
      -0.12386024743318558,
      -1.8189622163772583,
      -0.7486104965209961,
      -1.6895676851272583,
      -1.0417979955673218,
      -0.9559021592140198,
      -0.19870448112487793,
      1.1288907527923584,
      0.8994070887565613,
      0.9199054837226868,
      -0.5487526059150696,
      0.01118415966629982,
      -0.44958043098449707,
      -0.49944671988487244,
      -1.468814492225647,
      -0.7312511205673218,
      -2.086198568344116,
      1.729617953300476,
      -1.316419243812561,
      -1.2829790115356445,
      -0.646966814994812,
      -0.5405963659286499,
      -0.4176204204559326,
      -0.2596735954284668,
      -0.28141820430755615,
      -0.08235639333724976,
      0.12745966017246246,
      0.05542093142867088,
      -0.20657563209533691,
      0.09976010024547577,
      -0.08133906871080399,
      -0.2033497840166092,
      0.0924159586429596,
      -0.2644185721874237,
      -0.08561784774065018,
      -0.5988034605979919,
      0.07812292873859406,
      -0.08198018372058868,
      0.2039981335401535,
      -0.022195715457201004,
      -0.4059567153453827,
      -0.1228058859705925,
      -0.13919004797935486,
      -0.07908455282449722,
      -0.017555197700858116,
      0.13903307914733887,
      -0.13951265811920166,
      0.15444126725196838,
      -0.05520866438746452,
      -0.10656962543725967,
      0.10954408347606659,
      -0.1494714319705963,
      -0.06435797363519669,
      -0.6215890645980835,
      0.07191319763660431,
      -0.08152881264686584,
      0.17980022728443146,
      -0.14894050359725952,
      -0.37228068709373474,
      -0.30202120542526245,
      -0.12227509915828705,
      -0.024419883266091347,
      -0.08966599404811859,
      0.04293143376708031,
      -0.0014344940427690744,
      -0.0012551086256280541,
      0.05989360064268112,
      -0.1783052682876587,
      0.11766142398118973,
      -0.19164791703224182,
      -0.05812898278236389,
      -0.5238670706748962,
      0.0018624013755470514,
      -0.0764218345284462,
      0.11466208100318909,
      -0.03750098869204521,
      -0.42857521772384644,
      -0.2832663953304291,
      -0.1442166417837143,
      -0.033762287348508835,
      -0.04334798455238342,
      0.14510639011859894,
      -0.08430194854736328,
      0.03535744920372963,
      -0.07541212439537048,
      -0.03850176930427551,
      0.06851375102996826,
      -0.10409773886203766,
      -0.04834050312638283,
      -0.5752705335617065,
      -0.006173318717628717,
      -0.07430662214756012,
      0.18806998431682587,
      -0.0877968892455101,
      0.03980757296085358,
      0.15474863350391388,
      -0.013594765216112137,
      0.0016376199200749397,
      -0.1421629637479782,
      -0.06663428246974945,
      -0.00938340462744236,
      0.013626724481582642,
      -0.05421511456370354,
      -0.33372390270233154,
      -0.7082000374794006,
      -0.049620065838098526,
      -0.5642268657684326,
      -1.0459479093551636,
      0.15030290186405182,
      -0.547676682472229,
      -0.41958087682724,
      0.7557104825973511,
      0.03047269582748413,
      -0.5508850812911987,
      0.3805694282054901,
      -0.3043803572654724,
      -0.05071113258600235,
      0.40033769607543945,
      0.16892966628074646,
      -0.006629522889852524,
      -0.31870153546333313,
      -1.3965877294540405,
      -0.5075684785842896,
      0.6746153831481934,
      -0.34573331475257874,
      -0.027646996080875397,
      0.11114493012428284,
      0.18379922211170197,
      0.44458284974098206,
      -0.9867464303970337,
      0.4511590600013733,
      -0.1652805507183075,
      -0.11767178028821945,
      0.4120175242424011,
      0.4929339587688446,
      0.735968291759491,
      0.8576371669769287,
      0.3747677505016327,
      0.5893656015396118,
      -0.7654047012329102,
      -0.6173158884048462,
      0.3000306785106659,
      1.5026030540466309,
      1.477022647857666,
      0.783665657043457,
      2.229353904724121,
      1.957260012626648,
      1.2327971458435059,
      0.1866610050201416,
      -0.02390599437057972,
      -0.5410824418067932,
      0.1845526546239853,
      0.3435247540473938,
      0.3087807297706604,
      0.6196011304855347,
      0.5175462365150452,
      0.26647552847862244,
      -0.275432288646698,
      -0.34934771060943604,
      0.5990087389945984,
      -0.290444940328598,
      -0.8151615858078003,
      -0.035928986966609955,
      0.013272982090711594,
      0.15322555601596832,
      -0.5264754295349121,
      0.49623531103134155,
      0.761205792427063,
      -0.17932374775409698,
      -0.06655097007751465,
      -0.2823560833930969,
      0.17831309139728546,
      0.41360488533973694,
      -0.03033241257071495,
      0.24568043649196625,
      -0.25501561164855957,
      -1.1225223541259766,
      1.0191898345947266,
      -0.08845303952693939,
      -2.4700052738189697,
      0.4373302459716797,
      0.20541027188301086,
      -1.2898201942443848,
      0.884005606174469,
      0.5073475241661072,
      -0.05402924120426178,
      -1.3997431993484497,
      -0.3599795401096344,
      -0.00698824692517519,
      -2.582326889038086,
      0.7562391757965088,
      0.3934357762336731,
      0.07297877222299576,
      -0.5801200866699219,
      -0.1359366774559021,
      -0.06829987466335297,
      -0.5150949358940125,
      -0.4837038815021515,
      -0.3621061146259308,
      -0.3102627396583557,
      -0.33953502774238586,
      0.21881896257400513,
      0.025426454842090607,
      -0.12278936803340912,
      -0.07865024358034134,
      -0.3354412615299225,
      0.21750971674919128,
      -0.4035424292087555,
      0.5103318095207214,
      0.3294474184513092,
      -0.23002856969833374,
      0.04163983464241028,
      0.0995212122797966,
      -0.02925368957221508,
      0.0856349766254425,
      -0.9728219509124756,
      -0.6039761900901794,
      -0.4524742364883423,
      -0.30255019664764404,
      -0.1629505157470703,
      0.3751431405544281,
      0.10841066390275955,
      -0.05819627270102501,
      -0.3901051878929138,
      -0.271086186170578,
      -0.4996579885482788,
      0.20466703176498413,
      0.5333706140518188,
      -0.1479443609714508,
      0.2159518599510193,
      -0.13034798204898834,
      0.24680781364440918,
      -0.37834277749061584,
      -0.47275251150131226,
      -0.6997706890106201,
      -0.34054017066955566,
      -0.2633613646030426,
      0.2159372717142105,
      0.20897996425628662,
      -0.05867946147918701,
      0.19762419164180756,
      -0.4673396646976471,
      0.06196877732872963,
      -0.7012426853179932,
      0.2832704186439514,
      0.4088325500488281,
      -0.2905102074146271,
      0.09268155694007874,
      -0.08050468564033508,
      -0.016272351145744324,
      -0.193044513463974,
      0.03301369026303291,
      0.05602162703871727,
      -0.38621294498443604,
      -0.32577478885650635,
      0.09408721327781677,
      0.22619333863258362,
      -0.020495856180787086,
      -0.03315870836377144,
      -0.3217022716999054,
      0.2764984369277954,
      -0.5003179311752319,
      0.14428862929344177,
      0.10912642627954483,
      -0.1917400360107422,
      0.016853749752044678,
      -0.009297052398324013,
      -0.05493941158056259,
      -0.08951300382614136,
      -0.31701672077178955,
      0.031794507056474686,
      -0.019253818318247795,
      -0.00040149062988348305,
      -0.03603365644812584,
      0.4473961293697357,
      0.06055004522204399,
      0.03462815657258034,
      0.6600009799003601,
      -0.28049251437187195,
      -0.5075389742851257,
      0.804523229598999,
      -0.3567863404750824,
      -0.2859906852245331,
      0.2684812843799591,
      -0.49322032928466797,
      0.08768738061189651,
      -0.36501073837280273,
      0.14515337347984314,
      -0.2571732699871063,
      0.018566615879535675,
      -0.04222344607114792,
      0.0364319384098053,
      1.2006534337997437,
      1.098201870918274,
      -0.4408170282840729,
      0.16469664871692657,
      1.1598504781723022,
      0.06867276877164841,
      -0.23328690230846405,
      -0.9526612162590027,
      0.6146606802940369,
      -0.12303808331489563,
      -0.31069502234458923,
      -0.016474148258566856,
      -0.4309946298599243,
      0.7321743965148926,
      0.24970924854278564,
      -0.33141759037971497,
      -0.11711963266134262,
      -0.18167278170585632,
      0.6612971425056458,
      -0.5623233318328857,
      -0.6654676198959351,
      0.8621594309806824,
      0.14532959461212158,
      0.08341369032859802,
      -0.8932182788848877,
      -0.36230963468551636,
      -0.03864298760890961,
      -0.7322087287902832,
      0.17045694589614868,
      -0.42065173387527466,
      0.029377199709415436,
      0.2696782946586609,
      0.13003835082054138,
      -0.18661487102508545,
      -0.0968426838517189,
      0.17312324047088623,
      1.074425458908081,
      -1.6301943063735962,
      -0.646390974521637,
      3.067051410675049,
      -1.2193948030471802,
      -0.5723968148231506,
      0.8403815627098083,
      -2.200706720352173,
      -0.1740117371082306,
      -3.0154759883880615,
      -0.49143311381340027,
      0.058428868651390076,
      -1.4904799461364746,
      1.0456302165985107,
      -0.22303257882595062,
      -2.3581480979919434,
      -0.4510643482208252,
      0.23174703121185303,
      -0.051218632608652115,
      -1.0722618103027344,
      -0.5986449718475342,
      1.3313302993774414,
      -0.9042596220970154,
      0.8078190088272095,
      -0.024278325960040092,
      -0.9507941603660583,
      -0.3992341458797455,
      -1.2763625383377075,
      -0.840408444404602,
      -0.45458894968032837,
      -0.3183894753456116,
      1.3786582946777344,
      -0.2485392689704895,
      -0.7145426869392395,
      -0.4204058051109314,
      -0.11655710637569427,
      -0.04362870007753372,
      0.21870794892311096,
      0.18330003321170807,
      -0.7451659440994263,
      -0.5224874019622803,
      -0.09797947853803635,
      -0.1105957180261612,
      -0.1444488912820816,
      0.15852196514606476,
      0.11497655510902405,
      0.012014837935566902,
      -0.023349689319729805,
      -0.42393186688423157,
      0.012539106421172619,
      -0.20070511102676392,
      0.15646730363368988,
      0.08216341584920883,
      -0.07648822665214539,
      0.21566979587078094,
      0.3435778319835663,
      0.12182292342185974,
      -0.9744077920913696,
      -0.3600483536720276,
      -0.09192407876253128,
      -0.05479201301932335,
      -0.3187239170074463,
      -0.03384780511260033,
      0.07685668766498566,
      0.06529378890991211,
      -0.04548421502113342,
      -0.38132622838020325,
      -0.04914284870028496,
      -0.04815595969557762,
      0.03938206285238266,
      -0.020961983129382133,
      -0.07240930944681168,
      0.14082328975200653,
      0.44605305790901184,
      0.2756057679653168,
      -1.234808325767517,
      -0.219685897231102,
      -0.1994783580303192,
      0.08049318939447403,
      -0.1355023980140686,
      0.007409116718918085,
      -0.03627415746450424,
      0.032576315104961395,
      -0.031178506091237068,
      -0.2977255582809448,
      0.13102304935455322,
      -0.11839762330055237,
      0.17903554439544678,
      -0.27111172676086426,
      -0.10748758167028427,
      0.3050072193145752,
      0.3980739116668701,
      0.17977631092071533,
      -0.8750914931297302,
      -0.2843879163265228,
      -0.005714021623134613,
      0.02589086815714836,
      -0.09623787552118301,
      0.02172885090112686,
      0.11487074941396713,
      0.029669681563973427,
      -0.10179924219846725,
      -0.43564486503601074,
      -0.10325028002262115,
      -0.17489460110664368,
      0.03457808122038841,
      0.0239134319126606,
      -0.06146795675158501,
      -0.07272722572088242,
      -1.9348114728927612,
      -0.05762211233377457,
      0.22152197360992432,
      -1.1949856281280518,
      0.2564452886581421,
      -0.08470584452152252,
      -2.2504982948303223,
      -0.09239549189805984,
      -0.1958255022764206,
      -0.3786470293998718,
      -0.06075672060251236,
      -2.5962259769439697,
      -0.2899203300476074,
      -2.2099194526672363,
      0.03949074074625969,
      0.6068363785743713,
      0.07158435136079788,
      -0.12986427545547485,
      0.27383729815483093,
      -0.06857015192508698,
      0.5389012694358826,
      0.4019005000591278,
      0.3406706750392914,
      0.06822052597999573,
      -0.36743590235710144,
      0.13250505924224854,
      -1.0820269584655762,
      0.11202035844326019,
      -1.370694875717163,
      -0.13939133286476135,
      1.8323421478271484,
      -0.401031494140625,
      0.19712033867835999,
      -1.2342286109924316,
      0.11297900229692459,
      -0.16149520874023438,
      0.3463084399700165,
      -0.2718583047389984,
      -1.6896766424179077,
      0.08004841953516006,
      -1.4738222360610962,
      -0.8009472489356995,
      0.38072580099105835,
      -0.8555499315261841,
      -1.4000009298324585,
      -0.115138940513134,
      -1.0740591287612915,
      -0.3804202973842621,
      1.529097318649292,
      -0.6225053668022156,
      0.2249717265367508,
      0.5747243762016296,
      0.2922236919403076,
      -0.04654935374855995,
      0.1369236558675766,
      -0.0948280543088913,
      -1.5457578897476196,
      0.14448386430740356,
      -1.354563593864441,
      -0.9152546525001526,
      0.4884105920791626,
      -0.972622811794281,
      -0.965770423412323,
      0.00791948102414608,
      -1.0528900623321533,
      -0.28721943497657776,
      1.483540654182434,
      0.004018314648419619,
      0.053799547255039215,
      -1.429040789604187,
      0.2698167860507965,
      -0.2398674488067627,
      0.5461825728416443,
      -0.3790147304534912,
      -1.5113738775253296,
      -0.041343774646520615,
      -1.3498566150665283,
      -0.7131561040878296,
      0.5542826652526855,
      -0.7858803868293762,
      -1.6719363927841187,
      -0.05634257569909096,
      -1.6519529819488525,
      -0.9443178772926331,
      1.2427035570144653,
      -0.6343557834625244,
      -1.2142778635025024,
      -1.4086627960205078,
      -1.022787094116211,
      -0.09535466879606247,
      0.25952962040901184,
      -0.19652508199214935,
      -1.356611728668213,
      0.10044631361961365,
      -1.0942153930664062,
      -0.6768434643745422,
      0.4016110301017761,
      -0.7577120661735535,
      -1.070591688156128,
      0.13310475647449493,
      -0.5291134119033813,
      0.045701101422309875,
      0.7324444651603699,
      0.15974122285842896,
      -0.23063601553440094,
      -1.300203800201416,
      -0.31654953956604004,
      -0.15263502299785614,
      0.13986848294734955,
      -0.18156535923480988,
      -0.6926230192184448,
      -0.1475629061460495,
      -0.37484243512153625,
      -0.5365440249443054,
      0.3302295207977295,
      -0.5210192799568176,
      -1.3969929218292236,
      0.12655717134475708,
      -1.1304272413253784,
      -0.07605034857988358,
      0.8947552442550659,
      0.0639442726969719,
      -0.29383859038352966,
      -1.1999437808990479,
      -0.3626314401626587,
      -0.11931148171424866,
      0.15076637268066406,
      -0.15810111165046692,
      -0.6594235897064209,
      -0.03214351087808609,
      -0.41559290885925293,
      -0.3677618205547333,
      0.29586261510849,
      -0.4466803967952728,
      -1.218855619430542,
      -0.18929918110370636,
      -0.48511213064193726,
      -0.08438081294298172,
      0.9111534953117371,
      0.13890516757965088,
      -0.39025187492370605,
      -1.4784231185913086,
      -0.3423400819301605,
      -0.12322130799293518,
      0.16255581378936768,
      -0.10156281292438507,
      -0.7049949765205383,
      -0.13632473349571228,
      -0.4082428514957428,
      -0.4736104905605316,
      0.339897096157074,
      -0.4965294897556305,
      -1.3893789052963257,
      -0.2869863510131836,
      -1.4386478662490845,
      0.0011832222808152437,
      0.632244348526001,
      0.13007299602031708,
      -0.2769317924976349,
      -1.3064616918563843,
      -0.381814569234848,
      -0.06608497351408005,
      0.16653208434581757,
      -0.0760895311832428,
      -0.6156793236732483,
      -0.0887986570596695,
      -0.2603072226047516,
      -0.4522118866443634,
      0.3251606225967407,
      -0.4368448257446289,
      -0.03888237476348877,
      0.04527100548148155,
      0.08375878632068634,
      0.1539435088634491,
      -0.18532077968120575,
      0.08471591770648956,
      0.022307729348540306,
      -0.053910475224256516,
      0.09090863913297653,
      0.11961711943149567,
      -0.12279648333787918,
      0.13428570330142975,
      -0.030131975188851357,
      0.20482291281223297,
      0.15674853324890137,
      0.07553252577781677,
      0.24847723543643951,
      0.22827772796154022,
      -0.17069129645824432,
      -0.5004329085350037,
      -0.22467072308063507,
      0.033411163836717606,
      0.535180389881134,
      0.08738890290260315,
      -0.1945454180240631,
      0.16839449107646942,
      -0.11244876682758331,
      1.8919768333435059,
      2.808107376098633,
      1.834168553352356,
      2.8562424182891846,
      3.6614644527435303,
      2.7716140747070312,
      1.9030218124389648,
      2.747138500213623,
      1.402124285697937,
      -0.3479938507080078,
      -0.11722228676080704,
      -0.26667556166648865,
      -0.39862552285194397,
      0.14962460100650787,
      -0.3074064254760742,
      -0.9806846380233765,
      -0.603706955909729,
      -0.6322176456451416,
      -2.5247538089752197,
      0.23178169131278992,
      -2.775221347808838,
      0.8818022608757019,
      -2.3319613933563232,
      -0.14405442774295807,
      -0.0636792704463005,
      0.6274003982543945,
      0.30546435713768005,
      -0.06748523563146591,
      -0.5975013375282288,
      -0.09257173538208008,
      -0.5133281946182251,
      0.18984992802143097,
      -0.577505886554718,
      -0.42740294337272644,
      -0.11989467591047287,
      -0.16503340005874634,
      0.5106366872787476,
      -2.5922646522521973,
      0.5196629762649536,
      2.3337581157684326,
      -2.4642550945281982,
      1.4034316539764404,
      0.9828945398330688,
      -0.08567094057798386,
      0.6489415168762207,
      -0.8119258880615234,
      -0.6348345875740051,
      -0.029968315735459328,
      -1.5360978841781616,
      0.8685584664344788,
      -0.8567273020744324,
      -2.642045736312866,
      0.4938957989215851,
      -1.0748522281646729,
      0.8612608909606934,
      -2.364410877227783,
      0.26060107350349426,
      0.7841206192970276,
      -1.1058409214019775,
      1.4924712181091309,
      -0.9186494946479797,
      -1.0666757822036743,
      0.9186468124389648,
      0.2184116095304489,
      -0.09689833223819733,
      0.0944637805223465,
      -0.2905103266239166,
      0.4735572934150696,
      -0.6215811371803284,
      -0.471368670463562,
      -0.6143154501914978,
      -1.2318588495254517,
      0.11998621374368668,
      0.18108195066452026,
      0.3595515191555023,
      0.31046760082244873,
      -0.5143125057220459,
      -0.09173304587602615,
      0.14165110886096954,
      -0.05466314032673836,
      0.10173089057207108,
      0.012574459426105022,
      0.03435606136918068,
      0.1959054172039032,
      0.07999169826507568,
      -0.5191524028778076,
      0.14551526308059692,
      0.2675744593143463,
      -0.2968730926513672,
      0.3036766052246094,
      0.08092595636844635,
      0.2188204824924469,
      0.17285437881946564,
      -0.02137531153857708,
      -0.33719709515571594,
      -0.03363075852394104,
      0.2312031090259552,
      -0.28732821345329285,
      0.1191604733467102,
      0.01520236674696207,
      0.12531165778636932,
      0.09744910150766373,
      0.00024841944104991853,
      -0.43325912952423096,
      0.08609718829393387,
      0.24185535311698914,
      -0.25880271196365356,
      0.15537679195404053,
      0.063152015209198,
      0.49536457657814026,
      0.3290702998638153,
      -0.03817688673734665,
      -0.351886510848999,
      -0.37942084670066833,
      -0.1679912954568863,
      0.05785845220088959,
      -0.06419234722852707,
      0.10810769349336624,
      -0.032667018473148346,
      0.2559877336025238,
      -0.09827978163957596,
      -0.32641202211380005,
      0.0015651737339794636,
      0.25339075922966003,
      -0.4201275706291199,
      0.3594680428504944,
      -0.01768309623003006,
      0.17230167984962463,
      0.01938054710626602,
      -0.12707239389419556,
      -0.4550304114818573,
      -0.32512933015823364,
      0.06886634230613708,
      -0.238074392080307,
      0.04470684751868248,
      0.07520030438899994,
      0.04140608757734299,
      0.14307087659835815,
      -0.07204419374465942,
      -0.3042556643486023,
      0.15332520008087158,
      0.34340226650238037,
      -0.2725602388381958,
      0.16435039043426514,
      -0.14503662288188934,
      -0.17595244944095612,
      0.06868758052587509,
      0.14298924803733826,
      0.14190168678760529,
      0.04293551668524742,
      0.00312369829043746,
      -0.0990607962012291,
      0.05811069533228874,
      0.1482822746038437,
      0.5917900800704956,
      0.27384108304977417,
      0.05542915314435959,
      0.6098788380622864,
      0.5118470788002014,
      0.05423133820295334,
      0.6586779952049255,
      0.947687566280365,
      -0.020736126229166985,
      -0.08788438141345978,
      -0.11253543198108673,
      -0.20551277697086334,
      -0.048951901495456696,
      -0.20662061870098114,
      0.15555676817893982,
      0.3215717375278473,
      0.3180660605430603,
      -0.5526860356330872,
      -0.6226909160614014,
      -0.11656821519136429,
      -0.7161626219749451,
      -0.9162536263465881,
      -0.15672746300697327,
      0.4480096399784088,
      -0.5093616843223572,
      0.5490858554840088,
      0.722800076007843,
      0.2257644683122635,
      0.4205019474029541,
      0.3540041446685791,
      0.11162795126438141,
      0.3605426549911499,
      0.6115314960479736,
      -0.5697793960571289,
      0.16709966957569122,
      -0.8742662072181702,
      -1.1016910076141357,
      -0.18529126048088074,
      -2.0266358852386475,
      -1.0951310396194458,
      -1.9839149713516235,
      -0.07235261052846909,
      -0.5308793783187866,
      -0.26119333505630493,
      1.5303699970245361,
      -0.04896223917603493,
      0.9696973562240601,
      0.36578473448753357,
      -0.1528090387582779,
      0.5190854668617249,
      0.26667067408561707,
      0.5079474449157715,
      0.2177877575159073,
      -0.43362903594970703,
      -0.8581411242485046,
      -0.0974426418542862,
      -0.5450117588043213,
      -1.5595462322235107,
      -0.01867119036614895,
      1.1929428577423096,
      0.10503219813108444,
      1.1191062927246094,
      0.6471179723739624,
      0.3213704526424408,
      0.8566070199012756,
      0.6777100563049316,
      -0.010968503542244434,
      0.5382420420646667,
      0.9440804123878479,
      0.6706492900848389,
      1.0201605558395386,
      0.3871479332447052,
      -0.12405353039503098,
      0.6804047226905823,
      -0.227866068482399,
      0.03476160019636154,
      -0.062417611479759216,
      0.6360458731651306,
      0.406241238117218,
      0.8281784057617188,
      0.8820427060127258,
      0.6740639209747314,
      0.751552939414978,
      0.8317437171936035,
      0.4407711625099182,
      1.1438603401184082,
      0.6734744310379028,
      0.3816949129104614,
      0.8393035531044006,
      0.6448129415512085,
      0.3953591287136078,
      0.26590102910995483,
      -0.05801451578736305,
      0.19987230002880096,
      -0.6153205037117004,
      0.48909029364585876,
      -0.13867153227329254,
      0.12030970305204391,
      0.49391525983810425,
      0.3479122519493103,
      0.4306584298610687,
      0.06307695806026459,
      -0.18196018040180206,
      -0.03798208758234978,
      -0.2060687094926834,
      -0.2543860673904419,
      0.23352110385894775,
      -0.052798546850681305,
      0.8266142010688782,
      0.5295313000679016,
      0.08321090042591095,
      0.8377798199653625,
      -0.3274860680103302,
      0.5529375672340393,
      0.2558332681655884,
      0.37676435708999634,
      0.18108655512332916,
      0.256307989358902,
      0.3594219386577606,
      0.009776140563189983,
      0.2964130938053131,
      0.010253110900521278,
      -0.19533982872962952,
      0.2933703660964966,
      -0.18568843603134155,
      0.6119802594184875,
      -0.09650597721338272,
      -0.11497531086206436,
      0.41249266266822815,
      -0.06661337614059448,
      -0.2835002541542053,
      0.2415844053030014,
      0.009051275439560413,
      0.10362162441015244,
      0.4782216548919678,
      0.023229608312249184,
      0.35627424716949463,
      -0.1193275973200798,
      -0.035022538155317307,
      0.020228367298841476,
      0.17561958730220795,
      0.13576321303844452,
      0.39053022861480713,
      -0.7009788155555725,
      0.22670838236808777,
      -0.42116203904151917,
      -0.1855923980474472,
      -0.04882590472698212,
      -0.13330034911632538,
      0.530879557132721,
      0.020759515464305878,
      0.3760651648044586,
      0.45040956139564514,
      0.2305256426334381,
      0.4924711585044861,
      0.10648225992918015,
      -0.058182623237371445,
      -0.04690616577863693,
      0.3801868259906769,
      0.05130534991621971,
      0.2817835211753845,
      0.05193440243601799,
      -0.25675585865974426,
      0.06962358951568604,
      -0.051350224763154984,
      0.3155921697616577,
      -0.16456405818462372,
      -0.1254710704088211,
      0.10378758609294891,
      -0.17533878982067108,
      0.4818248748779297,
      0.004148887004703283,
      0.40410786867141724,
      0.46722525358200073,
      0.3027329444885254,
      0.10720295459032059,
      -0.347307413816452,
      -0.7366117238998413,
      0.00988910160958767,
      -0.12076256424188614,
      0.37495285272598267,
      0.2004793882369995,
      -0.0700392797589302,
      0.11162658035755157,
      0.029954329133033752,
      0.17656230926513672,
      0.3414638638496399,
      0.0033738191705197096,
      2.0043678283691406,
      2.18574595451355,
      0.699962854385376,
      1.5347633361816406,
      2.3968677520751953,
      0.7931951284408569,
      -2.568869113922119,
      1.4370547533035278,
      -2.4771735668182373,
      0.18828514218330383,
      -0.5265675187110901,
      0.19549867510795593,
      -0.12101000547409058,
      0.6180719137191772,
      -0.2580758035182953,
      0.2149474322795868,
      -0.014891964383423328,
      -0.06289657950401306,
      1.0486961603164673,
      1.076424479484558,
      0.4648649990558624,
      0.6791035532951355,
      1.3275270462036133,
      0.7697854042053223,
      -1.8736554384231567,
      -2.6124093532562256,
      -2.0022025108337402,
      -1.5658832788467407,
      -0.2422051578760147,
      0.5321033000946045,
      -0.15879833698272705,
      0.24808761477470398,
      0.04275232180953026,
      -0.15889205038547516,
      -0.1690559834241867,
      -0.06978458911180496,
      1.258019208908081,
      0.5939432382583618,
      0.8733730316162109,
      1.8512662649154663,
      2.038916826248169,
      0.7777073383331299,
      1.009132981300354,
      -1.2975811958312988,
