{
  "board_height": 23,
  "board_width": 42,
  "conv1": {
    "bias": [
      -0.05454402044415474,
      -0.10348062962293625,
      -0.05772954970598221,
      -0.08643854409456253,
      -0.01467018760740757,
      -0.05955168977379799,
      -0.20601892471313477,
      -0.06797213852405548,
      -0.07309597730636597,
      -0.06558222323656082,
      0.021250968798995018,
      -0.08745429664850235
    ],
    "in_channels": 19,
    "kernel_size": 3,
    "out_channels": 12,
    "weights": [
      -0.03309228643774986,
      0.08596795797348022,
      -0.04025864973664284,
      -0.017905615270137787,
      0.018991149961948395,
      -0.061853423714637756,
      -0.05783179774880409,
      0.03258870542049408,
      0.031679797917604446,
      0.05400384962558746,
      0.11453576385974884,
      0.12880052626132965,
      0.15649133920669556,
      0.04668288305401802,
      0.15404605865478516,
      0.04874558746814728,
      0.12606020271778107,
      0.078175850212574,
      -0.5789328813552856,
      0.3231523036956787,
      -0.41696301102638245,
      -0.40115320682525635,
      0.2748778462409973,
      -0.12784883379936218,
      -0.10603342205286026,
      0.16491635143756866,
      -0.013617781922221184,
      0.06393463164567947,
      -0.42855873703956604,
      0.022414106875658035,
      0.8333764672279358,
      -0.541074275970459,
      0.6932358145713806,
      0.15145952999591827,
      -0.16757403314113617,
      0.06330829858779907,
      -0.9262647032737732,
      0.15765565633773804,
      -0.7141242623329163,
      -0.6139589548110962,
      0.23904260993003845,
      -0.7526037693023682,
      -0.5891496539115906,
      0.15101876854896545,
      -0.756091833114624,
      -1.0479440689086914,
      1.3068369626998901,
      -0.8247514963150024,
      -0.47742176055908203,
      1.1077847480773926,
      0.9880446791648865,
      0.8493301868438721,
      1.0695289373397827,
      0.9530404806137085,
      -1.3924578428268433,
      0.9478002786636353,
      -1.405186653137207,
      -1.3849319219589233,
      0.8835939764976501,
      -1.6577016115188599,
      -1.0815168619155884,
      0.689653217792511,
      -0.3104802370071411,
      0.43190449476242065,
      0.37763187289237976,
      0.38956815004348755,
      0.5350189805030823,
      0.07275006175041199,
      0.693580687046051,
      0.5896912813186646,
      0.3118464946746826,
      0.6159924864768982,
      -0.5996155738830566,
      0.4127928912639618,
      -0.9502418041229248,
      -0.695536196231842,
      0.42038002610206604,
      -1.0351330041885376,
      -0.3931942284107208,
      0.24586112797260284,
      -0.5679165124893188,
      1.1658310890197754,
      -0.761441171169281,
      0.7629693150520325,
      0.8876917362213135,
      -0.5197898149490356,
      0.5346406102180481,
      0.16588354110717773,
      -0.20268340408802032,
      0.07362177222967148,
      -0.6256723999977112,
      -0.012333455495536327,
      -0.35464897751808167,
      -0.7867193222045898,
      -0.007983687333762646,
      -0.6219165921211243,
      -0.4300615191459656,
      0.10066275298595428,
      -0.3295602798461914,
      -0.3256166875362396,
      0.02884294092655182,
      0.2688828706741333,
      0.037526246160268784,
      -0.04996631294488907,
      0.0819462388753891,
      0.11881507188081741,
      -0.14891654253005981,
      0.06101465970277786,
      -0.10518297553062439,
      -0.32041436433792114,
      0.0492870919406414,
      0.05718240514397621,
      -0.25340771675109863,
      0.061962079256772995,
      -0.039275966584682465,
      -0.2738664150238037,
      0.11477429419755936,
      -0.9039340019226074,
      0.9796704649925232,
      -0.5502322316169739,
      -0.798499584197998,
      1.0027658939361572,
      -0.2967000901699066,
      0.4398188591003418,
      0.8326637744903564,
      0.41392773389816284,
      -1.032074213027954,
      0.3643387258052826,
      -0.5900460481643677,
      -1.0177292823791504,
      0.3557613790035248,
      -0.8255513310432434,
      -1.0248535871505737,
      0.34909918904304504,
      -0.800801694393158,
      -0.41370129585266113,
      0.2238234281539917,
      -0.3507797420024872,
      0.2999582290649414,
      0.0639556497335434,
      0.014784959144890308,
      0.3700580596923828,
      0.12781324982643127,
      0.2731402516365051,
      -0.5374509692192078,
      0.06131397560238838,
      -0.31255391240119934,
      -0.38581186532974243,
      0.06615491956472397,
      -0.34762147068977356,
      -0.22239403426647186,
      0.000486007280414924,
      -0.21046210825443268,
      0.13453011214733124,
      -0.008338076062500477,
      -0.27292799949645996,
      0.30956369638442993,
      -0.1498759686946869,
      0.2867458164691925,
      0.18780142068862915,
      -0.049324795603752136,
      -0.04095588997006416,
      -0.09984591603279114,
      -0.4381346106529236,
      -0.08243074268102646,
      0.13316190242767334,
      -0.12210560590028763,
      0.041746824979782104,
      0.09041322022676468,
      -0.24057887494564056,
      -0.13993504643440247,
      -0.018419625237584114,
      -0.11223100870847702,
      0.03383577615022659,
      -0.008640527725219727,
      -0.18074268102645874,
      0.00016678388055879623,
      0.056046221405267715,
      0.03732563927769661,
      0.0034579152707010508,
      -0.09079208970069885,
      0.15704002976417542,
      0.04473022744059563,
      -0.09547801315784454,
      0.19546829164028168,
      0.038469307124614716,
      -0.3874110281467438,
      -0.09568383544683456,
      -0.4177761971950531,
      -0.15192103385925293,
      0.03330669179558754,
      -0.16507788002490997,
      -0.06597258895635605,
      0.12333007901906967,
      -0.1499156653881073,
      0.01014012936502695,
      -0.07055658847093582,
      -0.0311219971626997,
      -0.7687404155731201,
      1.3627578020095825,
      -0.7429651618003845,
      -0.4904435873031616,
      1.4858201742172241,
      -0.4944417178630829,
      0.12771905958652496,
      0.8981476426124573,
      0.030755938962101936,
      -0.9403672814369202,
      0.16933101415634155,
      -0.7502659559249878,
      -0.6252300143241882,
      0.29978689551353455,
      -0.5921154618263245,
      -0.7915653586387634,
      0.023974573239684105,
      -0.7879939675331116,
      -0.5156234502792358,
      0.7789168953895569,
      -0.44577687978744507,
      -0.37308990955352783,
      0.8332578539848328,
      -0.3637634813785553,
      0.16741612553596497,
      0.5744801163673401,
      0.16173455119132996,
      -0.6567655801773071,
      0.0056332796812057495,
      -0.47407904267311096,
      -0.3944021463394165,
      0.15566091239452362,
      -0.3220156133174896,
      -0.4799765944480896,
      -0.00811808928847313,
      -0.43527472019195557,
      -0.41643771529197693,
      1.0199975967407227,
      -0.6060054302215576,
      -0.43096479773521423,
      1.5028272867202759,
      -0.5905340909957886,
      0.013372765854001045,
      0.8936171531677246,
      0.12485838681459427,
      -0.9747606515884399,
      0.11318638920783997,
      -1.0240565538406372,
      -0.7999573945999146,
      0.11590085923671722,
      -0.670491099357605,
      -0.8225740194320679,
      0.05258389189839363,
      -0.7931423783302307,
      -0.6663146018981934,
      1.1980689764022827,
      -0.7362352013587952,
      -0.6063969135284424,
      1.8260681629180908,
      -0.6245691776275635,
      0.17015288770198822,
      1.1515696048736572,
      0.09474708139896393,
      -1.0629116296768188,
      0.08893055468797684,
      -0.9264829754829407,
      -0.7961225509643555,
      0.1528864949941635,
      -0.6582837700843811,
      -1.0052649974822998,
      0.09221961349248886,
      -1.0579078197479248,
      0.2879602313041687,
      -0.6650101542472839,
      0.48684224486351013,
      0.46787500381469727,
      -0.3980080187320709,
      0.3182237148284912,
      0.252486914396286,
      0.00634068064391613,
      0.17197267711162567,
      0.17354528605937958,
      -0.4511699974536896,
      0.3402785360813141,
      -0.06824880093336105,
      -0.4981679320335388,
      0.2274581789970398,
      -0.06474718451499939,
      -0.3291175365447998,
      0.010460862889885902,
      0.20184551179409027,
      0.17441344261169434,
      0.09406490623950958,
      0.09110280871391296,
      0.013861366547644138,
      0.07385509461164474,
      0.27039670944213867,
      -0.03341161832213402,
      0.12096410244703293,
      0.11570560932159424,
      -0.43237730860710144,
      0.29224005341529846,
      0.09938035160303116,
      -0.26840946078300476,
      0.18211767077445984,
      -0.024435175582766533,
      -0.1893339306116104,
      -0.02119291201233864,
      0.2532270848751068,
      0.3312930166721344,
      0.2728571891784668,
      0.18421366810798645,
      0.3933093547821045,
      0.28170639276504517,
      0.08900963515043259,
      0.35186874866485596,
      0.2684156596660614,
      -0.20979970693588257,
      -0.20877701044082642,
      -0.35992541909217834,
      -0.11485560983419418,
      -0.11247209459543228,
      -0.03860748931765556,
      -0.3099548816680908,
      -0.12519937753677368,
      -0.20031815767288208,
      0.33987730741500854,
      0.31540369987487793,
      0.2889196276664734,
      0.19550417363643646,
      0.23367317020893097,
      0.27353084087371826,
      0.1425032615661621,
      0.31352365016937256,
      0.18052498996257782,
      -0.2514655888080597,
      -0.20888404548168182,
      -0.0802573412656784,
      0.015484609641134739,
      -0.17198216915130615,
      -0.008116049692034721,
      -0.19994999468326569,
      -0.19123253226280212,
      -0.21761688590049744,
      0.034270383417606354,
      -0.27865347266197205,
      -0.021424511447548866,
      0.021714983507990837,
      -0.012048828415572643,
      0.04394252225756645,
      -0.0050391219556331635,
      0.03806924447417259,
      0.001723651890642941,
      0.09850942343473434,
      0.2035471796989441,
      0.09483608603477478,
      -0.3971577286720276,
      0.19559481739997864,
      0.11013823002576828,
      -0.4926029443740845,
      -0.25620418787002563,
      -0.050077442079782486,
      -0.12557557225227356,
      0.02581367827951908,
      -0.38509756326675415,
      -0.05300615727901459,
      0.11832022666931152,
      -0.13097049295902252,
      -0.014130680821835995,
      -0.005669167265295982,
      -0.08931808173656464,
      0.6800124645233154,
      0.3173917829990387,
      0.44382864236831665,
      0.09535730630159378,
      0.5782652497291565,
      -0.5456949472427368,
      -0.030376972630620003,
      0.5173401832580566,
      0.04858299717307091,
      0.058454301208257675,
      -0.7401988506317139,
      -0.36028963327407837,
      0.09593982994556427,
      -0.05669352039694786,
      -0.024391569197177887,
      -0.06811018288135529,
      -0.11918371915817261,
      -0.608505368232727,
      -1.2955541610717773,
      0.9127711653709412,
      -1.07199227809906,
      -0.2751066982746124,
      1.0605442523956299,
      -0.8355782628059387,
      0.5492575168609619,
      0.8854554295539856,
      -0.35716962814331055,
      -1.1154266595840454,
      0.6001546382904053,
      -0.9604233503341675,
      -0.8792747259140015,
      0.3293110728263855,
      -0.6108047962188721,
      -0.8103662729263306,
      0.30531078577041626,
      -0.9141150116920471,
      0.4266963601112366,
      -0.5269443392753601,
      -0.3056946098804474,
      0.48698240518569946,
      0.8012295365333557,
      -0.4777306318283081,
      0.09109991788864136,
      0.6374934315681458,
      0.313445508480072,
      -0.23216287791728973,
      -0.7249447107315063,
      -0.12807688117027283,
      -0.2326885163784027,
      -0.6467993855476379,
      -0.38225245475769043,
      -0.0981353223323822,
      -0.04879914969205856,
      -0.6533648371696472,
      -0.45660170912742615,
      1.2142462730407715,
      -0.5870662331581116,
      -0.3781188130378723,
      1.0876481533050537,
      -0.7046138644218445,
      0.12528015673160553,
      0.6177738904953003,
      0.13517475128173828,
      -0.4816509783267975,
      -0.01206576731055975,
      -0.9312100410461426,
      -0.4806486964225769,
      0.01668000966310501,
      -0.3635979890823364,
      -0.6699361801147461,
      -0.056894827634096146,
      -0.6790888905525208,
      -0.4950513541698456,
      0.4536093771457672,
      -0.519971489906311,
      0.14456811547279358,
      0.3650781214237213,
      -0.0029864117968827486,
      0.13979803025722504,
      0.3890800476074219,
      -0.04841099679470062,
      -0.4206436574459076,
      0.17660866677761078,
      -0.4860384464263916,
      -0.4483878016471863,
      0.042435985058546066,
      -0.6075077056884766,
      -0.4934506118297577,
      -0.06826943159103394,
      -0.4975915253162384,
      -0.3726656436920166,
      0.4895237386226654,
      -0.8619208931922913,
      -0.040124326944351196,
      0.5754123330116272,
      -0.6410854458808899,
      0.25535154342651367,
      0.5961182713508606,
      -0.05807112529873848,
      -0.7635401487350464,
      0.2807207405567169,
      -0.5263769030570984,
      -0.6449992060661316,
      0.1719551682472229,
      -0.6978853940963745,
      -0.6542026400566101,
      0.15591952204704285,
      -0.9336884021759033,
      0.09898676723241806,
      0.22349992394447327,
      0.0031717070378363132,
      0.051075078547000885,
      0.24860481917858124,
      0.0036229274701327085,
      0.13214172422885895,
      0.24058398604393005,
      -0.04793607443571091,
      0.14005546271800995,
      -0.5296822190284729,
      -0.2021389603614807,
      -0.13346564769744873,
      -0.025505850091576576,
      -0.2772216200828552,
      -0.17219328880310059,
      0.08510826528072357,
      -0.3119280934333801,
      0.4634294807910919,
      -0.09117328375577927,
      0.33791205286979675,
      0.18795184791088104,
      -0.5304443836212158,
      0.39263665676116943,
      0.06962664425373077,
      -0.09683343768119812,
      0.34527984261512756,
      0.1104884222149849,
      -0.2810378670692444,
      0.022481203079223633,
      0.13092048466205597,
      -0.5509704351425171,
      0.11353401094675064,
      0.05996648967266083,
      -0.5858420133590698,
      0.036420177668333054,
      -0.1646077036857605,
      0.18404975533485413,
      -0.21718521416187286,
      -0.23063474893569946,
      0.02763570100069046,
      -0.22273054718971252,
      -0.054488763213157654,
      -0.03018398955464363,
      -0.08679472655057907,
      0.07370734214782715,
      0.23363715410232544,
      0.13565510511398315,
      -0.062385495752096176,
      0.12189280986785889,
      -0.07490101456642151,
      -0.23257072269916534,
      -0.25655218958854675,
      -0.22974146902561188,
      -0.07055612653493881,
      -0.16874118149280548,
      -0.00631733750924468,
      0.127627432346344,
      -0.09605950862169266,
      0.06897898763418198,
      0.07719100266695023,
      0.014080848544836044,
      0.10126036405563354,
      0.1581038236618042,
      -0.25343501567840576,
      0.5737953782081604,
      0.5758885145187378,
      -0.2852616608142853,
      0.5572741031646729,
      0.5746248960494995,
      0.42788150906562805,
      0.5043674111366272,
      -0.5270805954933167,
      0.08617251366376877,
      -0.3348536193370819,
      -0.5761591792106628,
      -0.14351819455623627,
      -0.07264858484268188,
      -0.20891503989696503,
      -0.5611785054206848,
      -0.12943966686725616,
      0.5719075798988342,
      -0.01948423497378826,
      0.8098629117012024,
      0.7377330660820007,
      -0.4845599830150604,
      0.8751651048660278,
      0.7299389839172363,
      -0.08787092566490173,
      0.6935727596282959,
      -0.33274170756340027,
      -0.4599866569042206,
      -0.5084721446037292,
      0.007403944618999958,
      -0.5275363922119141,
      0.1428491771221161,
      0.18920642137527466,
      -0.7376614809036255,
      0.2753888666629791,
      0.26709648966789246,
      -0.23797661066055298,
      0.5304510593414307,
      0.4090297818183899,
      -0.42816388607025146,
      0.6780082583427429,
      0.4885278642177582,
      0.1067805215716362,
      0.5466943383216858,
      -0.0912545919418335,
      -0.5132334232330322,
      -0.2362929880619049,
      -0.14811089634895325,
      -0.4333766996860504,
      -0.08230438828468323,
      -0.07202687114477158,
      -0.5413065552711487,
      -0.016520120203495026,
      0.44315990805625916,
      -0.2695273756980896,
      0.5115377306938171,
      0.6158133745193481,
      -0.3783097565174103,
      0.617915153503418,
      0.5447922945022583,
      0.05416961386799812,
      0.513626217842102,
      -0.0672922134399414,
      -0.3899177312850952,
      -0.22497373819351196,
      -0.029238130897283554,
      -0.40118303894996643,
      0.06990144401788712,
      0.023451628163456917,
      -0.28451797366142273,
      -0.07464884966611862,
      0.40290671586990356,
      -0.34208106994628906,
      0.31101685762405396,
      0.24456243216991425,
      -0.6795424222946167,
      0.1856204718351364,
      0.22632646560668945,
      0.006733113434165716,
      0.34151241183280945,
      -0.25805050134658813,
      0.09397546947002411,
      -0.3615338206291199,
      -0.07990923523902893,
      -0.46936148405075073,
      -0.0644063800573349,
      -0.07089636474847794,
      -0.5260632634162903,
      -0.008026964962482452,
      0.5473164319992065,
      -0.025765692815184593,
      -0.09564708173274994,
      0.4642437994480133,
      0.23615151643753052,
      0.3593810796737671,
      0.3014514148235321,
      -0.015100969932973385,
      0.4525778889656067,
      -0.4217369556427002,
      0.16222070157527924,
      -0.32919618487358093,
      -0.0434843935072422,
      -0.12073931843042374,
      -0.3440954387187958,
      0.10872931778430939,
      -0.3144613802433014,
      0.023262424394488335,
      0.15387952327728271,
      -0.2182784080505371,
      0.11463102698326111,
      0.18259693682193756,
      0.2000272274017334,
      0.28289473056793213,
      0.3479750454425812,
      0.21545813977718353,
      0.3309793770313263,
      -0.1450091153383255,
      0.13224565982818604,
      -0.11451102793216705,
      -0.39615678787231445,
      0.10793884098529816,
      -0.27945148944854736,
      -0.11518703401088715,
      -0.18095552921295166,
      -0.10291509330272675,
      0.17062431573867798,
      -0.31848013401031494,
      0.17183473706245422,
      0.0834336057305336,
      -0.44760531187057495,
      0.20754489302635193,
      0.21183402836322784,
      0.055979158729314804,
      0.31072837114334106,
      -0.012539897114038467,
      -0.4521697163581848,
      -0.05207880213856697,
      -0.17235781252384186,
      -0.3942497968673706,
      -0.021773256361484528,
      -0.21893957257270813,
      -0.42270466685295105,
      -0.09470498561859131,
      -0.002407761989161372,
      -0.15408021211624146,
      0.06951791048049927,
      -0.0217924565076828,
      -0.6444544792175293,
      -0.014258208684623241,
      -0.027383403852581978,
      -0.004121331963688135,
      -0.018048476427793503,
      0.15947894752025604,
      0.08292883634567261,
      0.10936682671308517,
      0.16832347214221954,
      0.1860695332288742,
      -0.5305490493774414,
      0.057969748973846436,
      0.12324846535921097,
      -0.6394772529602051,
      -0.2694043517112732,
      -0.049141574651002884,
      -0.023741407319903374,
      -0.4525829553604126,
      0.10121467709541321,
      0.003907494246959686,
      -0.04551834240555763,
      0.0662183091044426,
      -0.017075475305318832,
      0.3073370158672333,
      0.6375531554222107,
      0.7483002543449402,
      0.46247929334640503,
      0.6585192680358887,
      0.41067925095558167,
      0.273529052734375,
      0.512506365776062,
      0.18683968484401703,
      -0.1731199473142624,
      -0.777621865272522,
      -0.48917508125305176,
      -0.5317585468292236,
      -0.12679030001163483,
      -0.013693729415535927,
      -0.5155160427093506,
      -0.10658863931894302,
      -0.1062660813331604,
      -0.1913451999425888,
      0.7585923075675964,
      0.03298806771636009,
      -0.35302114486694336,
      0.8286165595054626,
      -0.00021922569430898875,
      0.13992086052894592,
      0.6272981762886047,
      0.34096261858940125,
      -0.39712050557136536,
      -0.23336006700992584,
      -0.444943904876709,
      -0.3549303114414215,
      0.0744801014661789,
      -0.4337461292743683,
      -0.6000445485115051,
      0.046332359313964844,
      -0.5819652676582336,
      -0.3813868463039398,
      0.7155410051345825,
      0.1795314997434616,
      -0.27350953221321106,
      0.9274135828018188,
      0.1945238560438156,
      0.05025947093963623,
      0.6484578847885132,
      0.029911814257502556,
      -0.61988765001297,
      -0.1362573355436325,
      -0.6183059215545654,
      -0.6483863592147827,
      -0.09957664459943771,
      -0.3992103934288025,
      -0.6624945998191833,
      -0.06200278922915459,
      -0.6257656812667847,
      -0.03039655275642872,
      0.7967798709869385,
      0.11297852545976639,
      -0.37194785475730896,
      0.964608371257782,
      0.05025310814380646,
      0.0547521710395813,
      0.6097970008850098,
      0.08764469623565674,
      -0.536576509475708,
      0.005782241467386484,
      -0.5261573791503906,
      -0.4284747540950775,
      -0.058117762207984924,
      -0.48601430654525757,
      -0.6213399171829224,
      -0.0650765597820282,
      -0.5771903991699219,
      -0.004448891617357731,
      0.20828405022621155,
      0.12383705377578735,
      -0.5207083225250244,
      0.12324920296669006,
      0.04259110987186432,
      -0.18642905354499817,
      0.3608821928501129,
      0.06441828608512878,
      0.18757791817188263,
      -0.4217510521411896,
      0.041045207530260086,
      -0.19191394746303558,
      -0.09856110066175461,
      -0.018631404265761375,
      -0.5622422099113464,
      -0.039880476891994476,
      -0.13146516680717468,
      -0.31420835852622986,
      -0.02808505669236183,
      0.09531175345182419,
      -0.022447843104600906,
      0.21366482973098755,
      0.052515365183353424,
      -0.16215740144252777,
      0.41369348764419556,
      0.04754893481731415,
      -0.24786277115345,
      -0.21167056262493134,
      0.06063803657889366,
      -0.22952887415885925,
      -0.2578475773334503,
      -0.012976023368537426,
      -0.2133425623178482,
      0.009145664051175117,
      -0.21983180940151215,
      -0.2172984778881073,
      0.28740888833999634,
      0.2567705810070038,
      -0.6020376086235046,
      0.31112366914749146,
      0.17546434700489044,
      0.06221543252468109,
      0.531387209892273,
      0.17751798033714294,
      -0.1222490593791008,
      0.07901499420404434,
      -0.17984475195407867,
      -0.3514821529388428,
      0.07346358895301819,
      -0.2435315102338791,
      -0.712365984916687,
      0.11910416930913925,
      -0.36255717277526855,
      -0.33024242520332336,
      0.21561802923679352,
      0.08450538665056229,
      -0.5490727424621582,
      0.21315325796604156,
      0.14606419205665588,
      0.04883154481649399,
      0.4420527219772339,
      0.06404075026512146,
      -0.3411325514316559,
      0.03930908441543579,
      0.0277732964605093,
      -0.4117930233478546,
      -0.09747817367315292,
      0.020733961835503578,
      -0.7282105088233948,
      -0.12006703019142151,
      -0.2759779691696167,
      -0.03214162960648537,
      -0.05369957908987999,
      -0.0052499305456876755,
      -0.014356182888150215,
      0.0686689093708992,
      -0.04588831216096878,
      -0.052432913333177567,
      0.10500117391347885,
      -0.04350584000349045,
      0.05262982100248337,
      0.11166586726903915,
      0.09716983139514923,
      -0.00645220372825861,
      -0.010222145356237888,
      -0.04669644311070442,
      -0.0720609724521637,
      0.0010725370375439525,
      -0.0248516034334898,
      -0.542708158493042,
      0.12632495164871216,
      -0.1761343628168106,
      -0.041887398809194565,
      0.218817338347435,
      0.06222208961844444,
      0.10524303466081619,
      0.156101793050766,
      0.04506430774927139,
      -0.04379721358418465,
      -0.3213086426258087,
      -0.05352494865655899,
      0.5915468335151672,
      -0.26893505454063416,
      0.7546742558479309,
      -0.07168547064065933,
      -0.30050259828567505,
      0.02275269851088524,
      -0.3332657217979431,
      -0.19106201827526093,
      -0.5966861248016357,
      -0.1623356193304062,
      0.013659426011145115,
      -0.5206604599952698,
      -0.5939962863922119,
      -0.17013561725616455,
      -0.8509930372238159,
      -0.6507420539855957,
      1.4428890943527222,
      1.1393824815750122,
      1.2847627401351929,
      1.4151591062545776,
      1.1816960573196411,
      1.090797781944275,
      1.0949143171310425,
      0.9469226002693176,
      -1.206852912902832,
      0.4228689670562744,
      -1.2065678834915161,
      -1.3194668292999268,
      0.2611556351184845,
      -0.3659433424472809,
      -0.17572049796581268,
      0.1961219757795334,
      0.14399270713329315,
      0.10415355116128922,
      0.16198046505451202,
      -0.351546972990036,
      0.7659311294555664,
      0.8398604989051819,
      0.724583089351654,
      0.4343024492263794,
      0.42452239990234375,
      0.324860155582428,
      0.008093154057860374,
      -0.8225770592689514,
      -0.18499386310577393,
      -0.12887920439243317,
      0.009881168603897095,
      -0.1809026002883911,
      -0.10963534563779831,
      -0.14031581580638885,
      -0.22202762961387634,
      0.02818540669977665,
      -0.7827132344245911,
      -0.2155551165342331,
      1.1789714097976685,
      -0.4668704867362976,
      0.8466981649398804,
      -0.046841830015182495,
      -0.41139501333236694,
      0.021970270201563835,
      -0.7473133206367493,
      -0.2630525231361389,
      -0.5856920480728149,
      -0.3307953476905823,
      0.13175560534000397,
      -0.1213064193725586,
      -1.181969165802002,
      0.029844949021935463,
      -0.8961721658706665,
      -0.08319978415966034,
      -0.25550562143325806,
      0.062039565294981,
      0.12181556969881058,
      0.015156511217355728,
      -0.020724844187498093,
      -0.01925894431769848,
      -0.14804810285568237,
      -0.17354264855384827,
      -0.042969003319740295,
      -0.22257092595100403,
      0.04239095002412796,
      -0.05342549458146095,
      -0.15789087116718292,
      0.0893893763422966,
      -0.12373166531324387,
      -0.36769041419029236,
      -0.03192416951060295,
      -1.0167510509490967,
      1.2998838424682617,
      -1.0592780113220215,
      -0.0295677799731493,
      1.284305214881897,
      -0.21295666694641113,
      0.5581281185150146,
      0.8339587450027466,
      0.4966224431991577,
      -1.2248649597167969,
      0.4818733036518097,
      -1.105312466621399,
      -1.2373874187469482,
      0.31218311190605164,
      -1.3300838470458984,
      -0.8573719263076782,
      0.17332719266414642,
      -0.9685521721839905,
      -0.545713484287262,
      0.4212595820426941,
      -0.5757735967636108,
      0.10702195763587952,
      0.31752562522888184,
      -0.011117362417280674,
      0.37354379892349243,
      0.230534166097641,
      0.3194738030433655,
      -0.72735995054245,
      0.288981169462204,
      -0.766854465007782,
      -0.6100665926933289,
      0.23031876981258392,
      -0.6476132869720459,
      -0.5873866081237793,
      0.15264678001403809,
      -0.5270270705223083,
      -0.08702006191015244,
      -0.08158399164676666,
      -0.1737292855978012,
      0.06654201447963715,
      -0.2123693972826004,
      0.26670658588409424,
      -0.0014498584205284715,
      -0.13080331683158875,
      -0.08556193858385086,
      -0.4268629550933838,
      -0.048098672181367874,
      -0.27800068259239197,
      -0.10927369445562363,
      -0.08505814522504807,
      -0.10431685298681259,
      -0.04554613679647446,
      -0.15267638862133026,
      -0.3308941721916199,
      -0.002620227634906769,
      0.11130772531032562,
      -0.001900997362099588,
      -0.2880033254623413,
      -0.10140500962734222,
      -0.2559477388858795,
      -0.05185728520154953,
      -0.06198589876294136,
      -0.01702520251274109,
      -0.10600604861974716,
      0.07408122718334198,
      -0.09541352093219757,
      0.0614037923514843,
      0.10384668409824371,
      -0.035576093941926956,
      -0.0573284886777401,
      0.12782996892929077,
      -0.013825622387230396,
      0.015473906882107258,
      -0.0625639259815216,
      0.0776234120130539,
      0.17608441412448883,
      0.07473666965961456,
      0.1913774609565735,
      0.09887275099754333,
      0.0003127765958197415,
      0.043930985033512115,
      0.7994263172149658,
      -0.28762689232826233,
      0.7964809536933899,
      0.997687041759491,
      -0.5244030356407166,
      0.8750723004341125,
      0.7306409478187561,
      -0.39884379506111145,
      0.7130092978477478,
      -0.4805178642272949,
      -0.6746301054954529,
      -0.5411034822463989,
      0.09636195003986359,
      -0.3093816339969635,
      0.20448757708072662,
      0.29093971848487854,
      -0.39371779561042786,
      0.20850864052772522,
      0.3295092284679413,
      0.6525209546089172,
      -0.38128960132598877,
      0.06918929517269135,
      0.7396913170814514,
      -0.6181209683418274,
      -0.21308159828186035,
      -0.07660079747438431,
      -0.43621543049812317,
      -0.08191533386707306,
      -0.5456542372703552,
      -0.09216918796300888,
      -0.050879742950201035,
      0.0947716236114502,
      -0.3196384608745575,
      -0.11243902146816254,
      0.14512386918067932,
      -0.44598397612571716,
      0.7801803350448608,
      0.4642127454280853,
      0.9381394386291504,
      0.5677081942558289,
      -0.5231342911720276,
      0.7682700753211975,
      0.48012083768844604,
      -0.031148675829172134,
      0.6013069152832031,
      -0.18509997427463531,
      -0.8060279488563538,
      -0.5386655330657959,
      0.22718873620033264,
      -0.035257838666439056,
      0.26330092549324036,
      -0.018505321815609932,
      -0.2901388704776764,
      0.07730619609355927,
      0.9819797873497009,
      -0.18035352230072021,
      1.2058933973312378,
      1.037277102470398,
      -0.7736037969589233,
      1.143229365348816,
      0.8629981875419617,
      -0.5296130180358887,
      0.9682741165161133,
      -0.5163355469703674,
      -0.9681639075279236,
      -0.5173901319503784,
      0.2413601279258728,
      -0.4183025658130646,
      0.1851966381072998,
      0.2995459735393524,
      -0.47031816840171814,
      0.2863048017024994,
      0.46447113156318665,
      0.25275522470474243,
      0.32455146312713623,
      0.2202363908290863,
      0.2885795831680298,
      -0.010418690741062164,
      0.2873087525367737,
      0.13473594188690186,
      0.043708477169275284,
      -0.16253139078617096,
      0.118238665163517,
      -0.07398761808872223,
      -0.03486243262887001,
      0.029598776251077652,
      -0.1601455807685852,
      -0.13990390300750732,
      -0.015514897182583809,
      -0.07019555568695068,
      -0.5039100646972656,
      0.5363308191299438,
      -0.16283191740512848,
      0.19886928796768188,
      0.5557014346122742,
      -0.06133819371461868,
      0.045956067740917206,
      0.19194644689559937,
      -0.8822338581085205,
      -0.03570862114429474,
      0.13990430533885956,
      -0.3574351370334625,
      -0.10320338606834412,
      0.1456890106201172,
      -0.34648722410202026,
      -0.17573608458042145,
      0.2244241088628769,
      -0.3547127842903137,
      0.3466978967189789,
      0.363544762134552,
      0.4032253921031952,
      0.22139495611190796,
      0.36415916681289673,
      0.12422806769609451,
      0.2955772280693054,
      0.2573803961277008,
      0.4900740385055542,
      -0.1134256049990654,
      0.15601596236228943,
      -0.19512595236301422,
      -0.19297845661640167,
      0.14781944453716278,
      -0.14887475967407227,
      -0.12295439094305038,
      0.013921651057898998,
      -0.12370210886001587,
      0.0019338324200361967,
      0.6863732933998108,
      -0.6494966745376587,
      0.2402999997138977,
      0.13311031460762024,
      0.10795503109693527,
      0.07474616169929504,
      0.2274959236383438,
      0.04109443724155426,
      -0.1006607860326767,
      0.14455008506774902,
      0.062084540724754333,
      -0.27455222606658936,
      0.17153288424015045,
      -0.20303186774253845,
      -0.1706966757774353,
      -0.07350233942270279,
      -0.5166159272193909,
      0.0638832151889801,
      -0.3811238408088684,
      0.07749833166599274,
      0.015581837855279446,
      -0.7013707160949707,
      0.0334019809961319,
      0.0481635220348835,
      0.0653735101222992,
      -0.003479559672996402,
      0.05743042752146721,
      0.1164243146777153,
      0.10894894599914551,
      0.078512042760849,
      0.21895913779735565,
      -0.24773339927196503,
      -0.275130957365036,
      0.11703935265541077,
      -0.5430488586425781,
      -0.39961639046669006,
      0.10105561465024948,
      -0.8035942316055298,
      -0.047329872846603394,
      0.0386483259499073,
      -0.804157555103302,
      -0.1166287511587143,
      0.05047635734081268,
      -0.025761835277080536,
      -0.03469201922416687,
      0.6686131954193115,
      -0.6994409561157227,
      0.14168637990951538,
      1.1261807680130005,
      -0.6785743832588196,
      0.2346893846988678,
      0.7664351463317871,
      -0.21956461668014526,
      -0.41021618247032166,
      -0.24986959993839264,
      -0.6215558052062988,
      -0.5110195279121399,
      -0.11457090824842453,
      -0.6356009840965271,
      -0.7125435471534729,
      -0.10977885127067566,
      -0.83540278673172,
      -1.0602113008499146,
      0.8207958936691284,
      -1.0744717121124268,
      -0.8922580480575562,
      0.9108638167381287,
      -0.9125999808311462,
      0.4142276346683502,
      1.1040116548538208,
      -0.28980034589767456,
      -0.9969339966773987,
      0.30139708518981934,
      -1.1585962772369385,
      -1.0582427978515625,
      0.5014862418174744,
      -1.1244288682937622,
      -1.0368342399597168,
      0.27393463253974915,
      -1.181977391242981,
      -0.6554521918296814,
      0.8234726786613464,
      -0.9739300012588501,
      -0.5169124603271484,
      1.2529652118682861,
      -0.7607333660125732,
      0.2904900312423706,
      0.983905553817749,
      -0.06888914853334427,
      -1.0087130069732666,
      0.28592947125434875,
      -1.0589261054992676,
      -0.8996655344963074,
      0.2882802486419678,
      -0.9444400668144226,
      -0.9714808464050293,
      0.16884154081344604,
      -1.0644813776016235,
      -0.46844482421875,
      0.595388650894165,
      -0.7754474878311157,
      -0.4980452060699463,
      1.2591623067855835,
      -0.8462592363357544,
      0.03860771283507347,
      0.8346804976463318,
      0.0854712501168251,
      -0.7890856266021729,
      -0.14314080774784088,
      -0.9190213084220886,
      -0.5702109336853027,
      -0.08203215152025223,
      -0.6623697280883789,
      -0.8810591101646423,
      0.04279270023107529,
      -0.911849856376648,
      -0.2983758747577667,
      0.5062175989151001,
      -0.6898351907730103,
      0.33628615736961365,
      0.47285178303718567,
      -0.7711284160614014,
      -0.031908173114061356,
      0.6833430528640747,
      -0.09239601343870163,
      -0.16292300820350647,
      -0.11625202745199203,
      -0.42091602087020874,
      -0.7345722317695618,
      0.009941169992089272,
      -0.6918180584907532,
      -0.5514529943466187,
      -0.08734311908483505,
      -0.8784782886505127,
      -0.16177180409431458,
      0.5857089757919312,
      -0.6893352270126343,
      0.051577068865299225,
      0.574852705001831,
      -0.7584949135780334,
      -0.026239296421408653,
      0.7038689851760864,
      0.006247416138648987,
      -0.6032905578613281,
      -0.1290488839149475,
      -0.4919949173927307,
      -0.746625542640686,
      0.2416945993900299,
      -0.9183225035667419,
      -0.5010662078857422,
      -0.0076865870505571365,
      -0.8817471861839294,
      0.40285104513168335,
      0.5843523740768433,
      -0.7837764620780945,
      0.310579776763916,
      0.5267345905303955,
      -0.7943829894065857,
      0.20032627880573273,
      0.6688823103904724,
      0.18261876702308655,
      -0.3265220522880554,
      -0.33456483483314514,
      -0.7476801872253418,
      -0.4783589243888855,
      0.04226793348789215,
      -0.7048282623291016,
      -0.5155004858970642,
      0.027544744312763214,
      -0.9284271001815796,
      -0.6065628528594971,
      0.27574029564857483,
      -0.6848869323730469,
      0.29219239950180054,
      0.3296121656894684,
      -0.7652339339256287,
      0.19201627373695374,
      0.5437212586402893,
      0.09111590683460236,
      -0.95026034116745,
      0.04880724102258682,
      -0.481851190328598,
      -0.7996644377708435,
      0.10976582765579224,
      -0.8255134224891663,
      -0.4883509874343872,
      -0.014771602116525173,
      -1.081384539604187,
      0.07074060291051865,
      -0.06469729542732239,
      0.023707188665866852,
      -0.04207754507660866,
      -0.08697227388620377,
      -0.05588299408555031,
      -0.06289293617010117,
      0.04122069105505943,
      0.06747441738843918,
      0.019755041226744652,
      0.15440377593040466,
      0.05872642248868942,
      -0.003465598449110985,
      0.015099351294338703,
      0.038330819457769394,
      -0.3063022494316101,
      -0.010140374302864075,
      -0.09171510487794876,
      -0.13083134591579437,
      0.14920976758003235,
      -0.004205089062452316,
      -0.1701430082321167,
      0.17280246317386627,
      0.1787385493516922,
      0.10857424885034561,
      0.10381484776735306,
      0.15713247656822205,
      0.05643574893474579,
      -0.017289817333221436,
      -0.11308175325393677,
      0.2312491536140442,
      0.07430198043584824,
      0.2059408575296402,
      -0.16816087067127228,
      -0.1202455386519432,
      -0.14076724648475647,
      0.05355319380760193,
      -0.17630872130393982,
      -0.287084698677063,
      0.2212887406349182,
      -0.212973490357399,
      -0.2811570465564728,
      -0.14037032425403595,
      -0.3215637803077698,
      -0.5983936786651611,
      0.19798880815505981,
      1.5557149648666382,
      1.2959307432174683,
      -0.2344101518392563,
      1.802817940711975,
      1.2230058908462524,
      1.163469910621643,
      1.1691193580627441,
      0.8056395649909973,
      -0.7488364577293396,
      -1.3451861143112183,
      -1.3774296045303345,
      -0.8677388429641724,
      -0.12680068612098694,
      -0.35235461592674255,
      -1.0941849946975708,
      0.29253336787223816,
      0.058124132454395294,
      -0.36898189783096313,
      0.9525288343429565,
      -0.36558905243873596,
      0.07528848201036453,
      0.872403621673584,
      0.45204946398735046,
      0.4219384789466858,
      0.49270230531692505,
      0.3030148148536682,
      -0.8291369676589966,
      0.15821166336536407,
      -0.7929668426513672,
      -0.6753372550010681,
      0.4235757291316986,
      -1.0547218322753906,
      -1.2192025184631348,
      0.3589586317539215,
      -0.5246099233627319,
      0.21967093646526337,
      -0.16561827063560486,
      0.05326710268855095,
      0.4280242621898651,
      0.07308415323495865,
      0.01594853587448597,
      -0.0335613489151001,
      -0.0331605039536953,
      -0.08778578042984009,
      -0.15820427238941193,
      -0.276260107755661,
      -0.2142268717288971,
      -0.03337610140442848,
      -0.09092764556407928,
      -0.2002786248922348,
      -0.28537073731422424,
      -0.2699243426322937,
      -0.289341002702713,
      -0.07077571749687195,
      -0.15001659095287323,
      -0.05165236443281174,
      0.12240259349346161,
      -0.1937260776758194,
      -0.1744997650384903,
      -0.04251905530691147,
      -0.1234189122915268,
      -0.2338678538799286,
      -0.10382159054279327,
      -0.11232860386371613,
      -0.028957700356841087,
      0.08018938452005386,
      -0.14882616698741913,
      -0.07388114184141159,
      -0.06517916917800903,
      -0.11986333876848221,
      -0.14356976747512817,
      -1.0031425952911377,
      1.2277350425720215,
      -0.8169788122177124,
      -0.5868044495582581,
      1.0555708408355713,
      0.504362165927887,
      0.43293848633766174,
      0.7397881746292114,
      0.5367181301116943,
      -1.2362641096115112,
      0.30240121483802795,
      -1.3224018812179565,
      -1.0926679372787476,
      0.23345673084259033,
      -1.2858206033706665,
      -1.0093365907669067,
      0.10466893762350082,
      -0.4496588110923767,
      0.08860485255718231,
      -0.2870841324329376,
      0.09527479857206345,
      0.24335525929927826,
      0.27431994676589966,
      0.03742307797074318,
      0.13173845410346985,
      0.2932756245136261,
      0.18144267797470093,
      0.12607300281524658,
      -0.4161573350429535,
      -0.05365736782550812,
      0.06476431339979172,
      -0.33918821811676025,
      -0.13886740803718567,
      -0.1415257453918457,
      -0.08983393758535385,
      -0.33349359035491943,
      0.03509090095758438,
      -0.10300251096487045,
      -0.032998889684677124,
      0.20203392207622528,
      -0.06713145226240158,
      -0.08752792328596115,
      -0.03492055460810661,
      -0.03741839528083801,
      -0.1148827075958252,
      -0.19377300143241882,
      -0.18440696597099304,
      -0.01722940057516098,
      0.055311169475317,
      -0.14727315306663513,
      -0.08564086258411407,
      -0.09653454273939133,
      -0.14606817066669464,
      -0.18219703435897827,
      -0.0343671478331089,
      -0.08508137613534927,
      0.03203587234020233,
      -0.09656792134046555,
      0.09835590422153473,
      -0.08467059582471848,
      0.009515131823718548,
      0.0510244220495224,
      0.0041757444851100445,
      0.11844532191753387,
      0.08833007514476776,
      0.12269946187734604,
      0.07299555838108063,
      0.05106813460588455,
      0.08408655226230621,
      0.03487470746040344,
      -0.038526635617017746,
      -0.020596640184521675,
      -0.6721293330192566,
      0.22560735046863556,
      -0.5620689392089844,
      -0.06365428864955902,
      0.2872697412967682,
      -0.02393573522567749,
      0.034056663513183594,
      0.17473916709423065,
      0.018344545736908913,
      0.3781631588935852,
      -0.2857944965362549,
      -0.07789122313261032,
      0.4629250168800354,
      0.29249444603919983,
      0.41022130846977234,
      0.013897496275603771,
      -0.1682479977607727,
      0.032834749668836594,
      -0.44467219710350037,
      -0.30001431703567505,
      0.047067295759916306,
      -0.1115967184305191,
      0.008041058667004108,
      -0.0046033598482608795,
      -0.39247721433639526,
      -0.5182321667671204,
      -0.3385201096534729,
      -1.196968674659729,
      1.603332757949829,
      -0.8518031239509583,
      1.1231191158294678,
      1.5014103651046753,
      1.2038161754608154,
      1.0099793672561646,
      1.0324604511260986,
      1.1365159749984741,
      -1.7159148454666138,
      1.185481309890747,
      -1.6094857454299927,
      -1.6317394971847534,
      0.8301928043365479,
      -1.7234073877334595,
      -0.3587415814399719,
      0.48782879114151,
      -0.38339293003082275,
      -0.5538164973258972,
      0.24254468083381653,
      -0.1640738993883133,
      0.7861403822898865,
      0.18444859981536865,
      1.1028788089752197,
      0.5863775610923767,
      0.19101081788539886,
      0.7652600407600403,
      -0.8541480898857117,
      0.4958566725254059,
      -1.119769811630249,
      -0.5783200263977051,
      0.5587277412414551,
      -0.8104017972946167,
      -0.5466348528862,
      0.40757909417152405,
      -0.6544004082679749,
      0.05214252322912216,
      -0.9015922546386719,
      0.1397155523300171,
      1.0352853536605835,
      -0.30814623832702637,
      0.9375336766242981,
      0.09853904694318771,
      -0.31901153922080994,
      0.1093030571937561,
      -0.804050862789154,
      -0.025280173867940903,
      -0.5739514231681824,
      -0.30610015988349915,
      0.19994807243347168,
      -0.28341203927993774,
      -0.9391589164733887,
      -0.005588596686720848,
      -0.8743817210197449,
      -0.17779769003391266,
      0.0784163847565651,
      -0.3612310588359833,
      0.056631218641996384,
      -0.06651882827281952,
      0.0031224398408085108,
      0.05417715758085251,
      -0.13677558302879333,
      0.0480080246925354,
      -0.5339704751968384,
      0.1294248104095459,
      -0.6575861573219299,
      -0.6353450417518616,
      -0.026552801951766014,
      -0.4032857418060303,
      -0.6674672365188599,
      -0.035132504999637604,
      -0.34695035219192505,
      0.09507597982883453,
      -0.2646649479866028,
      0.21279965341091156,
      0.8735665082931519,
      0.7044461965560913,
      0.817451000213623,
      0.6324639916419983,
      0.5962664484977722,
      0.6532904505729675,
      -0.005295412614941597,
      -0.6226111054420471,
      0.3091318607330322,
      -0.4876713156700134,
      -0.8875079154968262,
      -0.318964421749115,
      0.004566538147628307,
      -0.3993452489376068,
      -0.009512882679700851,
      -0.2396121472120285,
      0.25083237886428833,
      -0.41462135314941406,
      0.30538687109947205,
      0.16437265276908875,
      0.04244619607925415,
      0.29984259605407715,
      0.21226780116558075,
      0.36785757541656494,
      -0.23152616620063782,
      0.08286817371845245,
      -0.3649744987487793,
      -0.3189612329006195,
      0.07250519841909409,
      -0.4863370358943939,
      -0.1608591377735138,
      -0.03250234201550484,
      -0.3270721137523651,
      -0.04944389685988426,
      -0.10947812348604202,
      -0.06438193470239639,
      0.17117081582546234,
      -0.26159802079200745,
      0.2826693058013916,
      -0.057786889374256134,
      -0.11637456715106964,
      -0.04059634357690811,
      -0.2754657566547394,
      -0.04547125846147537,
      -0.16657249629497528,
      -0.026071656495332718,
      -0.0957978144288063,
      -0.01901600882411003,
      -0.07112478464841843,
      -0.15621548891067505,
      -0.3402521014213562,
      0.015058009885251522,
      0.06329527497291565,
      -0.07549697905778885,
      -0.03516644611954689,
      0.05663072690367699,
      -0.12114018201828003,
      -0.019380448386073112,
      -0.11034195870161057,
      -0.0037683886475861073,
      0.16601994633674622,
      0.14081144332885742,
      0.21427343785762787,
      0.09589437395334244,
      0.07536341995000839,
      0.11040550470352173,
      0.20965586602687836,
      0.1988351196050644,
      0.1264830082654953,
      0.14898020029067993,
      -0.04005008935928345,
      -0.05908561125397682,
      0.16978506743907928,
      0.020090121775865555,
      -0.0330815389752388,
      0.18090933561325073,
      0.061058785766363144,
      0.02820933423936367,
      0.28343087434768677,
      0.5178595185279846,
      0.5642643570899963,
      0.20287148654460907,
      0.34402114152908325,
      0.4788847863674164,
      0.19910603761672974,
      0.2802533507347107,
      0.47909078001976013,
      0.08889221400022507,
      0.23379021883010864,
      -0.6497704386711121,
      0.024198757484555244,
      0.13645602762699127,
      -0.7741003036499023,
      0.03856183588504791,
      0.10311892628669739,
      -0.5082662105560303,
      0.3560754358768463,
      0.5360317826271057,
      0.01920383796095848,
      0.3244810998439789,
      0.42523133754730225,
      0.6137979030609131,
      0.19521188735961914,
      0.23146727681159973,
      0.32654935121536255,
      0.03981830179691315,
      0.1142825335264206,
      -0.4155060350894928,
      0.09728199243545532,
      0.2394334077835083,
      -0.4619889557361603,
      0.14450253546237946,
      0.2543847858905792,
      -0.681818425655365,
      0.35458803176879883,
      0.566567063331604,
      0.5394920110702515,
      0.39052650332450867,
      0.4093843698501587,
      0.5266952514648438,
      0.2949967086315155,
      0.5252201557159424,
      0.4234803318977356,
      0.1016925647854805,
      0.13129815459251404,
      0.07321971654891968,
      0.08044438809156418,
      0.09679313749074936,
      0.10665380954742432,
      0.18234078586101532,
      0.13453012704849243,
      0.10573813319206238,
      -0.07911039143800735,
      0.46861687302589417,
      0.2736715078353882,
      0.2244439423084259,
      0.4252248704433441,
      0.2125702202320099,
      0.3144577145576477,
      0.40439173579216003,
      0.25956207513809204,
      0.16630837321281433,
      -0.5956859588623047,
      0.08633770793676376,
      0.07347550243139267,
      -0.5433222055435181,
      0.04969911277294159,
      0.0858910009264946,
      -0.2726096510887146,
      0.1204466000199318,
      0.11400814354419708,
      0.066105917096138,
      -0.13300032913684845,
      0.14456839859485626,
      0.07426873594522476,
      0.17174360156059265,
      0.16721823811531067,
      -0.048995718359947205,
      0.03306032717227936,
      -0.026427431032061577,
      0.13066309690475464,
      -0.529384434223175,
      -0.013724626041948795,
      0.12267036736011505,
      -0.35850581526756287,
      0.03854662552475929,
      0.13505695760250092,
      -0.13116063177585602,
      0.35303083062171936,
      -0.3301650285720825,
      0.39316269755363464,
      0.23837228119373322,
      0.2833801805973053,
      0.4133087992668152,
      0.13964031636714935,
      0.15793541073799133,
      0.23671704530715942,
      0.0568501241505146,
      -0.4624335765838623,
      0.10905041545629501,
      0.03139802813529968,
      -0.6184603571891785,
      0.19810418784618378,
      0.049522582441568375,
      -0.22242006659507751,
      0.15273623168468475,
      0.11809318512678146,
      0.21533973515033722,
      0.0868799090385437,
      0.05614496394991875,
      -0.24039119482040405,
      0.1611001342535019,
      -0.000883441127371043,
      0.2246231883764267,
      0.24427631497383118,
      0.011646091006696224,
      -0.36198997497558594,
      0.07126926630735397,
      -0.0873279795050621,
      -0.6396275162696838,
      0.0723610371351242,
      -0.0052293757908046246,
      -0.3760106563568115,
      0.12464066594839096,
      0.14410747587680817,
      -0.2542278468608856,
      0.4192259609699249,
      0.1056612879037857,
      0.2832814157009125,
      0.34996625781059265,
      0.1393774300813675,
      0.17640326917171478,
      0.13449381291866302,
      0.06281793862581253,
      -0.4555518627166748,
      -0.7865390777587891,
      0.04341555014252663,
      -0.33676519989967346,
      -0.32396721839904785,
      -0.010799121111631393,
      -0.16304491460323334,
      -0.4808342158794403,
      -0.06935484707355499,
      0.04415886104106903,
      0.05219830200076103,
      -0.010958343744277954,
      -0.08903837949037552,
      -0.008883715607225895,
      -0.03555510565638542,
      0.06332117319107056,
      0.0004756171547342092,
      0.16556425392627716,
      0.09198244661092758,
      -0.2807512879371643,
      0.030780069530010223,
      0.04457462951540947,
      -0.1339038610458374,
      -0.08073528856039047,
      -0.0783863514661789,
      0.08212387561798096,
      -0.0052865673787891865,
      0.16575685143470764,
      -0.046074919402599335,
      0.010020657442510128,
      0.09862915426492691,
      -0.005323686171323061,
      0.03568865731358528,
      -0.11309278011322021,
      0.0023960003163665533,
      -0.783940851688385,
      1.425807237625122,
      -0.9363991618156433,
      -0.6539875864982605,
      1.3533997535705566,
      -0.5135596990585327,
      0.16790390014648438,
      0.9185580611228943,
      0.1349431425333023,
      -0.8755928874015808,
      0.17802739143371582,
      -0.7166288495063782,
      -0.6273479461669922,
      0.33120396733283997,
      -0.5532478094100952,
      -0.7654316425323486,
      0.019230078905820847,
      -0.7579672336578369,
      -0.3852633237838745,
      0.712162435054779,
      -0.40471184253692627,
      -0.32575157284736633,
      0.5779357552528381,
      -0.24727769196033478,
      -0.3517588675022125,
      0.39081746339797974,
      0.13671183586120605,
      -0.6218999624252319,
      -0.1597813069820404,
      -0.374154657125473,
      -0.21011048555374146,
      -0.009949745610356331,
      -0.23198556900024414,
      -0.3724667429924011,
      -0.03306793048977852,
      -0.31538835167884827,
      -0.3485031723976135,
      1.1282087564468384,
      -0.46232870221138,
      -0.4522801339626312,
      0.9838944673538208,
      -0.5539124608039856,
      -0.013673720881342888,
      0.6526498794555664,
      0.04033876210451126,
      -0.961460530757904,
      -0.3088368773460388,
      -0.7212939858436584,
      -0.409773588180542,
      0.2418200671672821,
      -0.3627585768699646,
      -0.5439759492874146,
      0.03361540287733078,
      -0.4523867666721344,
      -0.4811208248138428,
      1.652742624282837,
      -0.7474256753921509,
      -0.6979054808616638,
      1.363576054573059,
      -0.5895746350288391,
      0.10137003660202026,
      0.887557327747345,
      0.0038664541207253933,
      -0.8325797915458679,
      -0.13934433460235596,
      -0.9549770355224609,
      -0.6131637692451477,
      0.4156154990196228,
      -0.5917158722877502,
      -0.7326140999794006,
      0.05746478587388992,
      -0.7305472493171692,
      0.19390256702899933,
      -0.05842062085866928,
      0.2644205391407013,
      0.09413188695907593,
      -0.07968153804540634,
      0.057980142533779144,
      -0.08160404115915298,
      0.12570634484291077,
      0.3100501596927643,
      -0.08090468496084213,
      -0.3630909025669098,
      0.10446677356958389,
      -0.031705889850854874,
      -0.15068911015987396,
      0.033563051372766495,
      -0.20902256667613983,
      -0.13446982204914093,
      -0.02007465623319149,
      0.02815018594264984,
      0.2768195867538452,
      0.006636267527937889,
      -0.08944433182477951,
      0.06637875735759735,
      0.10488738119602203,
      0.18449333310127258,
      0.08165242522954941,
      0.3239639103412628,
      0.2002279907464981,
      -0.27783071994781494,
      0.12215175479650497,
      0.1360023319721222,
      -0.14857642352581024,
      0.033361006528139114,
      -0.05765945091843605,
      -0.24290022253990173,
      -0.08055450767278671,
      0.09883924573659897,
      0.2516920268535614,
      0.3079226016998291,
      0.05402395501732826,
      -0.04109078645706177,
      0.19509834051132202,
      0.1921105980873108,
      0.03227937966585159,
      0.04870780184864998,
      0.2706368863582611,
      -0.43556952476501465,
      0.08070726692676544,
      0.17623375356197357,
      -0.30789870023727417,
      0.0831899419426918,
      0.08331018686294556,
      -0.2561822831630707,
      0.033782824873924255,
      0.32044726610183716,
      0.18352216482162476,
      0.14976756274700165,
      0.102906234562397,
      0.24896511435508728,
      0.14736053347587585,
      0.0004215181979816407,
      0.13296686112880707,
      0.20719502866268158,
      0.07126646488904953,
      -0.23200958967208862,
      0.1627918779850006,
      0.1911913901567459,
      -0.09646997600793839,
      0.1254240721464157,
      -0.03834052011370659,
      -0.05715571716427803,
      -0.08128039538860321
    ]
  },
  "conv2": {
    "bias": [
      -0.12424308806657791,
      0.2888595759868622,
      -0.17264559864997864,
      -0.12999078631401062,
      -0.17800825834274292,
      -0.1478557586669922,
      -0.18938659131526947,
      -0.14566220343112946,
      -0.28276875615119934,
      -0.03958180174231529,
      -0.1058943048119545,
      -0.12276958674192429
    ],
    "in_channels": 12,
    "kernel_size": 3,
    "out_channels": 12,
    "weights": [
      0.01455980259925127,
      -0.014121616259217262,
      -0.0007756065460853279,
      -0.14988194406032562,
      -0.016807921230793,
      -0.08782196789979935,
      -0.1779652088880539,
      -0.057721804827451706,
      -0.2373739331960678,
      0.48427605628967285,
      0.488582044839859,
      0.3865804672241211,
      0.44649672508239746,
      0.48741915822029114,
      0.4162830114364624,
      0.4848102629184723,
      0.4253791272640228,
      0.4600531756877899,
      0.17659606039524078,
      0.22752343118190765,
      0.21851108968257904,
      0.2612764835357666,
      0.18738999962806702,
      0.13388119637966156,
      0.25700631737709045,
      0.19998763501644135,
      0.23706555366516113,
      0.13125796616077423,
      0.20819909870624542,
      0.2213251143693924,
      0.0914507582783699,
      0.12341403216123581,
      0.188255175948143,
      0.16740712523460388,
      0.1772068589925766,
      0.07965373247861862,
      0.25358739495277405,
      0.23580148816108704,
      0.15907476842403412,
      0.1436561644077301,
      0.22719231247901917,
      0.22695131599903107,
      0.16954463720321655,
      0.33222800493240356,
      0.17891518771648407,
      -0.06569937616586685,
      0.032111756503582,
      -0.06394276022911072,
      -0.08043372631072998,
      -0.009484962560236454,
      -0.0022382582537829876,
      -0.0481296107172966,
      0.007464604917913675,
      -0.0224728025496006,
      0.43137407302856445,
      0.48634636402130127,
      0.41970503330230713,
      0.3908650279045105,
      0.5117813944816589,
      0.4508214592933655,
      0.40710365772247314,
      0.4184156358242035,
      0.4351024031639099,
      0.3034414052963257,
      0.5235175490379333,
      0.43272772431373596,
      0.43497052788734436,
      0.44570571184158325,
      0.3103318512439728,
      0.4584709703922272,
      0.4328667223453522,
      0.42642149329185486,
      0.06961913406848907,
      -0.04300222918391228,
      0.016638342291116714,
      -0.017358645796775818,
      0.10778059810400009,
      -0.05345378443598747,
      0.06919161975383759,
      0.09864048659801483,
      0.048904899507761,
      0.0404890701174736,
      0.021861933171749115,
      -0.107027068734169,
      -0.014591005630791187,
      -0.021402621641755104,
      -0.044427018612623215,
      -0.19532296061515808,
      -0.0766969621181488,
      -0.11876972019672394,
      0.05321129038929939,
      0.04562202841043472,
      0.0014371091965585947,
      -0.0007131922757253051,
      -0.10821492969989777,
      -0.1432918906211853,
      -0.1541612595319748,
      -0.13546645641326904,
      -0.08105257153511047,
      0.3673674464225769,
      0.4614463746547699,
      0.2729964554309845,
      0.23748062551021576,
      0.34505829215049744,
      0.3271666169166565,
      0.3851492702960968,
      0.40497317910194397,
      0.23694375157356262,
      0.2477360963821411,
      0.20359380543231964,
      0.30667850375175476,
      0.2888887822628021,
      0.2907472848892212,
      0.30577513575553894,
      0.26565828919410706,
      0.30719193816185,
      0.27472618222236633,
      -0.3105774223804474,
      -0.24247905611991882,
      -0.33513525128364563,
      -0.3018997013568878,
      -0.1668066531419754,
      -0.28240951895713806,
      -0.3585242033004761,
      -0.3943949043750763,
      -0.409212589263916,
      0.1889742761850357,
      0.24162454903125763,
      0.2053373157978058,
      0.18770569562911987,
      0.3127114772796631,
      0.17385852336883545,
      0.1535901129245758,
      0.1989731341600418,
      0.2078125774860382,
      0.3203646242618561,
      0.4051133990287781,
      0.15168020129203796,
      0.17599616944789886,
      0.38873279094696045,
      0.19088105857372284,
      0.17970900237560272,
      0.29466333985328674,
      0.20954500138759613,
      0.12444780766963959,
      0.013716824352741241,
      0.0030120224691927433,
      0.09554752707481384,
      -0.01090262457728386,
      0.10212823748588562,
      -0.1086927056312561,
      -0.05498431995511055,
      -0.12292676419019699,
      0.21500051021575928,
      0.22220246493816376,
      0.2967485189437866,
      0.35558369755744934,
      0.26046663522720337,
      0.23831158876419067,
      0.24458999931812286,
      0.21734519302845,
      0.24721749126911163,
      -0.34457311034202576,
      -0.05114108324050903,
      -0.16103096306324005,
      -0.28430086374282837,
      -0.05192770063877106,
      -0.19268009066581726,
      -0.3403758108615875,
      -0.20624275505542755,
      -0.19971026480197906,
      0.22234831750392914,
      0.32143497467041016,
      0.364454060792923,
      0.19034117460250854,
      0.1723947674036026,
      0.323311984539032,
      0.15369726717472076,
      0.22212813794612885,
      0.1751842498779297,
      0.28096917271614075,
      0.1579500436782837,
      0.10367322713136673,
      0.20982518792152405,
      0.2637689411640167,
      0.16161638498306274,
      0.05274906009435654,
      0.12528014183044434,
      0.06996171921491623,
      0.30606549978256226,
      0.39738965034484863,
      0.3715584874153137,
      0.40147820115089417,
      0.3652166724205017,
      0.35648050904273987,
      0.317380428314209,
      0.31514301896095276,
      0.34178629517555237,
      0.19151006639003754,
      0.12373469024896622,
      0.13404284417629242,
      0.07798049598932266,
      0.1612357497215271,
      0.05589538440108299,
      0.19095918536186218,
      0.2686936557292938,
      0.13444669544696808,
      -0.295233815908432,
      -0.2197541743516922,
      -0.2898499071598053,
      -0.2676231861114502,
      -0.364928275346756,
      -0.40937307476997375,
      -0.476655513048172,
      -0.33633914589881897,
      -0.3552073836326599,
      0.03685822710394859,
      0.10192081332206726,
      0.018934018909931183,
      0.09156836569309235,
      0.14316871762275696,
      0.02543647773563862,
      0.13375699520111084,
      0.07920759916305542,
      0.02725815773010254,
      0.3260137140750885,
      0.40447384119033813,
      0.21036340296268463,
      0.18066775798797607,
      0.2686946392059326,
      0.22632300853729248,
      0.31903356313705444,
      0.37845292687416077,
      0.18313392996788025,
      0.14774878323078156,
      0.2194899022579193,
      0.23029279708862305,
      0.23109635710716248,
      0.2533608078956604,
      0.1784176528453827,
      0.2459229677915573,
      0.22687411308288574,
      0.1831238865852356,
      0.030897656455636024,
      0.13032057881355286,
      0.21901752054691315,
      0.15212701261043549,
      0.13571961224079132,
      0.14807534217834473,
      0.17444048821926117,
      0.163018599152565,
      0.08233539015054703,
      0.09430160373449326,
      0.14120134711265564,
      0.15195637941360474,
      0.07409070432186127,
      0.19212138652801514,
      0.12278212606906891,
      0.25561991333961487,
      0.2919251024723053,
      0.21927331387996674,
      0.14891032874584198,
      0.14316123723983765,
      0.1633528620004654,
      0.06517348438501358,
      0.11711493134498596,
      0.1047523021697998,
      0.10543759912252426,
      0.06764917075634003,
      0.15670907497406006,
      0.18852007389068604,
      0.11250291019678116,
      0.13548411428928375,
      0.08617012202739716,
      0.14414173364639282,
      0.09526548534631729,
      0.1784624606370926,
      0.15544040501117706,
      0.0302379559725523,
      0.4262467324733734,
      0.5840840935707092,
      0.49767446517944336,
      0.4610852599143982,
      0.525546669960022,
      0.43181169033050537,
      0.44876039028167725,
      0.5152018666267395,
      0.5077932476997375,
      0.21968050301074982,
      0.3043043315410614,
      0.1815926730632782,
      0.1965005099773407,
      0.2871374785900116,
      0.23833931982517242,
      0.2087181657552719,
      0.25997939705848694,
      0.19771704077720642,
      0.05275804176926613,
      0.1930502951145172,
      0.13215506076812744,
      0.1994296908378601,
      0.25441598892211914,
      0.15434633195400238,
      0.18434540927410126,
      0.11405764520168304,
      0.20386351644992828,
      0.017580509185791016,
      -0.06218235567212105,
      -0.1801261603832245,
      -0.10385142266750336,
      -0.11035394668579102,
      -0.12856246531009674,
      -0.18538789451122284,
      -0.10132107883691788,
      -0.2053328901529312,
      0.09134440869092941,
      0.09850915521383286,
      0.02776278555393219,
      0.01876046694815159,
      0.08110211044549942,
      0.04515126347541809,
      0.17335127294063568,
      0.21761454641819,
      -0.032182589173316956,
      0.03615030646324158,
      -0.009097016416490078,
      -0.08493977040052414,
      -0.02705724723637104,
      -0.03889607638120651,
      -0.11928487569093704,
      -0.14572767913341522,
      -0.08619475364685059,
      -0.009511969983577728,
      0.39163821935653687,
      0.382968932390213,
      0.24795563519001007,
      0.2562040686607361,
      0.35713717341423035,
      0.26099303364753723,
      0.4101729094982147,
      0.4622924029827118,
      0.2761331796646118,
      0.265825092792511,
      0.1995500922203064,
      0.12827129662036896,
      0.21518799662590027,
      0.195049449801445,
      0.22785644233226776,
      0.28721585869789124,
      0.21134942770004272,
      0.13874366879463196,
      0.13858084380626678,
      0.07378944009542465,
      0.21293029189109802,
      0.05028166249394417,
      0.18911945819854736,
      0.04983209818601608,
      0.058139581233263016,
      0.16570553183555603,
      0.17712481319904327,
      0.22459851205348969,
      0.3004354238510132,
      0.15534177422523499,
      0.14769026637077332,
      0.24101819097995758,
      0.1429007202386856,
      0.14767876267433167,
      0.13799789547920227,
      0.0863359123468399,
      0.07659336179494858,
      -0.003778549376875162,
      0.07967295497655869,
      0.013881013728678226,
      0.05703120678663254,
      0.08182135224342346,
      -0.05107191205024719,
      0.007721368223428726,
      -0.002925266744568944,
      0.33507639169692993,
      0.2686316967010498,
      0.33454394340515137,
      0.22298140823841095,
      0.34499749541282654,
      0.3353821039199829,
      0.26286497712135315,
      0.31764423847198486,
      0.24602173268795013,
      0.4519745111465454,
      0.5150881409645081,
      0.3975079357624054,
      0.31552109122276306,
      0.40597471594810486,
      0.45220136642456055,
      0.4534643292427063,
      0.535247802734375,
      0.31796514987945557,
      0.14313028752803802,
      0.10103701800107956,
      0.14240537583827972,
      0.15204299986362457,
      0.11310308426618576,
      0.03199142590165138,
      0.15655656158924103,
      0.05733318626880646,
      0.1217467337846756,
      -0.07886535674333572,
      0.042759135365486145,
      -0.04440118744969368,
      -0.0543619804084301,
      0.07743709534406662,
      -0.05054130405187607,
      -0.10531599074602127,
      0.08446280658245087,
      0.033548783510923386,
      -0.040408145636320114,
      -0.08236394077539444,
      -0.08577805757522583,
      -0.0914383977651596,
      0.018818851560354233,
      -0.11954613029956818,
      -0.13728411495685577,
      -0.16084615886211395,
      -0.19154372811317444,
      0.30716606974601746,
      0.36445942521095276,
      0.2146589756011963,
      0.203557550907135,
      0.3758071959018707,
      0.1967514306306839,
      0.20286519825458527,
      0.25104063749313354,
      0.16490952670574188,
      0.04714703559875488,
      0.08433590084314346,
      0.06542478501796722,
      -0.024481376633048058,
      0.1050344854593277,
      -0.0692056342959404,
      -0.10885784775018692,
      -0.052443984895944595,
      -0.15902085602283478,
      0.2919405400753021,
      0.3524342477321625,
      0.3315052092075348,
      0.35274428129196167,
      0.41055890917778015,
      0.26919475197792053,
      0.4540095925331116,
      0.4226245582103729,
      0.3941422998905182,
      0.27240872383117676,
      0.2045009285211563,
      0.21019460260868073,
      0.2534957230091095,
      0.35343554615974426,
      0.20337408781051636,
      0.27635931968688965,
      0.19528764486312866,
      0.16174529492855072,
      0.21565109491348267,
      0.17325381934642792,
      0.24678222835063934,
      0.13791562616825104,
      0.12850069999694824,
      0.2349420189857483,
      0.23393407464027405,
      0.19282859563827515,
      0.11383848637342453,
      0.1565486341714859,
      0.19356609880924225,
      0.25083687901496887,
      0.17568686604499817,
      0.2636847496032715,
      0.24255724251270294,
      0.1916045993566513,
      0.1773487627506256,
      0.2615649104118347,
      0.08580787479877472,
      0.006312798708677292,
      0.09542788565158844,
      0.04070761054754257,
      0.028140712529420853,
      -0.06061045452952385,
      -0.01600753515958786,
      -0.05705416947603226,
      0.06253746151924133,
      0.38025641441345215,
      0.33493494987487793,
      0.39388802647590637,
      0.25020796060562134,
      0.3540043830871582,
      0.2127866894006729,
      0.2748081386089325,
      0.36485999822616577,
      0.3064563572406769,
      0.4069058299064636,
      0.4564664363861084,
      0.49144068360328674,
      0.4720745086669922,
      0.5136670470237732,
      0.3793160617351532,
      0.4392499029636383,
      0.5156427621841431,
      0.5235549211502075,
      0.09759886562824249,
      0.13371948897838593,
      0.09876570850610733,
      0.1321091204881668,
      0.11957824230194092,
      0.1686757504940033,
      0.1264863759279251,
      0.049947433173656464,
      0.08405989408493042,
      -0.0623788945376873,
      0.005407323129475117,
      0.05230652168393135,
      0.009898737072944641,
      0.04060041531920433,
      0.10788542032241821,
      -0.08180523663759232,
      -0.006685253698378801,
      -0.017195461317896843,
      -0.034220725297927856,
      -0.0212622731924057,
      0.020273583009839058,
      -0.09865366667509079,
      -0.0910167321562767,
      -0.09004271030426025,
      -0.03783006966114044,
      -0.07718420028686523,
      -0.1075793132185936,
      0.2744956910610199,
      0.39173513650894165,
      0.2644638121128082,
      0.310708224773407,
      0.279699444770813,
      0.10873368382453918,
      0.19973872601985931,
      0.32643160223960876,
      0.2581807076931,
      -0.0107199065387249,
      0.14496612548828125,
      0.016143715009093285,
      -0.003356712870299816,
      0.041826553642749786,
      -0.04087464138865471,
      0.03974873572587967,
      0.0051947301253676414,
      0.004291205201297998,
      0.26304924488067627,
      0.38275232911109924,
      0.3323432505130768,
      0.41084855794906616,
      0.4661932587623596,
      0.32947346568107605,
      0.24771231412887573,
      0.43135207891464233,
      0.25556787848472595,
      0.1454184204339981,
      0.31628528237342834,
      0.1840362697839737,
      0.29851034283638,
      0.23306098580360413,
      0.26201438903808594,
      0.2678107023239136,
      0.21413299441337585,
      0.281524121761322,
      0.12887075543403625,
      0.23088447749614716,
      0.23905742168426514,
      0.08892463147640228,
      0.12533795833587646,
      0.2116980105638504,
      0.15490007400512695,
      0.17117714881896973,
      0.2274840921163559,
      0.11710865050554276,
      0.22621780633926392,
      0.23323851823806763,
      0.20441079139709473,
      0.17033879458904266,
      0.1910189688205719,
      0.07943005114793777,
      0.1750316172838211,
      0.22340552508831024,
      0.018729250878095627,
      0.02905167266726494,
      0.03357072174549103,
      0.05079657584428787,
      -0.0036190736573189497,
      -0.049775380641222,
      -0.08310992270708084,
      0.06717124581336975,
      -0.04643523320555687,
      0.27448245882987976,
      0.30254578590393066,
      0.1961771845817566,
      0.2074533849954605,
      0.22270990908145905,
      0.17827150225639343,
      0.2188778817653656,
      0.19958776235580444,
      0.12742401659488678,
      0.4891311526298523,
      0.5178322196006775,
      0.3849974274635315,
      0.4066271483898163,
      0.5721249580383301,
      0.336982399225235,
      0.37235596776008606,
      0.451163113117218,
      0.42147019505500793,
      0.09691420197486877,
      0.06428831815719604,
      0.16127601265907288,
      0.022304628044366837,
      0.21859095990657806,
      0.030657384544610977,
      0.07314571738243103,
      0.1452367752790451,
      0.054897017776966095,
      0.13474082946777344,
      0.04436410218477249,
      0.049106646329164505,
      -0.06164791062474251,
      0.10071265697479248,
      0.11694035679101944,
      0.0654943659901619,
      0.0679265484213829,
      -0.023655172437429428,
      0.034415166825056076,
      -0.0372348427772522,
      -0.03352588415145874,
      -0.13724647462368011,
      -0.11879045516252518,
      -0.2109026312828064,
      -0.05052390322089195,
      -0.11358778923749924,
      -0.25343289971351624,
      0.23910316824913025,
      0.24443329870700836,
      0.1779337078332901,
      0.24609237909317017,
      0.2133200317621231,
      0.17000100016593933,
      0.1512206345796585,
      0.2758606970310211,
      0.06400852650403976,
      0.07003650814294815,
      0.17668503522872925,
      0.12241710722446442,
      0.0635010302066803,
      0.13254503905773163,
      0.10448084026575089,
      0.02457515150308609,
      0.06805229187011719,
      -0.006823521573096514,
      0.4154890477657318,
      0.4818061888217926,
      0.25946688652038574,
      0.31930097937583923,
      0.3438994288444519,
      0.33113425970077515,
      0.24612170457839966,
      0.4427565634250641,
      0.2843451201915741,
      0.28488248586654663,
      0.3393174409866333,
      0.2183569371700287,
      0.2884376049041748,
      0.3383095860481262,
      0.17693640291690826,
      0.34198814630508423,
      0.38739603757858276,
      0.3217429220676422,
      0.13194923102855682,
      0.22766843438148499,
      0.11391264200210571,
      0.10822051018476486,
      0.22479566931724548,
      0.20361696183681488,
      0.20512422919273376,
      0.11149836331605911,
      0.2606826424598694,
      0.12627379596233368,
      0.30759289860725403,
      0.24912704527378082,
      0.21055203676223755,
      0.32337486743927,
      0.2302488535642624,
      0.22727087140083313,
      0.19903935492038727,
      0.2702867388725281,
      0.11623361706733704,
      0.17057523131370544,
      0.05401038005948067,
      0.1433158665895462,
      0.18356607854366302,
      -0.011594547890126705,
      0.14476947486400604,
      0.029955919831991196,
      -0.004576305393129587,
      0.13196976482868195,
      0.29215550422668457,
      0.1399925947189331,
      0.15256868302822113,
      0.19248263537883759,
      0.2079884558916092,
      0.09288126975297928,
      0.19159044325351715,
      0.17390312254428864,
      0.4702553153038025,
      0.4878641963005066,
      0.4999508559703827,
      0.39604905247688293,
      0.44501471519470215,
      0.44928255677223206,
      0.4292720556259155,
      0.6086536645889282,
      0.421185165643692,
      0.13915570080280304,
      0.22187040746212006,
      0.06635820120573044,
      0.2183142453432083,
      0.13312026858329773,
      0.12201086431741714,
      0.08749281615018845,
      0.14759832620620728,
      0.11060518026351929,
      0.0009570123511366546,
      0.1633930504322052,
      0.09637214243412018,
      0.14840057492256165,
      0.16969731450080872,
      0.15804937481880188,
      0.0615890771150589,
      0.14350152015686035,
      0.14769308269023895,
      0.004686215426772833,
      -0.13972099125385284,
      -0.13853493332862854,
      -0.18687987327575684,
      -0.09284750372171402,
      -0.17948724329471588,
      -0.04544045031070709,
      -0.12348026037216187,
      -0.19178059697151184,
      0.13338929414749146,
      0.16167844831943512,
      0.14576950669288635,
      0.14017827808856964,
      0.1738155633211136,
      0.18052901327610016,
      0.1398603469133377,
      0.1771814227104187,
      0.19212542474269867,
      -0.03654126077890396,
      -0.07084199041128159,
      -0.05479798838496208,
      -0.04348154366016388,
      -0.12780244648456573,
      -0.0960620865225792,
      -0.12251770496368408,
      -0.09717205166816711,
      -0.07386224716901779,
      0.365262895822525,
      0.5673638582229614,
      0.3598785996437073,
      0.3460628092288971,
      0.5773897171020508,
      0.36446723341941833,
      0.45810845494270325,
      0.5879868865013123,
      0.35183075070381165,
      0.09810200333595276,
      0.284087598323822,
      0.2836361229419708,
      0.17033806443214417,
      0.31310856342315674,
      0.22865909337997437,
      0.22782638669013977,
      0.1933719962835312,
      0.2893322706222534,
      0.187242791056633,
      0.21614250540733337,
      0.24148748815059662,
      0.05791955068707466,
      0.2052622139453888,
      0.12048445641994476,
      0.15904498100280762,
      0.23593638837337494,
      0.22497054934501648,
      0.17418523132801056,
      0.16032589972019196,
      0.11734101921319962,
      0.16674505174160004,
      0.22674182057380676,
      0.09900370985269547,
      0.25626829266548157,
      0.260993629693985,
      0.11785810440778732,
      -0.015740210190415382,
      0.030990758910775185,
      -0.10906772315502167,
      -0.01333696860820055,
      -0.0832134336233139,
      -0.04399092122912407,
      0.006701259408146143,
      0.014879412017762661,
      -0.05059284716844559,
      0.4102756083011627,
      0.5052371621131897,
      0.4660516679286957,
      0.42729243636131287,
      0.4452766478061676,
      0.4163932502269745,
      0.3629811108112335,
      0.4025868773460388,
      0.30505695939064026,
      0.2869736850261688,
      0.40309637784957886,
      0.46606898307800293,
      0.38101160526275635,
      0.37146398425102234,
      0.324695885181427,
      0.40449339151382446,
      0.4516955614089966,
      0.3658800721168518,
      -0.03056049905717373,
      0.03432409465312958,
      0.016868600621819496,
      0.014810542576014996,
      0.11459285020828247,
      0.06585706025362015,
      0.07809573411941528,
      0.04574991390109062,
      -0.05367065593600273,
      -0.07342227548360825,
      -0.046146128326654434,
      0.006400986108928919,
      -0.10528213530778885,
      -0.046951476484537125,
      -0.1406189203262329,
      -0.07420157641172409,
      0.00468779169023037,
      -0.0043701366521418095,
      -0.0814942866563797,
      0.015188445337116718,
      -0.057302407920360565,
      -0.1271083503961563,
      -0.09498501569032669,
      -0.039027437567710876,
      -0.16686499118804932,
      -0.016337545588612556,
      -0.10660684108734131,
      0.4020426571369171,
      0.48306378722190857,
      0.36671239137649536,
      0.3955672085285187,
      0.4547368884086609,
      0.2599404752254486,
      0.30846738815307617,
      0.3921712636947632,
      0.35790178179740906,
      0.4223703444004059,
      0.4698503613471985,
      0.3155081570148468,
      0.3331303894519806,
      0.3233966529369354,
      0.3906562626361847,
      0.2804337739944458,
      0.34626153111457825,
      0.4032329022884369,
      0.1570456624031067,
      0.17418836057186127,
      0.043357498943805695,
      0.04821629449725151,
      0.26855605840682983,
      -0.006186621263623238,
      0.19829095900058746,
      0.2661658227443695,
      0.08730234950780869,
      0.3601502478122711,
      0.5193461179733276,
      0.4363366365432739,
      0.44153428077697754,
      0.5129654407501221,
      0.31999480724334717,
      0.4119316339492798,
      0.48690667748451233,
      0.3179544508457184,
      0.24049416184425354,
      0.16322723031044006,
      0.2083517611026764,
      0.21772322058677673,
      0.1826384961605072,
      0.22309134900569916,
      0.16871711611747742,
      0.2583259642124176,
      0.3492150902748108,
      0.13483761250972748,
      0.14249958097934723,
      0.15003541111946106,
      0.06616238504648209,
      0.12181863188743591,
      0.11694565415382385,
      0.19835466146469116,
      0.11750075966119766,
      0.13033899664878845,
      0.38301900029182434,
      0.38077616691589355,
      0.39932116866111755,
      0.41297897696495056,
      0.4367641508579254,
      0.4784741997718811,
      0.45747777819633484,
      0.5135231018066406,
      0.4475800693035126,
      -0.12791664898395538,
      -0.07454533874988556,
      -0.14859850704669952,
      -0.1041569709777832,
      -0.12222380936145782,
      -0.16029682755470276,
      -0.1442645639181137,
      -0.2388664335012436,
      -0.20353864133358002,
      0.6616982817649841,
      0.7713136672973633,
      0.6501160860061646,
      0.6874780654907227,
      0.6770203709602356,
      0.6146051287651062,
      0.7444925308227539,
      0.6784241795539856,
      0.7026867866516113,
      0.5444961190223694,
      0.5859590172767639,
      0.5106333494186401,
      0.37396061420440674,
      0.5152105689048767,
      0.4344925582408905,
      0.43594813346862793,
      0.573091983795166,
      0.43572738766670227,
      0.35362112522125244,
      0.4053850471973419,
      0.4858179986476898,
      0.41291728615760803,
      0.5651854276657104,
      0.44023945927619934,
      0.3203064799308777,
      0.49683070182800293,
      0.5081763863563538,
      -0.08002759516239166,
      -0.11640749871730804,
      -0.267961710691452,
      -0.1936606466770172,
      -0.11663384735584259,
      -0.28943949937820435,
      -0.12968677282333374,
      -0.2260981649160385,
      -0.23217351734638214,
      -0.07510411739349365,
      -0.10748878121376038,
      -0.17505739629268646,
      -0.03352835029363632,
      -0.06865990161895752,
      -0.1205824613571167,
      -0.15179361402988434,
      -0.009736032225191593,
      -0.1890755146741867,
      -0.1863662451505661,
      -0.1428235024213791,
      -0.1995362788438797,
      -0.2548782527446747,
      -0.2580443024635315,
      -0.2457052767276764,
      -0.37831544876098633,
      -0.2967761158943176,
      -0.43152546882629395,
      0.6288539171218872,
      0.6999253630638123,
      0.5745972394943237,
      0.5325825810432434,
      0.5302993059158325,
      0.5827502012252808,
      0.6701052188873291,
      0.7530476450920105,
      0.5929928421974182,
      0.2835156321525574,
      0.3494465947151184,
      0.3013854920864105,
      0.19050078094005585,
      0.1602720022201538,
      0.3114734888076782,
      0.2716934084892273,
      0.3369269073009491,
      0.24093768000602722,
      0.19183635711669922,
      0.2452319860458374,
      0.1989278942346573,
      0.21942828595638275,
      0.16959984600543976,
      0.29766497015953064,
      0.27162641286849976,
      0.20620553195476532,
      0.321342796087265,
      0.16750487685203552,
      0.25772184133529663,
      0.1972782462835312,
      0.10915045440196991,
      0.26788002252578735,
      0.27655676007270813,
      0.20609284937381744,
      0.26882100105285645,
      0.2627650797367096,
      -0.20054161548614502,
      -0.22456549108028412,
      -0.27599725127220154,
      -0.2779849171638489,
      -0.24622713029384613,
      -0.1918013095855713,
      -0.1980111300945282,
      -0.2908379137516022,
      -0.24703989923000336,
      0.6889135241508484,
      0.609987735748291,
      0.604288637638092,
      0.6618354916572571,
      0.6936259269714355,
      0.6158415675163269,
      0.5234600305557251,
      0.6631328463554382,
      0.4951604902744293,
      0.4202686846256256,
      0.426870197057724,
      0.4267287850379944,
      0.26256537437438965,
      0.3698413074016571,
      0.4058653712272644,
      0.45031216740608215,
      0.4170796871185303,
      0.4866671860218048,
      -0.1817925125360489,
      -0.17428669333457947,
      -0.17468659579753876,
      -0.15277917683124542,
      -0.16070400178432465,
      -0.10402791947126389,
      -0.2547762095928192,
      -0.20444855093955994,
      -0.30844417214393616,
      -0.10841196030378342,
      -0.1502782255411148,
      -0.20428505539894104,
      -0.2743667960166931,
      -0.22658208012580872,
      -0.18312358856201172,
      -0.35419222712516785,
      -0.23902259767055511,
      -0.3022024929523468,
      -0.06598704308271408,
      0.003926421049982309,
      -0.017207521945238113,
      0.030378861352801323,
      0.0074411542154848576,
      0.02312968298792839,
      -0.025243906304240227,
      -0.102663055062294,
      -0.11495310813188553,
      0.4911844730377197,
      0.6167622208595276,
      0.48406797647476196,
      0.5489649772644043,
      0.5753594636917114,
      0.41792118549346924,
      0.4556846618652344,
      0.48091936111450195,
      0.4361639618873596,
      -0.05069059506058693,
      -0.023750752210617065,
      -0.018535487353801727,
      -0.2123298943042755,
      -0.09861375391483307,
      -0.23650729656219482,
      -0.19421620666980743,
      -0.13022300601005554,
      -0.30329540371894836,
      0.5100733041763306,
      0.4638189673423767,
      0.47837451100349426,
      0.4071195125579834,
      0.5469354391098022,
      0.480873703956604,
      0.39949333667755127,
      0.4827130138874054,
      0.4485847055912018,
      0.09367642551660538,
      0.296996533870697,
      0.13491688668727875,
      0.2610636353492737,
      0.1684434562921524,
      0.14547356963157654,
      0.23758509755134583,
      0.1746017187833786,
      0.25264406204223633,
      0.19270865619182587,
      0.25960224866867065,
      0.05344525724649429,
      0.130930095911026,
      0.13294485211372375,
      0.16408568620681763,
      0.08959442377090454,
      0.20402492582798004,
      0.13949285447597504,
      0.11775688081979752,
      0.158228799700737,
      0.225352942943573,
      0.12961038947105408,
      0.31580325961112976,
      0.18704429268836975,
      0.17607124149799347,
      0.21996577084064484,
      0.14612476527690887,
      -0.13100941479206085,
      -0.13251277804374695,
      -0.039121195673942566,
      -0.18538491427898407,
      -0.033183321356773376,
      -0.16415032744407654,
      -0.08528876304626465,
      -0.03835086151957512,
      -0.21853940188884735,
      0.5202245712280273,
      0.49257636070251465,
      0.3574131429195404,
      0.45755571126937866,
      0.5224456191062927,
      0.4870966076850891,
      0.3234764337539673,
      0.5355157852172852,
      0.4543141722679138,
      0.44236963987350464,
      0.47883301973342896,
      0.30072513222694397,
      0.4120478332042694,
      0.5070840716362,
      0.3015843331813812,
      0.32747602462768555,
      0.5034616589546204,
      0.41843312978744507,
      0.02929016761481762,
      0.08836562186479568,
      -0.08560764789581299,
      -0.05969810113310814,
      -0.04332992807030678,
      -0.0017119640251621604,
      -0.03920966759324074,
      -0.10910075157880783,
      -0.0982079803943634,
      -0.168544203042984,
      -0.09231923520565033,
      0.029636016115546227,
      -0.18150703608989716,
      -0.016857026144862175,
      -0.12243878096342087,
      -0.2068234086036682,
      -0.11629541218280792,
      -0.07894953340291977,
      -0.04525076970458031,
      0.08345121890306473,
      0.0027050923090428114,
      -0.005784579552710056,
      -0.12843890488147736,
      -0.1484362930059433,
      -0.19305267930030823,
      -0.11353150010108948,
      -0.17463265359401703,
      0.3918059170246124,
      0.4940045177936554,
      0.35375744104385376,
      0.2877369523048401,
      0.33445632457733154,
      0.3690107464790344,
      0.36989346146583557,
      0.4257981777191162,
      0.24707356095314026,
      -0.07672406733036041,
      0.0035275625996291637,
      -0.16003498435020447,
      -0.059391412883996964,
      -0.026709383353590965,
      -0.20243880152702332,
      -0.23123887181282043,
      -0.1707341969013214,
      -0.20586322247982025,
      0.4226057529449463,
      0.6334457397460938,
      0.34270066022872925,
      0.3979146182537079,
      0.48983487486839294,
      0.46003618836402893,
      0.48032742738723755,
      0.5339319109916687,
      0.5231385827064514,
      0.11679426580667496,
      0.29761800169944763,
      0.14032968878746033,
      0.17183054983615875,
      0.17061667144298553,
      0.12746529281139374,
      0.10594715178012848,
      0.29846861958503723,
      0.16054268181324005,
      0.21087664365768433,
      0.15428426861763,
      0.14485706388950348,
      0.16709057986736298,
      0.27513980865478516,
      0.14867541193962097,
      0.22754022479057312,
      0.22863203287124634,
      0.23267918825149536,
      0.23666755855083466,
      0.30531108379364014,
      0.16420100629329681,
      0.1501903533935547,
      0.3071076273918152,
      0.23998355865478516,
      0.15316133201122284,
      0.3043955862522125,
      0.12586967647075653,
      -0.018544774502515793,
      -0.051390666514635086,
      -0.1583012491464615,
      -0.15012669563293457,
      -0.1345730870962143,
      -0.10019588470458984,
      -0.18971467018127441,
      -0.12542258203029633,
      -0.15998691320419312,
      0.4169222116470337,
      0.539146900177002,
      0.48020491003990173,
      0.48475900292396545,
      0.5857705473899841,
      0.3987029194831848,
      0.49412858486175537,
      0.49868476390838623,
      0.38008835911750793,
      0.3242895007133484,
      0.49064910411834717,
      0.38873419165611267,
      0.35630762577056885,
      0.41400590538978577,
      0.40934300422668457,
      0.37030524015426636,
      0.3787211775779724,
      0.3546987771987915,
      -0.042187053710222244,
      -0.011366695165634155,
      -0.09018240123987198,
      -0.10991373658180237,
      0.11494357138872147,
      -0.12542828917503357,
      0.03502935916185379,
      -0.09097236394882202,
      -0.09165144711732864,
      -0.11771304160356522,
      -0.046383850276470184,
      -0.024076197296380997,
      -0.06718462705612183,
      -0.10137063264846802,
      -0.14815635979175568,
      -0.13327458500862122,
      -0.10556335747241974,
      -0.1412867307662964,
      0.031102363020181656,
      -0.016991009935736656,
      -0.09522251784801483,
      -0.023591073229908943,
      -0.05580224469304085,
      -0.14606845378875732,
      -0.1530085951089859,
      -0.12008305639028549,
      -0.046595439314842224,
      0.4229915142059326,
      0.5123914480209351,
      0.3785845637321472,
      0.32555028796195984,
      0.5280346274375916,
      0.332871675491333,
      0.3698521554470062,
      0.5326887369155884,
      0.2972690165042877
    ]
  },
  "conv3": {
    "bias": [
      -0.046948324888944626,
      -0.23411507904529572,
      -0.10057772696018219,
      -0.11057271808385849,
      -0.2831575572490692,
      0.00590691389515996,
      -0.10302959382534027,
      -0.04527023434638977,
      0.23384340107440948,
      0.34531447291374207,
      -0.07385962456464767,
      -0.016427498310804367
    ],
    "in_channels": 12,
    "kernel_size": 3,
    "out_channels": 12,
    "weights": [
      -0.06298025697469711,
      -0.06222919747233391,
      0.02475767210125923,
      0.015043098479509354,
      -0.06803925335407257,
      0.07673271745443344,
      0.04510978236794472,
      -0.047299373894929886,
      0.03900220990180969,
      -0.07267071306705475,
      -0.060668837279081345,
      -0.018847856670618057,
      -0.11781100183725357,
      -0.12692002952098846,
      -0.08475534617900848,
      -0.015153193846344948,
      -0.10143844783306122,
      -0.08367817103862762,
      -0.018659226596355438,
      -0.027207674458622932,
      0.0028800610452890396,
      0.0012957765720784664,
      0.009996925480663776,
      -0.0029136769007891417,
      -0.009054930880665779,
      -0.01476619578897953,
      0.025667289271950722,
      0.056747883558273315,
      -0.05678500235080719,
      -0.06043360382318497,
      0.03223855420947075,
      -0.07807415723800659,
      0.05290433391928673,
      0.03414925932884216,
      0.004988320171833038,
      -0.050451818853616714,
      -0.0031795271206647158,
      -0.12253233045339584,
      -0.1408539116382599,
      0.08196712285280228,
      -0.09569225460290909,
      -0.09310571104288101,
      -0.05552827566862106,
      -0.012404237873852253,
      0.0025769227650016546,
      -0.05633114278316498,
      -0.01927853375673294,
      -0.03351788967847824,
      0.07079818844795227,
      0.07456232607364655,
      0.030418194830417633,
      -0.012665594927966595,
      0.06279031187295914,
      -0.08566358685493469,
      0.029935870319604874,
      -0.06812996417284012,
      0.060991521924734116,
      -0.09566538035869598,
      0.025154128670692444,
      -0.08968048542737961,
      0.0433444119989872,
      0.0070678298361599445,
      0.0720331221818924,
      -0.08207939565181732,
      0.053223252296447754,
      -0.07495815306901932,
      -0.06510315090417862,
      0.02816791646182537,
      -0.027066035196185112,
      -0.08682766556739807,
      -0.09114912152290344,
      -0.03431747481226921,
      0.016537435352802277,
      0.06942855566740036,
      0.05466017872095108,
      -0.009088178165256977,
      -0.06978829950094223,
      -0.0962061807513237,
      0.07141299545764923,
      -0.06390439718961716,
      -0.026972943916916847,
      -0.08653659373521805,
      -0.07448462396860123,
      0.010160506702959538,
      -0.03368707001209259,
      0.0022424173075705767,
      -0.008709987625479698,
      -0.005011453293263912,
      -0.026669489219784737,
      -0.011783776804804802,
      0.03310816362500191,
      0.06076202541589737,
      0.0710439458489418,
      -0.08795615285634995,
      -0.09062495082616806,
      -0.02391117252409458,
      -0.017694924026727676,
      0.043893393129110336,
      0.08099396526813507,
      0.02482159435749054,
      -0.07034789025783539,
      -0.025223735719919205,
      0.06479346752166748,
      0.0332215242087841,
      -0.07851016521453857,
      0.007635209243744612,
      -0.10147334635257721,
      -0.051693033427000046,
      0.4080759584903717,
      0.36632925271987915,
      0.4081461429595947,
      0.24987511336803436,
      0.47791996598243713,
      0.37733379006385803,
      0.4022205173969269,
      0.43281418085098267,
      0.34740573167800903,
      -0.8342677354812622,
      -0.8181541562080383,
      -0.8386684060096741,
      -0.7823935151100159,
      -0.8711144328117371,
      -0.8396676182746887,
      -0.9940055012702942,
      -0.8555115461349487,
      -0.9192522168159485,
      0.023415278643369675,
      0.1751081794500351,
      0.033772699534893036,
      0.0687887892127037,
      0.05631251260638237,
      0.1498904675245285,
      0.0035816840827465057,
      0.16462810337543488,
      0.1432712823152542,
      0.2333710938692093,
      0.42952945828437805,
      0.39663615822792053,
      0.22745060920715332,
      0.36065128445625305,
      0.32588058710098267,
      0.38427507877349854,
      0.44760119915008545,
      0.23241183161735535,
      0.22683463990688324,
      0.274059921503067,
      0.278022438287735,
      0.2665524184703827,
      0.30878233909606934,
      0.3666798770427704,
      0.22349373996257782,
      0.28680846095085144,
      0.23848344385623932,
      0.1783519834280014,
      0.3965524733066559,
      0.2577618956565857,
      0.19289863109588623,
      0.24756725132465363,
      0.14796340465545654,
      0.19032874703407288,
      0.34769439697265625,
      0.2912268340587616,
      0.18657426536083221,
      0.1850353330373764,
      0.08497534692287445,
      0.03593263775110245,
      0.25018757581710815,
      0.023216981440782547,
      0.12558527290821075,
      0.16243591904640198,
      0.20615792274475098,
      0.4573492407798767,
      0.43742623925209045,
      0.3341652750968933,
      0.40340349078178406,
      0.3897462487220764,
      0.39636293053627014,
      0.4402949810028076,
      0.5374961495399475,
      0.4024301767349243,
      -0.21698826551437378,
      -0.1792484074831009,
      -0.21965551376342773,
      -0.1798124611377716,
      -0.19133155047893524,
      -0.1711181402206421,
      -0.24810905754566193,
      -0.208538219332695,
      -0.12152479588985443,
      0.8262236714363098,
      0.9285003542900085,
      0.8744035959243774,
      0.7008508443832397,
      0.8087418079376221,
      0.7051922082901001,
      0.8449413776397705,
      0.9249597191810608,
      0.8622999787330627,
      0.4042533040046692,
      0.5070516467094421,
      0.5751736164093018,
      0.3805553615093231,
      0.4745347201824188,
      0.5013760328292847,
      0.384819895029068,
      0.5252838730812073,
      0.521040141582489,
      0.591711699962616,
      0.5865150094032288,
      0.4340859055519104,
      0.5562129616737366,
      0.6772719621658325,
      0.4366587996482849,
      0.5117440819740295,
      0.5344144105911255,
      0.47247111797332764,
      -0.030216870829463005,
      0.018422866240143776,
      0.03036689944565296,
      -0.13494862616062164,
      -0.037038445472717285,
      0.023666944354772568,
      -0.052913058549165726,
      -0.049052488058805466,
      -0.07153550535440445,
      0.044921692460775375,
      -0.11714522540569305,
      -0.11117947101593018,
      0.021230211481451988,
      -0.11234810948371887,
      0.003197437385097146,
      -0.10447651147842407,
      -0.06408855319023132,
      -0.09214005619287491,
      0.011951026506721973,
      0.03362315148115158,
      -0.0054504238069057465,
      -0.05623489245772362,
      -0.04912320151925087,
      -0.056736450642347336,
      -0.08744583278894424,
      0.01700543612241745,
      -0.03129851073026657,
      -0.014559500850737095,
      -0.024064529687166214,
      0.004535327199846506,
      -0.12022962421178818,
      0.024636419489979744,
      -0.1081860214471817,
      -0.027243008837103844,
      0.0053071528673172,
      -0.005040705669671297,
      -0.002076235134154558,
      -0.007258954923599958,
      -0.030566919595003128,
      -0.1197216585278511,
      -0.10030294209718704,
      0.03299311548471451,
      0.01070678886026144,
      -0.09519554674625397,
      0.006840909365564585,
      -0.11190766841173172,
      0.04443871229887009,
      -0.03680114820599556,
      0.01786687783896923,
      0.05432509630918503,
      0.04866638034582138,
      0.010961317457258701,
      0.003834474366158247,
      0.00760027626529336,
      -0.14202609658241272,
      -0.049560800194740295,
      -0.022656185552477837,
      -0.0041175768710672855,
      -0.05421692132949829,
      0.024285510182380676,
      0.024006245657801628,
      0.0167788565158844,
      0.026030410081148148,
      -0.09678412973880768,
      0.01641901768743992,
      -0.03443682938814163,
      0.03650852292776108,
      -0.011512994766235352,
      -0.02049138955771923,
      -0.12233078479766846,
      0.06961514800786972,
      -0.027165083214640617,
      0.0057920911349356174,
      -0.09568189084529877,
      -0.07585060596466064,
