{
  "board_height": 24,
  "board_width": 44,
  "conv1": {
    "bias": [
      0.3155718147754669,
      -0.008871235884726048,
      -0.005280917510390282,
      -0.1555921882390976,
      -0.17956824600696564,
      -0.2375408113002777,
      -0.14382219314575195,
      -0.04993181675672531,
      -0.11298716813325882,
      -0.11568063497543335,
      0.055860646069049835,
      0.18819884955883026,
      -0.3938044607639313,
      -0.3975624740123749,
      -0.38401758670806885,
      -0.1933513581752777,
      0.16045190393924713,
      -0.05349037051200867,
      -0.15871575474739075,
      0.02580629475414753,
      -0.12164615839719772,
      -0.14888688921928406,
      -0.6736776232719421,
      0.027560904622077942,
      -0.24325203895568848,
      -0.2590906322002411,
      -0.3930252194404602,
      -0.005648637656122446,
      -0.3574909567832947,
      -0.18595264852046967,
      -0.026478977873921394,
      -0.16814593970775604,
      -0.21868978440761566,
      -0.2708146274089813,
      -0.2142326384782791,
      -0.3361645042896271,
      -0.34139466285705566,
      -0.17784570157527924,
      -0.19419807195663452,
      -0.2462884932756424,
      0.13184401392936707,
      -0.19937241077423096,
      -0.17391297221183777,
      -0.022852376103401184,
      -0.10621051490306854,
      -0.250195175409317,
      -0.24085484445095062,
      -0.10057120770215988,
      -0.09767843782901764,
      0.1942235380411148,
      -0.14585718512535095,
      -0.21610552072525024,
      -0.10701677948236465,
      -0.19495461881160736,
      -0.026376675814390182,
      -0.41600650548934937,
      -0.03304480388760567,
      -0.06197809800505638,
      -0.20979583263397217,
      -0.0015058015706017613,
      -0.13366086781024933,
      -0.21048074960708618,
      0.1619003862142563,
      -0.14017663896083832
    ],
    "in_channels": 19,
    "kernel_size": 3,
    "out_channels": 64,
    "weights": [
      -0.16362297534942627,
      0.09259935468435287,
      -0.051600731909275055,
      0.14534948766231537,
      0.23604366183280945,
      0.01213411707431078,
      -0.04594515264034271,
      -0.026204856112599373,
      -0.06040927395224571,
      0.20701569318771362,
      0.7457606196403503,
      0.29073894023895264,
      -0.05122165009379387,
      0.3826770484447479,
      0.8239124417304993,
      -0.25149789452552795,
      -0.017035305500030518,
      -0.10956961661577225,
      -0.9099215865135193,
      0.3075023591518402,
      -0.7266799807548523,
      0.10797952860593796,
      -0.09571763873100281,
      0.09237781167030334,
      -0.10328498482704163,
      -0.029897814616560936,
      -0.10259420424699783,
      0.35458970069885254,
      0.44282954931259155,
      -1.6121416091918945,
      0.015287713147699833,
      0.34073498845100403,
      0.04917364567518234,
      -0.9118688702583313,
      -0.9977367520332336,
      -0.4316369593143463,
      -1.4149901866912842,
      -0.42852309346199036,
      -1.0221116542816162,
      -0.5984858274459839,
      0.07929541915655136,
      -0.428546279668808,
      0.10955223441123962,
      0.1916002482175827,
      0.048332348465919495,
      -0.8438995480537415,
      0.6828914880752563,
      -0.4096285104751587,
      -0.050596557557582855,
      0.6694369912147522,
      0.20251959562301636,
      -0.9153193831443787,
      0.060644496232271194,
      -0.49620503187179565,
      -1.4178870916366577,
      -0.9827912449836731,
      -0.18828588724136353,
      -0.9146019220352173,
      0.5319741368293762,
      -0.8776849508285522,
      -0.4664499759674072,
      0.34108757972717285,
      -0.5701735615730286,
      -1.5348827838897705,
      -0.3126792311668396,
      -0.36015230417251587,
      0.29393133521080017,
      0.5862082242965698,
      1.0223475694656372,
      -1.0421632528305054,
      -0.045575689524412155,
      -0.324038565158844,
      -0.4301080107688904,
      -0.10816209018230438,
      -1.0388544797897339,
      -0.7958135008811951,
      0.9227151870727539,
      -0.8069590330123901,
      -0.4717556834220886,
      -0.2103729248046875,
      -1.8710488080978394,
      -0.6031113266944885,
      0.143406942486763,
      -1.8933054208755493,
      -0.37224528193473816,
      0.6451237201690674,
      -0.14926613867282867,
      -1.0068482160568237,
      -0.27901092171669006,
      0.09558772295713425,
      -0.7335097193717957,
      -0.35372862219810486,
      -0.18225911259651184,
      0.22452712059020996,
      -0.15904752910137177,
      0.297746479511261,
      -0.13088983297348022,
      -0.09635327756404877,
      -0.47383391857147217,
      -0.7276138067245483,
      -0.5714913010597229,
      -0.4071081578731537,
      0.15069642663002014,
      -1.0780856609344482,
      -0.13990992307662964,
      0.32212308049201965,
      -0.030865980312228203,
      0.29718947410583496,
      0.13708533346652985,
      -0.01396594662219286,
      -0.01297931931912899,
      0.03926679491996765,
      -0.3467181921005249,
      0.23556533455848694,
      0.15881869196891785,
      -0.5936509966850281,
      0.10219790786504745,
      -0.30637845396995544,
      -0.5433644652366638,
      -0.25352638959884644,
      0.4094330370426178,
      -0.4808460772037506,
      0.3650078773498535,
      0.2293139100074768,
      0.09380737692117691,
      0.1246490404009819,
      0.19827339053153992,
      -0.013128173537552357,
      0.21085824072360992,
      -0.048992838710546494,
      -0.6210950016975403,
      -0.30831167101860046,
      0.08292917162179947,
      -0.2136070430278778,
      -0.011078600771725178,
      -0.09535437077283859,
      -0.6681705117225647,
      -0.5455135703086853,
      0.09316271543502808,
      0.17602874338626862,
      0.34529998898506165,
      0.08895545452833176,
      0.6936142444610596,
      0.038089100271463394,
      0.12017152458429337,
      0.13236872851848602,
      0.039081986993551254,
      -0.009932735934853554,
      -0.4142451286315918,
      -0.5105698108673096,
      0.09632939100265503,
      -0.10700038075447083,
      0.045127276331186295,
      -0.48791536688804626,
      -0.20732006430625916,
      -0.03751462697982788,
      0.4016130566596985,
      -0.18289902806282043,
      0.16510939598083496,
      0.48734232783317566,
      0.16223134100437164,
      0.26164183020591736,
      0.10258077830076218,
      0.15893100202083588,
      0.2014794945716858,
      -0.051500748842954636,
      -0.7277970314025879,
      -0.2533125579357147,
      0.36239978671073914,
      -1.0069105625152588,
      0.16435882449150085,
      0.037257034331560135,
      0.11215823888778687,
      -0.04694807156920433,
      0.02630487270653248,
      -2.7128024101257324,
      -0.046568453311920166,
      -0.16726873815059662,
      0.18719333410263062,
      -0.03108675591647625,
      0.19770073890686035,
      -0.3262314200401306,
      0.40202778577804565,
      -0.19389279186725616,
      0.1178804561495781,
      0.5214515924453735,
      -0.16938312351703644,
      -0.4077986478805542,
      -1.2414464950561523,
      0.022237269207835197,
      -0.1787811666727066,
      -0.10213787853717804,
      -0.011269330978393555,
      -0.09072738885879517,
      -0.017867889255285263,
      0.006087681744247675,
      -0.20154482126235962,
      -0.4648420512676239,
      -0.42773985862731934,
      0.7624269127845764,
      -0.6730329394340515,
      0.46865493059158325,
      1.0549921989440918,
      2.0439722537994385,
      -0.5661758780479431,
      0.7571293711662292,
      -0.3171652555465698,
      -0.48935988545417786,
      -0.11548775434494019,
      -0.5761488676071167,
      -0.18727169930934906,
      0.08310849219560623,
      -0.15399052202701569,
      -0.39823833107948303,
      -0.4469120502471924,
      -1.464942216873169,
      0.02359655871987343,
      0.6297425031661987,
      -0.4375874996185303,
      0.20208249986171722,
      -1.0361894369125366,
      1.807404637336731,
      -0.5218935608863831,
      0.23246966302394867,
      -0.49467647075653076,
      -0.4136096239089966,
      0.0659906417131424,
      -0.4119262993335724,
      -1.7641866207122803,
      -0.6446855664253235,
      -0.18398980796337128,
      -0.8326343297958374,
      -0.3577181398868561,
      -0.8595653772354126,
      0.23622383177280426,
      -0.05277692526578903,
      -0.5319597721099854,
      -0.007919508963823318,
      0.9786674976348877,
      1.6313496828079224,
      -0.538172721862793,
      0.5146657824516296,
      -0.5081504583358765,
      -0.11103701591491699,
      0.12628783285617828,
      -0.16215844452381134,
      -0.31297481060028076,
      -0.1873467117547989,
      0.06459280848503113,
      -0.16972896456718445,
      -0.48630714416503906,
      -0.9487232565879822,
      -0.5381929278373718,
      0.5411890745162964,
      -0.6752064824104309,
      0.09010878950357437,
      0.8182809352874756,
      1.1861323118209839,
      -0.6349820494651794,
      -0.5362530946731567,
      -0.4060235619544983,
      -0.30691948533058167,
      0.07350897789001465,
      -0.34314393997192383,
      -0.08310604840517044,
      -0.0844578668475151,
      0.08065620809793472,
      -0.6145893335342407,
      -0.3495619297027588,
      -0.40134575963020325,
      0.35670870542526245,
      -1.0189765691757202,
      0.4892696440219879,
      0.30265626311302185,
      -2.151474952697754,
      0.011106102727353573,
      0.28888410329818726,
      0.7722867131233215,
      0.7618964314460754,
      0.08490870147943497,
      0.27120184898376465,
      -0.04058936610817909,
      -0.4043128490447998,
      0.15034803748130798,
      -0.3144080936908722,
      0.24344056844711304,
      -0.350739061832428,
      0.173424631357193,
      0.05737996846437454,
      -0.5068442821502686,
      0.25281232595443726,
      0.4600714147090912,
      -2.2296862602233887,
      -0.06908725202083588,
      0.1889495998620987,
      0.4298519492149353,
      0.2936879098415375,
      0.08104666322469711,
      0.2244988977909088,
      0.03459214046597481,
      -0.3560158908367157,
      -0.5117606520652771,
      0.07642006129026413,
      0.16565778851509094,
      -0.021768519654870033,
      0.20334872603416443,
      -0.11054170876741409,
      -0.7630434036254883,
      0.12619224190711975,
      0.32906025648117065,
      -2.197049140930176,
      -1.125542163848877,
      -0.2205234169960022,
      0.7262178659439087,
      0.38040411472320557,
      0.2214806228876114,
      0.015242675319314003,
      0.0607716403901577,
      -0.4061213731765747,
      -0.10535641014575958,
      -0.09419281035661697,
      0.10628939419984818,
      -0.025764821097254753,
      0.21908654272556305,
      0.279574990272522,
      -0.6894347667694092,
      0.28830283880233765,
      0.01997833512723446,
      -2.077831268310547,
      -0.9549958109855652,
      0.23952868580818176,
      0.5728852152824402,
      0.23657818138599396,
      0.07455368340015411,
      0.3858768939971924,
      -0.030302032828330994,
      -0.23266476392745972,
      0.03703252971172333,
      0.11333385109901428,
      0.1310669481754303,
      -0.40882566571235657,
      -0.06447960436344147,
      0.009699164889752865,
      -0.0020907733123749495,
      0.0042299265041947365,
      -0.03595719859004021,
      0.018516670912504196,
      -0.06595297157764435,
      0.023298989981412888,
      -0.03937096893787384,
      0.03542683646082878,
      0.38391056656837463,
      0.669685423374176,
      0.9471962451934814,
      -1.1337800025939941,
      -0.8522042036056519,
      0.39483705163002014,
      -0.4520820379257202,
      -0.8771008253097534,
      0.6142181754112244,
      -0.07694587856531143,
      -0.17925575375556946,
      0.00934520736336708,
      -0.15679123997688293,
      0.22637666761875153,
      -0.317325234413147,
      0.01809774339199066,
      -0.24838416278362274,
      -0.11423862725496292,
      -1.1105049848556519,
      -0.0345853716135025,
      -0.1312168687582016,
      -0.5355229377746582,
      1.6386618614196777,
      -0.01658482477068901,
      -0.26391762495040894,
      -0.5382328033447266,
      -0.2668558657169342,
      -0.1597287803888321,
      -0.4693457782268524,
      -0.06991269439458847,
      -1.1251258850097656,
      -0.1333061158657074,
      -1.1031652688980103,
      -0.8255591988563538,
      0.9174674153327942,
      -0.5501536130905151,
      -0.6315452456474304,
      1.0907011032104492,
      -0.6800127625465393,
      0.5416223406791687,
      1.1268954277038574,
      -0.10509932786226273,
      0.5011110305786133,
      0.5348477959632874,
      -0.9589185118675232,
      -0.31218963861465454,
      0.7420440316200256,
      -1.5585973262786865,
      0.14307288825511932,
      0.3357335031032562,
      -0.8800144195556641,
      -0.12776368856430054,
      0.008171958848834038,
      -0.070377416908741,
      0.7838073372840881,
      -0.25856974720954895,
      -1.3098500967025757,
      0.15638670325279236,
      0.24698051810264587,
      -2.6994714736938477,
      -0.20020224153995514,
      0.4481656849384308,
      -0.3137305974960327,
      0.3650578558444977,
      -0.5027269721031189,
      -0.1882040649652481,
      0.6657915711402893,
      0.5456047058105469,
      -1.9753515720367432,
      -0.04992527887225151,
      -0.643546462059021,
      -0.9769873023033142,
      -0.003310034517198801,
      0.75350022315979,
      -0.07754400372505188,
      -0.04335109889507294,
      1.4738210439682007,
      0.09585864841938019,
      -0.8935673236846924,
      -0.4273891746997833,
      -0.5764822959899902,
      -0.6126506328582764,
      0.17302824556827545,
      -0.6629881858825684,
      -0.7186088562011719,
      0.19909435510635376,
      -0.842140793800354,
      -0.7752563953399658,
      0.509814977645874,
      -0.5729658603668213,
      0.08209840208292007,
      -0.29577934741973877,
      -0.3338450491428375,
      0.2745046019554138,
      -0.20035310089588165,
      0.03923873230814934,
      0.31356915831565857,
      0.15046830475330353,
      0.2580432891845703,
      0.06448964774608612,
      -0.14491356909275055,
      0.007412287872284651,
      -0.0736548975110054,
      -0.19892281293869019,
      0.2491234987974167,
      0.0700683444738388,
      0.09494487196207047,
      0.11948743462562561,
      -0.034550756216049194,
      -0.2293698489665985,
      0.04970509931445122,
      0.10305267572402954,
      -0.1397511065006256,
      -0.09042070806026459,
      0.29606756567955017,
      0.07666785269975662,
      0.516841471195221,
      0.016647595912218094,
      -0.1914101541042328,
      0.2921105921268463,
      -0.1733095496892929,
      -0.22677268087863922,
      0.052061062306165695,
      0.1555423140525818,
      0.15707512199878693,
      0.11296838521957397,
      -0.12001143395900726,
      -0.23249834775924683,
      0.0925082117319107,
      0.11056926101446152,
      -0.032851554453372955,
      -0.34907540678977966,
      0.48385515809059143,
      0.2268625944852829,
      0.6361711621284485,
      -0.01674739457666874,
      0.04114452749490738,
      -0.06162738800048828,
      -0.09488433599472046,
      -0.21040910482406616,
      0.257676362991333,
      0.01762578822672367,
      0.12589725852012634,
      0.06539961695671082,
      0.02287636697292328,
      0.3049522936344147,
      -0.39619162678718567,
      0.4904884397983551,
      -0.5452988743782043,
      0.028194822371006012,
      0.18359585106372833,
      0.276098370552063,
      0.4809786081314087,
      0.08467395603656769,
      -0.08322013914585114,
      0.11052206158638,
      -0.10148414224386215,
      -0.13171464204788208,
      0.20260843634605408,
      0.06556696444749832,
      0.01875166967511177,
      0.1161528006196022,
      -0.0242841187864542,
      -0.05279049277305603,
      -0.003051899839192629,
      -0.041036639362573624,
      0.0516200065612793,
      -0.08254227042198181,
      -0.013313999399542809,
      0.0996609777212143,
      -0.038019418716430664,
      -0.3961896300315857,
      0.2555252015590668,
      -0.12297225743532181,
      0.23937299847602844,
      0.31997033953666687,
      -0.03433690592646599,
      0.05754862725734711,
      0.160810649394989,
      0.2647733986377716,
      0.1815437227487564,
      -0.04448039457201958,
      0.12235352396965027,
      -0.04003312438726425,
      0.30630409717559814,
      -0.26798197627067566,
      -0.042605649679899216,
      -0.14334799349308014,
      -0.007551904767751694,
      1.195394515991211,
      -1.7628146409988403,
      1.060410499572754,
      0.5369201898574829,
      1.7464710474014282,
      -0.33457595109939575,
      0.6094334721565247,
      0.5164848566055298,
      0.6206241846084595,
      0.42654773592948914,
      0.3694789707660675,
      0.24964311718940735,
      -0.7924655675888062,
      -0.591766357421875,
      -0.8404442071914673,
      -0.2024199515581131,
      0.41681763529777527,
      0.11975724995136261,
      1.0296026468276978,
      0.7319397926330566,
      1.0484923124313354,
      1.251492977142334,
      -0.11884087324142456,
      0.18713581562042236,
      0.6384834051132202,
      1.0763280391693115,
      0.24425724148750305,
      -0.2322641909122467,
      -0.8547618985176086,
      -0.5860822200775146,
      -0.6514546871185303,
      0.7195115685462952,
      0.027169859036803246,
      -0.265777051448822,
      -0.6707523465156555,
      -0.7086508870124817,
      1.3510291576385498,
      0.8318657875061035,
      1.0642162561416626,
      0.6052230596542358,
      -1.0647817850112915,
      0.642394483089447,
      0.9134397506713867,
      -0.7926193475723267,
      0.6423749923706055,
      -1.0465052127838135,
      -1.3657302856445312,
      -0.7953780293464661,
      0.450927734375,
      -0.638026773929596,
      -0.38852962851524353,
      -0.4095900356769562,
      0.08310475200414658,
      0.10494394600391388,
      1.0705845355987549,
      1.3260573148727417,
      0.8690626621246338,
      1.2174112796783447,
      -1.3809844255447388,
      0.9449036121368408,
      0.8871500492095947,
      1.0665256977081299,
      0.3210935890674591,
      0.029720067977905273,
      -0.3620206415653229,
      -0.21963311731815338,
      -0.6518225073814392,
      0.3032274842262268,
      -0.29651960730552673,
      -0.3264728784561157,
      -0.060015205293893814,
      0.12425082176923752,
      0.06225045770406723,
      0.4924849569797516,
      0.3799079954624176,
      0.05451769754290581,
      0.08690812438726425,
      0.2659448981285095,
      -0.02557586133480072,
      -0.050616443157196045,
      0.13016995787620544,
      -0.0007888523978181183,
      0.0439985990524292,
      0.07627253234386444,
      -0.13332541286945343,
      -0.1533343642950058,
      -0.1342983990907669,
      0.16856525838375092,
      0.1089027002453804,
      0.08163798600435257,
      0.18692782521247864,
      0.46707478165626526,
      0.21630501747131348,
      -0.42161980271339417,
      0.013974613510072231,
      -0.07028412818908691,
      0.1892322599887848,
      0.08980055898427963,
      0.08105193078517914,
      0.027737418189644814,
      0.09138589352369308,
      -0.040893781930208206,
      -0.22254137694835663,
      -0.04072988033294678,
      -0.04774581268429756,
      0.029073020443320274,
      0.17626814544200897,
      0.1191876009106636,
      0.25184985995292664,
      0.3244110941886902,
      0.1783917397260666,
      0.12246030569076538,
      -0.10537418723106384,
      0.10754542797803879,
      0.2761615812778473,
      0.007413587998598814,
      0.10859476774930954,
      0.08730550855398178,
      -0.07501237839460373,
      0.006866266019642353,
      -0.24129612743854523,
      -0.07407167553901672,
      -0.0008846753626130521,
      0.12017254531383514,
      0.17736071348190308,
      0.1596076339483261,
      0.24133428931236267,
      0.3727826178073883,
      0.23046815395355225,
      -0.16652099788188934,
      0.24146802723407745,
      0.22362679243087769,
      0.09204048663377762,
      0.1969098150730133,
      0.11542142927646637,
      0.03252369910478592,
      0.02250523865222931,
      -0.0380081944167614,
      -0.22288087010383606,
      -0.055879201740026474,
      -0.02683437056839466,
      0.16851983964443207,
      -0.008992485702037811,
      0.16309574246406555,
      0.05820449814200401,
      -1.7034850120544434,
      -0.05940265953540802,
      0.14012792706489563,
      -1.9031554460525513,
      0.15668754279613495,
      -0.07323702424764633,
      0.14078381657600403,
      -0.13142454624176025,
      0.24322918057441711,
      0.028375232592225075,
      -0.12800993025302887,
      0.0425553135573864,
      -1.5558702945709229,
      -1.3874181509017944,
      -0.28907421231269836,
      -1.0567688941955566,
      -0.5211890339851379,
      0.141554057598114,
      -0.0728987529873848,
      0.05296526849269867,
      0.07965563982725143,
      0.09141277521848679,
      0.06902039051055908,
      -0.08987240493297577,
      0.13090866804122925,
      -0.03499384969472885,
      0.17123565077781677,
      -0.2718159258365631,
      0.17636297643184662,
      -0.3466419279575348,
      1.4884710311889648,
      0.2351730614900589,
      0.35467657446861267,
      -1.697933554649353,
      -0.06945675611495972,
      -0.28655990958213806,
      -0.8195732235908508,
      -0.4282980263233185,
      0.7752319574356079,
      -0.07470175623893738,
      0.7149215936660767,
      0.041874878108501434,
      -0.6403928995132446,
      -0.4214935302734375,
      -0.8082904815673828,
      -1.374231219291687,
      -0.5048394203186035,
      -0.35298511385917664,
      1.0447196960449219,
      -0.45838621258735657,
      0.41731512546539307,
      0.029982514679431915,
      0.07047244906425476,
      0.22765052318572998,
      0.08831191807985306,
      0.19331228733062744,
      0.30665111541748047,
      -0.9999967813491821,
      0.2304128259420395,
      0.12311232089996338,
      -0.29918530583381653,
      -0.1227986067533493,
      -2.2754335403442383,
      0.09841649234294891,
      -2.2479748725891113,
      -1.0431671142578125,
      1.7556072473526,
      -0.541547954082489,
      0.358310729265213,
      0.5677076578140259,
      0.11787530779838562,
      -0.5803797245025635,
      0.01915634237229824,
      -0.4191109240055084,
      -0.2128651738166809,
      0.44814687967300415,
      -0.49779024720191956,
      -0.4341474175453186,
      -0.2651173174381256,
      -0.3045448362827301,
      0.49265217781066895,
      -2.5433566570281982,
      0.3826322853565216,
      -0.8119364976882935,
      0.9283120036125183,
      0.6473114490509033,
      0.3352886140346527,
      0.33938634395599365,
      -0.17617864906787872,
      0.24551813304424286,
      0.1697891503572464,
      -0.0826450064778328,
      0.12560902535915375,
      -0.23660242557525635,
      0.04628032445907593,
      0.38691210746765137,
      -0.6441803574562073,
      -0.8241321444511414,
      -1.1408498287200928,
      -0.9465590715408325,
      -0.146804079413414,
      -0.032323867082595825,
      0.3885353207588196,
      0.20684371888637543,
      -0.4392514228820801,
      0.07067540287971497,
      -0.2876853048801422,
      -0.3150638937950134,
      -0.3382374048233032,
      -0.012603780254721642,
      0.16193288564682007,
      -0.19915564358234406,
      -0.2713905870914459,
      0.04524082690477371,
      -0.20479868352413177,
      0.06486999243497849,
      -0.8799156546592712,
      -1.0342741012573242,
      0.09947539120912552,
      -0.0930798202753067,
      -0.2850606143474579,
      0.29983800649642944,
      -0.04487357288599014,
      -0.04514501988887787,
      -0.26698964834213257,
      -0.38444241881370544,
      -0.34682542085647583,
      -0.10779764503240585,
      0.1370328962802887,
      0.05221113562583923,
      -0.21476905047893524,
      -0.003371478756889701,
      -0.5320823192596436,
      0.06254615634679794,
      -1.0441945791244507,
      -1.2983503341674805,
      0.21444305777549744,
      -0.31621530652046204,
      0.3489886522293091,
      0.2898666560649872,
      -0.3525039553642273,
      -0.019729336723685265,
      -0.293230265378952,
      -0.23542514443397522,
      -0.33254513144493103,
      -0.0365801677107811,
      0.210555300116539,
      -0.4649953544139862,
      -0.1528089940547943,
      -0.09985323250293732,
      -0.12691305577754974,
      -0.01582144759595394,
      -1.0302215814590454,
      -1.2391881942749023,
      -0.5337491631507874,
      -0.29316478967666626,
      0.10828287899494171,
      0.1349317580461502,
      -0.35394495725631714,
      -0.05614769458770752,
      -0.16778576374053955,
      -0.33196038007736206,
      -0.5774483680725098,
      0.03764096647500992,
      0.15104207396507263,
      -0.28640517592430115,
      -0.16534966230392456,
      0.03694657236337662,
      -0.20885616540908813,
      -0.06129026412963867,
      -0.015584470704197884,
      -0.5270959734916687,
      -0.003372729988768697,
      -0.09860385209321976,
      0.4866560101509094,
      -0.1403287649154663,
      -0.031333912163972855,
      0.07863778620958328,
      -0.08647052198648453,
      -0.1527586281299591,
      0.4625670313835144,
      -0.2021024376153946,
      0.673717737197876,
      0.5630882382392883,
      0.5261419415473938,
      0.05543920397758484,
      0.32553595304489136,
      -0.37240710854530334,
      0.20673008263111115,
      -0.10882124304771423,
      0.040736205875873566,
      0.015119632706046104,
      0.09435131400823593,
      0.11607256531715393,
      -0.0695234164595604,
      0.19759778678417206,
      -0.050228577107191086,
      -0.2518415153026581,
      -0.30032792687416077,
      -0.11454807966947556,
      -1.6091452836990356,
      -0.5753958821296692,
      -1.5479426383972168,
      -0.4642108082771301,
      -0.30015870928764343,
      -0.7239434123039246,
      0.7939361929893494,
      0.5843948125839233,
      0.6845284700393677,
      0.4657699465751648,
      0.37791433930397034,
      0.29899364709854126,
      0.20584236085414886,
      0.3626702129840851,
      0.3541404902935028,
      0.013660849072039127,
      -0.9845795631408691,
      -0.12252040952444077,
      -0.30304062366485596,
      -0.8211042881011963,
      -0.3124332129955292,
      0.15080899000167847,
      0.3668147325515747,
      0.20527030527591705,
      0.31136947870254517,
      0.47636327147483826,
      0.5655556321144104,
      0.3488438129425049,
      0.40825825929641724,
      0.30415078997612,
      0.048344239592552185,
      0.330320805311203,
      0.18507513403892517,
      -0.047925207763910294,
      -0.5947074890136719,
      -0.13089816272258759,
      -0.9377554059028625,
      -1.188533902168274,
      -1.2116864919662476,
      0.2881762683391571,
      0.6264777183532715,
      0.18620038032531738,
      0.5158040523529053,
      0.7085579037666321,
      0.726028323173523,
      -0.11887585371732712,
      -0.46363168954849243,
      -0.010292349383234978,
      0.29419320821762085,
      0.4702153503894806,
      0.24880073964595795,
      -0.2011639028787613,
      -1.3404662609100342,
      -0.5471885800361633,
      -0.9484190940856934,
      -1.2995942831039429,
      -1.548965334892273,
      -0.27629971504211426,
      -0.2451547086238861,
      -0.6367437839508057,
      0.6835060715675354,
      0.5489121675491333,
      0.44640275835990906,
      0.3578214943408966,
      -0.3470420837402344,
      0.5086318254470825,
      0.3561992049217224,
      0.43739768862724304,
      0.16161534190177917,
      0.04748415946960449,
      -1.3725391626358032,
      0.18406499922275543,
      0.003927751909941435,
      -0.3110344111919403,
      -0.37703609466552734,
      0.1010192260146141,
      -0.06881456077098846,
      0.00472033629193902,
      -0.6759478449821472,
      -0.40861305594444275,
      -0.11217758059501648,
      0.13828545808792114,
      0.32874032855033875,
      -0.06350119411945343,
      -0.33507591485977173,
      0.4322843849658966,
      -0.221745103597641,
      0.3520250618457794,
      -3.224243640899658,
      0.47500932216644287,
      -0.39579182863235474,
      -0.7972403168678284,
      -0.4619218111038208,
      -0.14746148884296417,
      -0.21855464577674866,
      0.042670492082834244,
      -0.3179348409175873,
      -0.7236043810844421,
      -0.2622660994529724,
      0.001634795218706131,
      0.26968634128570557,
      -0.03960898891091347,
      -0.3667365610599518,
      0.8531890511512756,
      -0.4687866270542145,
      0.6524755954742432,
      -1.1636120080947876,
      0.3608786463737488,
      -0.5579655170440674,
      -0.7486701011657715,
      -0.9279752969741821,
      -0.06681961566209793,
      0.024104462936520576,
      -0.29976826906204224,
      -0.10211463272571564,
      -0.7127110958099365,
      -0.13437683880329132,
      -0.3783451318740845,
      -0.09628916531801224,
      -0.3026144802570343,
      -0.3051067292690277,
      0.7836633324623108,
      -0.21631495654582977,
      0.20975133776664734,
      -1.4059944152832031,
      0.31231746077537537,
      -0.13759809732437134,
      -0.5681501030921936,
      -0.2958252429962158,
      -0.1497153639793396,
      -0.005092819221317768,
      0.027181096374988556,
      -0.6015654802322388,
      -0.4488735795021057,
      -0.0518171526491642,
      0.05420819669961929,
      0.13096968829631805,
      -0.29198065400123596,
      -0.40812069177627563,
      0.6171324253082275,
      -0.18201766908168793,
      -0.03654114902019501,
      0.03949136286973953,
      0.018987495452165604,
      -2.8272664546966553,
      -0.07015926390886307,
      0.06667471677064896,
      -0.05450668931007385,
      0.009401900693774223,
      0.015463004820048809,
      0.30900871753692627,
      0.2549663782119751,
      -0.0495898611843586,
      0.7512410879135132,
      0.3614059388637543,
      -0.07588732987642288,
      -0.29953470826148987,
      0.7258937954902649,
      -0.2660956084728241,
      0.12204448133707047,
      0.15612947940826416,
      -0.03693758696317673,
      -0.335390567779541,
      0.0625886619091034,
      -0.020603587850928307,
      0.23774832487106323,
      -0.0026829640846699476,
      -0.022349907085299492,
      1.4591819047927856,
      0.3013014495372772,
      -0.45157158374786377,
      0.8181040287017822,
      -0.6457046270370483,
      -0.7366878390312195,
      1.533083438873291,
      0.42224639654159546,
      -0.8152047395706177,
      -0.23637697100639343,
      0.048043057322502136,
      0.2707199454307556,
      -1.9871599674224854,
      0.1245245635509491,
      0.06137862429022789,
      -0.348941832780838,
      0.08471878618001938,
      0.061683256179094315,
      0.07914818078279495,
      0.5629037022590637,
      -0.7859063148498535,
      0.7166266441345215,
      -0.43957453966140747,
      -0.30643486976623535,
      1.1773192882537842,
      0.2745230197906494,
      -0.5516400933265686,
      0.15351776778697968,
      -0.04361369088292122,
      -0.016504304483532906,
      -0.44755634665489197,
      0.046580635011196136,
      0.30298933386802673,
      -0.40855154395103455,
      0.1945219188928604,
      -0.08929512649774551,
      -0.8277158141136169,
      0.22291944921016693,
      -0.7989439368247986,
      -1.257688045501709,
      -0.7755225300788879,
      -0.4447789192199707,
      1.2412168979644775,
      0.3390010595321655,
      -0.8695128560066223,
      0.9620121121406555,
      -0.24347400665283203,
      -0.05948435142636299,
      -0.6625041365623474,
      -0.46128931641578674,
      0.3572652041912079,
      -0.22964470088481903,
      0.26091957092285156,
      -0.16484929621219635,
      -0.8096923232078552,
      -1.1229735612869263,
      -0.3179028630256653,
      1.0708324909210205,
      -1.4871047735214233,
      0.31033241748809814,
      1.5665239095687866,
      0.4138479232788086,
      -0.24480369687080383,
      0.3367050290107727,
      0.20250540971755981,
      -0.06462518870830536,
      -0.21031467616558075,
      -0.21445706486701965,
      0.36103758215904236,
      -0.3612593412399292,
      0.3752726912498474,
      -0.11147347092628479,
      -1.3015284538269043,
      -0.05146263167262077,
      0.124471515417099,
      -2.0365593433380127,
      -0.3775036633014679,
      0.26173293590545654,
      0.23703575134277344,
      0.20619527995586395,
      -0.14610891044139862,
      -0.26900890469551086,
      -0.13617020845413208,
      -0.036225106567144394,
      -0.11352196335792542,
      -0.08327232301235199,
      0.3045080602169037,
      -0.3008941411972046,
      0.017783597111701965,
      -0.04970000684261322,
      -1.3477622270584106,
      0.0288553349673748,
      0.35441845655441284,
      -2.2279629707336426,
      -0.4764248728752136,
      0.2081308662891388,
      -0.289263516664505,
      0.2685242295265198,
      -0.0998295247554779,
      -0.4270362854003906,
      0.2489222139120102,
      -0.10891109704971313,
      0.006822827737778425,
      -0.6177615523338318,
      0.26794856786727905,
      -0.4461577832698822,
      0.29495176672935486,
      -0.0010329883079975843,
      -1.2547210454940796,
      -0.048438820987939835,
      0.13199153542518616,
      -2.109743595123291,
      -0.6092919707298279,
      0.30522772669792175,
      -0.04238764941692352,
      0.14397668838500977,
      0.28859537839889526,
      -0.440543532371521,
      0.18042753636837006,
      -0.12635543942451477,
      0.05409608781337738,
      -0.495611310005188,
      0.1604567915201187,
      -0.40574225783348083,
      0.13322575390338898,
      0.18466009199619293,
      -1.4164799451828003,
      -0.1003611832857132,
      0.2411571741104126,
      -1.6521801948547363,
      -0.3855956196784973,
      0.2503420412540436,
      -0.3237806260585785,
      0.33673590421676636,
      -0.15308032929897308,
      -0.23060962557792664,
      -0.021993832662701607,
      -0.07706134021282196,
      0.05568002164363861,
      -0.4877740144729614,
      0.2993156313896179,
      -0.4413319528102875,
      0.31242504715919495,
      0.007839439436793327,
      0.08836905658245087,
      0.019433900713920593,
      0.021566255018115044,
      0.044239964336156845,
      0.022672999650239944,
      0.012273772619664669,
      -0.11035207659006119,
      -0.1688174605369568,
      -0.09835213422775269,
      0.2915327847003937,
      0.04842960461974144,
      0.1111317053437233,
      0.3232493996620178,
      0.3746204376220703,
      0.05021515488624573,
      0.17199906706809998,
      0.06554907560348511,
      0.09102512151002884,
      0.07056043297052383,
      0.17177024483680725,
      -0.14952155947685242,
      0.039078451693058014,
      -0.23190100491046906,
      -0.000825994648039341,
      -0.14465495944023132,
      -0.05493871122598648,
      -0.013415100984275341,
      0.49271872639656067,
      0.3858014643192291,
      0.12029431760311127,
      0.5979212522506714,
      0.9216122627258301,
      0.36511456966400146,
      -0.13092657923698425,
      0.3971758186817169,
      0.4253471791744232,
      -1.368109941482544,
      0.5177178978919983,
      -0.3208460211753845,
      -1.2773518562316895,
      0.6540824174880981,
      0.2978630065917969,
      -0.40943941473960876,
      -0.9880440831184387,
      -1.9209173917770386,
      1.8954331874847412,
      1.40464448928833,
      0.22673168778419495,
      0.8531177639961243,
      1.2988201379776,
      -1.4554574489593506,
      1.2052427530288696,
      1.1672641038894653,
      0.6508058905601501,
      -0.914170503616333,
      0.1741790920495987,
      -0.6801106929779053,
      -1.0964385271072388,
      -0.2747025787830353,
      -0.4714176058769226,
      -0.6426143646240234,
      0.06381957232952118,
      0.014735436998307705,
      -2.423027992248535,
      0.8570269346237183,
      -0.8374578952789307,
      -1.9455739259719849,
      1.5103615522384644,
      -1.7766345739364624,
      1.1199110746383667,
      0.8339799642562866,
      0.270965039730072,
      -1.4265666007995605,
      0.7953075170516968,
      -0.5224304795265198,
      -1.2805265188217163,
      0.22563640773296356,
      -1.1663398742675781,
      -1.3364053964614868,
      0.22066843509674072,
      -1.0518988370895386,
      0.5985152125358582,
      0.6882678270339966,
      0.21798808872699738,
      0.6734368801116943,
      0.3674231171607971,
      -0.1354900449514389,
      0.16955254971981049,
      0.3325774371623993,
      -0.9252896308898926,
      -1.2523714303970337,
      0.9463715553283691,
      -0.3630513548851013,
      -0.7632162570953369,
      0.7804796099662781,
      -0.27165308594703674,
      -0.18478919565677643,
      -1.4333500862121582,
      -0.5873134136199951,
      -0.013072893023490906,
      0.004404935985803604,
      -0.1576681286096573,
      -0.3438197076320648,
      0.2217000126838684,
      -0.5308501124382019,
      -0.4654890298843384,
      -0.2725070118904114,
      -0.14484049379825592,
      -0.03883577883243561,
      -0.3434135615825653,
      0.12526875734329224,
      0.06188672408461571,
      -0.027093322947621346,
      0.048609659075737,
      -0.09541437774896622,
      0.015862032771110535,
      -0.057615261524915695,
      0.09146463871002197,
      0.5861965417861938,
      0.037495728582143784,
      0.07126041501760483,
      -0.09291151165962219,
      -0.31998738646507263,
      -0.291335791349411,
      -0.184276282787323,
      -0.1990199238061905,
      -0.07586971670389175,
      -0.27230343222618103,
      0.1001448780298233,
      -0.11186728626489639,
      -0.416047066450119,
      0.07304733246564865,
      0.09365738183259964,
      -0.23338599503040314,
      -0.01832587458193302,
      0.1751929372549057,
      0.13929034769535065,
      -0.1995983123779297,
      -0.012949035502970219,
      -0.16568700969219208,
      -0.41925519704818726,
      -0.4545818865299225,
      -0.16395442187786102,
      -0.0765676349401474,
      -0.031345948576927185,
      -0.39356178045272827,
      0.18250368535518646,
      -0.021785754710435867,
      -0.11586235463619232,
      -0.007358446251600981,
      0.06955069303512573,
      -0.1709582507610321,
      -0.0042342026717960835,
      0.07120415568351746,
      0.14997254312038422,
      -0.20203064382076263,
      -0.16012848913669586,
      0.2632840573787689,
      -0.4153172969818115,
      -0.34160417318344116,
      -0.1491464227437973,
      -0.11918628960847855,
      -0.03311532363295555,
      -0.19521120190620422,
      0.09487096965312958,
      -0.04525468125939369,
      0.0379951186478138,
      0.078872911632061,
      0.018161049112677574,
      -0.1654280424118042,
      -0.00679620960727334,
      0.047111306339502335,
      0.024712538346648216,
      -0.17277735471725464,
      -0.13219180703163147,
      -0.5089496970176697,
      -0.28949838876724243,
      0.028531227260828018,
      0.14852923154830933,
      0.0285786259919405,
      0.021215230226516724,
      0.27148908376693726,
      -0.09532281011343002,
      0.30079302191734314,
      -0.08767697215080261,
      0.29589375853538513,
      -0.882759153842926,
      -0.9045355916023254,
      -1.0686004161834717,
      0.18431366980075836,
      -0.05853816866874695,
      0.05839521065354347,
      -0.26417210698127747,
      -0.07549390941858292,
      0.058079030364751816,
      -0.012929651886224747,
      -0.04840799421072006,
      0.01845814846456051,
      -1.0570392608642578,
      -0.5339744687080383,
      0.6067100763320923,
      -1.6931363344192505,
      -1.8732668161392212,
      0.5342326760292053,
      0.5755881667137146,
      0.516061544418335,
      1.2259080410003662,
      0.16572874784469604,
      0.42064687609672546,
      -0.09483925998210907,
      -1.08341383934021,
      0.4109005331993103,
      0.09388748556375504,
      -0.350891649723053,
      -0.3629697561264038,
      0.3679550588130951,
      -1.2125622034072876,
      -0.5006853342056274,
      0.4060267508029938,
      0.5085316896438599,
      1.000988483428955,
      0.44596418738365173,
      0.2701144814491272,
      0.6409979462623596,
      0.4400083124637604,
      -0.027699235826730728,
      -2.09812331199646,
      0.09789720177650452,
      0.0706804096698761,
      -0.8862841725349426,
      0.20178067684173584,
      -1.9252432584762573,
      -1.1375240087509155,
      0.4501420855522156,
      -0.36618420481681824,
      -0.09091036766767502,
      0.4777432382106781,
      0.5132954120635986,
      0.18669159710407257,
      0.626397430896759,
      0.2902146577835083,
      0.696994960308075,
      1.0596364736557007,
      0.03363272547721863,
      0.23293201625347137,
      0.12718725204467773,
      -0.2090270072221756,
      -0.23407654464244843,
      -0.11976146697998047,
      -0.13336296379566193,
      0.015896299853920937,
      0.2501256465911865,
      0.5920383930206299,
      1.1018441915512085,
      0.6769077777862549,
      0.4858345091342926,
      0.6947060823440552,
      0.8389347195625305,
      0.6260692477226257,
      0.9759753346443176,
      0.9250764846801758,
      -0.01827114447951317,
      -0.3694505989551544,
      -0.022160369902849197,
      0.26826271414756775,
      0.6661641597747803,
      0.13957436382770538,
      -0.5522883534431458,
      -0.7031549215316772,
      -0.1397537738084793,
      -0.08440007269382477,
      -0.14132067561149597,
      -0.2693357765674591,
      -0.11046560108661652,
      -0.25661537051200867,
      -0.34138157963752747,
      0.049699559807777405,
      0.11422412097454071,
      -0.028640784323215485,
      0.004277519881725311,
      -0.10919302701950073,
      -0.10964497923851013,
      -0.04295901581645012,
      -0.10423941165208817,
      -0.1637847125530243,
      0.05151880159974098,
      0.060907721519470215,
      -0.049571651965379715,
      0.038471490144729614,
      -0.008990705944597721,
      -0.20129993557929993,
      -0.19345764815807343,
      -0.37305518984794617,
      -0.7558250427246094,
      0.005795287899672985,
      -0.35015594959259033,
      0.13735222816467285,
      0.048172544687986374,
      -0.07814956456422806,
      -0.1674887239933014,
      -0.3359515070915222,
      0.15461590886116028,
      -0.1323658525943756,
      0.23860417306423187,
      -0.13142739236354828,
      -0.04235704243183136,
      -0.15946312248706818,
      0.2594405710697174,
      -0.9106289744377136,
      0.0780126303434372,
      -0.026084881275892258,
      -0.614348292350769,
      -0.02012910693883896,
      0.22365793585777283,
      0.15520162880420685,
      0.011033931747078896,
      -0.11688610911369324,
      -0.20455022156238556,
      0.07017800956964493,
      -0.1300218254327774,
      -0.10871171206235886,
      0.09775004535913467,
      0.15380753576755524,
      -0.17680703103542328,
      -0.06785592436790466,
      0.3758902847766876,
      -0.2517385184764862,
      -0.3650147318840027,
      -0.08578117936849594,
      -0.9266143441200256,
      -0.013493012636899948,
      0.2236720621585846,
      -0.16148512065410614,
      0.0005130635690875351,
      -0.10504322499036789,
      -0.2714339792728424,
      -0.055882930755615234,
      0.06144557520747185,
      -0.08073621988296509,
      0.09225793927907944,
      0.01677125133574009,
      -0.23309963941574097,
      -0.013760819099843502,
      -0.09897025674581528,
      0.09795238822698593,
      0.006201856303960085,
      0.05507408455014229,
      0.04052658751606941,
      -0.0008921410772018135,
      -0.0011306669330224395,
      0.11722051352262497,
      0.09614728391170502,
      0.032123081386089325,
      -0.05740830674767494,
      0.06234247237443924,
      0.14245517551898956,
      -0.12110613286495209,
      0.11174757778644562,
      -0.750376284122467,
      0.12715883553028107,
      -0.06738781929016113,
      0.016725914552807808,
      0.004891758318990469,
      0.12403405457735062,
      0.06550826877355576,
      0.1533931940793991,
      0.0026819666381925344,
      0.03541840240359306,
      -0.17470592260360718,
      0.007625828962773085,
      -1.6091160774230957,
      -0.1627054363489151,
      -0.43753454089164734,
      -1.6430233716964722,
      0.0710725262761116,
      0.10750877857208252,
      0.05974280461668968,
      0.2668953537940979,
      -0.022756896913051605,
      -0.37057819962501526,
      0.0867530032992363,
      0.39700502157211304,
      0.08253376930952072,
      0.33297285437583923,
      0.39409488439559937,
      0.2544698417186737,
      0.3942134976387024,
      -0.33648672699928284,
      -1.590797781944275,
      -0.20685827732086182,
      -0.11089267581701279,
      -1.570766806602478,
      -0.22090505063533783,
      0.022493088617920876,
      -0.11534144729375839,
      0.018843594938516617,
      -0.13621821999549866,
      0.13600417971611023,
      -0.02505187690258026,
      0.2428060621023178,
      0.11441142112016678,
      0.07250314950942993,
      0.05789488926529884,
      0.28152018785476685,
      -0.10510500520467758,
      -0.843157172203064,
      -1.1817560195922852,
      -1.0845887660980225,
      0.22108177840709686,
      -0.8648632764816284,
      -0.010296943597495556,
      -0.01612919382750988,
      0.03258153796195984,
      0.2746579647064209,
      -0.3622013032436371,
      0.3843691349029541,
      -0.32667338848114014,
      0.40381985902786255,
      -0.22892019152641296,
      0.2537890076637268,
      0.2975938618183136,
      0.43418464064598083,
      0.20088078081607819,
      -0.11605298519134521,
      -0.26786884665489197,
      -0.4632863998413086,
      -0.4174076318740845,
      -0.8834359645843506,
      -0.6756908893585205,
      -0.01534708496183157,
      -0.10746801644563675,
      0.09668523818254471,
      -0.11537541449069977,
      0.32605767250061035,
      0.043722063302993774,
      0.2533903121948242,
      0.33193203806877136,
      0.22711491584777832,
      0.5137466192245483,
      0.13713334500789642,
      0.39659619331359863,
      0.9206123352050781,
      0.3415471613407135,
      1.1587880849838257,
      0.9521263837814331,
      0.6374258399009705,
      1.4426794052124023,
      0.6566465497016907,
      0.9460926651954651,
      -0.5093135833740234,
      0.5696828365325928,
      0.6494022011756897,
      0.6697070598602295,
      0.23507902026176453,
      -0.005710406694561243,
      0.37599843740463257,
      -0.12930411100387573,
      0.21526359021663666,
      -0.1391676962375641,
      1.0647088289260864,
      1.052780032157898,
      0.9252490997314453,
      0.8954717516899109,
      0.8998222351074219,
      1.1132572889328003,
      0.7290154099464417,
      1.0218333005905151,
      -0.2336057722568512,
      0.6086053848266602,
      0.6052597165107727,
      0.6363076567649841,
      0.11632359027862549,
      0.18170469999313354,
      0.23448781669139862,
      -0.04150347411632538,
      0.2044336497783661,
      0.0665321797132492,
      1.0053998231887817,
      1.0159125328063965,
      1.1272320747375488,
      0.8814854025840759,
      0.8235069513320923,
      0.9033466577529907,
      0.7628304958343506,
      0.6237061023712158,
      1.2688590288162231,
      0.5862036347389221,
      0.5407842397689819,
      0.6289200782775879,
      0.12921349704265594,
      0.10184414684772491,
      0.28158825635910034,
      0.09067033976316452,
      0.18008626997470856,
      0.046457767486572266,
      0.9420264363288879,
      1.121477723121643,
      0.45595747232437134,
      0.5641728639602661,
      1.0811069011688232,
      0.9008671045303345,
      0.7064091563224792,
      0.9615504741668701,
      0.6387692093849182,
      0.722770631313324,
      0.667731761932373,
      0.5279126167297363,
      0.20731419324874878,
      0.15900075435638428,
      0.39555418491363525,
      -0.09984583407640457,
      0.1416579633951187,
      -0.0370996855199337,
      0.00404201028868556,
      -0.011791083961725235,
      0.0029266064520925283,
      -0.35495999455451965,
      0.07921396940946579,
      -0.37481966614723206,
      -0.06956728547811508,
      -0.4690563976764679,
      0.05873614922165871,
      -0.04539458081126213,
      0.09894704073667526,
      0.15871430933475494,
      0.07498019933700562,
      0.5770686268806458,
      -0.04497653618454933,
      0.6619982123374939,
      0.6402332782745361,
      0.6756364703178406,
      -0.30460622906684875,
      0.4050915837287903,
      -0.559979259967804,
      0.09108332544565201,
      0.22209526598453522,
      -0.2687884271144867,
      -0.11396895349025726,
      0.11932989209890366,
      0.0316658653318882,
      -0.862614095211029,
      -0.8312768340110779,
      -1.358315110206604,
      -0.8500093817710876,
      0.13165955245494843,
      -1.3110308647155762,
      0.33914870023727417,
      0.17534944415092468,
      -0.04650774970650673,
      0.4727456569671631,
      0.39567098021507263,
      0.28992825746536255,
      -0.129632830619812,
      -0.03900871425867081,
      0.17268936336040497,
      0.1684693694114685,
      0.10920789837837219,
      0.5269789099693298,
      -1.4748479127883911,
      -0.8931663036346436,
      -1.1594394445419312,
      -0.6560854315757751,
      0.4013636112213135,
      -0.47925129532814026,
      0.12587779760360718,
      -0.0601474866271019,
      -0.5031029582023621,
      0.2086593359708786,
      0.4171680212020874,
      0.2859663665294647,
      0.16828860342502594,
      0.1721358448266983,
      0.24415726959705353,
      0.3013359010219574,
      -0.13195478916168213,
      0.4427081048488617,
      -1.6779756546020508,
      -0.7932820916175842,
      -0.9264203906059265,
      -1.275706171989441,
      0.29926687479019165,
      -1.174884557723999,
      -0.1615799069404602,
      0.16595175862312317,
      -0.23812733590602875,
      0.18136277794837952,
      0.45184552669525146,
      0.13466648757457733,
      0.3639152944087982,
      0.1387021392583847,
      0.4934878349304199,
      0.49924662709236145,
      0.030475355684757233,
      0.5410937070846558,
      -1.6234772205352783,
      -0.8475456237792969,
      -1.5285582542419434,
      -1.1016755104064941,
      0.22397702932357788,
      -1.3769313097000122,
      0.03247527778148651,
      -0.023990346118807793,
      -0.3043287992477417,
      0.3136511743068695,
      0.3523387610912323,
      0.28085994720458984,
      0.19781240820884705,
      0.2999224066734314,
      0.2258508801460266,
      0.2796034812927246,
      0.13618601858615875,
      0.5680621266365051,
      -0.9181565642356873,
      -0.3370825946331024,
      -0.4783441424369812,
      -0.7785110473632812,
      -0.16219554841518402,
      -0.82634037733078,
      -0.6281571984291077,
      -0.6382160782814026,
      -0.31226345896720886,
      -1.3017867803573608,
      -0.23677806556224823,
      -1.0619332790374756,
      0.28272685408592224,
      0.049903418868780136,
      0.22374531626701355,
      0.7017617225646973,
      0.01016372349113226,
      0.9021568894386292,
      -0.7088666558265686,
      -0.1844908893108368,
      -0.2623533606529236,
      -1.0721561908721924,
      -0.5069960951805115,
      -1.070637583732605,
      -0.6727820038795471,
      -0.5337709188461304,
      -0.2936808466911316,
      -0.992003321647644,
      -0.04846824333071709,
      -0.9494668841362,
      -0.026664113625884056,
      -0.07130831480026245,
      0.21158698201179504,
      0.7357732653617859,
      0.026031026616692543,
      0.7447091937065125,
      -0.9005879163742065,
      -0.5589115619659424,
      -0.7931329011917114,
      -0.7754434943199158,
      -0.27715083956718445,
      -0.9238473773002625,
      -0.9117119312286377,
      -0.4188533425331116,
      -0.42074087262153625,
      -1.3579827547073364,
      -0.049353085458278656,
      -1.102281093597412,
      0.25828275084495544,
      -0.010100502520799637,
      0.414507657289505,
      0.6937102675437927,
      -0.14103354513645172,
      0.8592984676361084,
      -0.5975908041000366,
      -0.6035071015357971,
      -0.2995719313621521,
      -0.8452064394950867,
      -0.44346556067466736,
      -0.7768339514732361,
      -0.7994150519371033,
      -0.6882997751235962,
      -0.18128126859664917,
      -0.9599401354789734,
      -0.4407314658164978,
      -0.8286865949630737,
      -0.012754241935908794,
      -0.19629539549350739,
      0.2492898553609848,
      0.744474470615387,
      0.09761352092027664,
      0.7138497829437256,
      0.03511397913098335,
      -0.08524139970541,
      0.0977228432893753,
      -0.004973284900188446,
      0.15072821080684662,
      -0.0008676559664309025,
      0.10414925217628479,
      -0.05967782437801361,
      0.0498942993581295,
      0.38912248611450195,
      0.4793621003627777,
      0.29625052213668823,
      0.547732412815094,
      0.6856876611709595,
      0.4849897027015686,
      0.5917580127716064,
      1.1643519401550293,
      1.0393071174621582,
      -0.10903510451316833,
      0.05162449926137924,
      -0.2137814313173294,
      -0.27330538630485535,
      -0.2490382194519043,
      -0.27530765533447266,
      -0.43885695934295654,
      -0.34197884798049927,
      -0.23987197875976562,
      -0.7858209609985352,
      1.629372000694275,
      -0.5958664417266846,
      -0.7064248919487,
      0.611724853515625,
      -1.0054705142974854,
      -0.6007907390594482,
      0.48046329617500305,
      -0.21577946841716766,
      -0.8210198283195496,
      -1.2532095909118652,
      -0.7049914598464966,
      0.0753941461443901,
      0.9318493008613586,
      -0.05193524435162544,
      -0.0017537467647343874,
      -0.8615968227386475,
      -0.19346827268600464,
      0.32023900747299194,
      -0.22592605650424957,
      0.11361651867628098,
      -0.5429818630218506,
      -1.7470415830612183,
      -0.6153223514556885,
      -0.3063279092311859,
      -2.0957932472229004,
      -0.10024316608905792,
      -0.5360000729560852,
      -0.33333101868629456,
      -1.2669492959976196,
      -0.27362409234046936,
      0.06082649901509285,
      -0.02176179178059101,
      -0.1564912497997284,
      -0.24208317697048187,
      -0.8639459609985352,
      0.04969681799411774,
      -0.18589428067207336,
      -0.13587239384651184,
      -0.570452868938446,
      -0.4180317223072052,
      -0.2825447618961334,
      -1.1458306312561035,
      -0.1332121044397354,
      -0.05782245472073555,
      -0.6591478586196899,
      -0.42798900604248047,
      -1.048108696937561,
      -0.6403534412384033,
      -0.25663092732429504,
      -0.743584156036377,
      -0.14084415137767792,
      0.23147502541542053,
      -0.1684643030166626,
      0.3875751495361328,
      -0.14153406023979187,
      -0.3727439343929291,
      -0.22178858518600464,
      -0.9222138524055481,
      -1.2105708122253418,
      -0.5685644745826721,
      0.15127696096897125,
      -0.12157997488975525,
      -0.7090516090393066,
      -0.4201609492301941,
      -1.175303339958191,
      -0.23395991325378418,
      0.1091444119811058,
      -0.012071083299815655,
      -0.40903574228286743,
      -0.03430359438061714,
      -0.3647274672985077,
      0.7649398446083069,
      -1.1637135744094849,
      1.1906843185424805,
      -1.209230661392212,
      -0.4761641025543213,
      0.1377514749765396,
      -0.26956918835639954,
      -1.314573049545288,
      0.4341895878314972,
      0.18210482597351074,
      -1.7144358158111572,
      0.17370012402534485,
      0.21447528898715973,
      0.10255614668130875,
      0.3263697922229767,
      0.31838253140449524,
      -0.9289735555648804,
      0.3613947927951813,
      0.41766077280044556,
      -0.1812303513288498,
      0.6910943388938904,
      -1.0861079692840576,
      0.3964541256427765,
      -1.013663411140442,
      -0.9777547717094421,
      -1.0887526273727417,
      -1.2001677751541138,
      0.024144694209098816,
      -0.27536284923553467,
      0.04170434549450874,
      0.2612002193927765,
      0.2371763437986374,
      0.3180023729801178,
      0.4629221260547638,
      -1.03535795211792,
      0.2522655129432678,
      0.17690055072307587,
      -0.7013829350471497,
      0.36552438139915466,
      -1.2864352464675903,
      -1.6679785251617432,
      -1.220414400100708,
      0.5975469350814819,
      -1.243923306465149,
      0.8398115038871765,
      -0.030979162082076073,
      -0.2629645764827728,
      0.01158100925385952,
      0.2547464966773987,
      0.2457461804151535,
      0.44097721576690674,
      0.33487531542778015,
      -0.4637565016746521,
      0.2042197436094284,
      -0.8164564967155457,
      -1.1172850131988525,
      0.6654213666915894,
      -0.8249337673187256,
      -0.18524900078773499,
      -1.2356305122375488,
      -0.947230875492096,
      -1.0231209993362427,
      0.9057589769363403,
      0.016151994466781616,
      -0.25475364923477173,
      0.03696870058774948,
      0.2715599238872528,
      0.19007742404937744,
      0.30414047837257385,
      0.2266198694705963,
      -0.26238811016082764,
      0.37811025977134705,
      0.00740888062864542,
      -0.1286817491054535,
      0.002762884832918644,
      0.2439998835325241,
      -0.04293375834822655,
      0.1816326379776001,
      -0.05233599245548248,
      -0.1246083453297615,
      -0.02743968367576599,
      -0.38491812348365784,
      0.8738294839859009,
      -0.22181937098503113,
      -0.3071098327636719,
      0.6636527180671692,
      0.6385256052017212,
      0.5107439756393433,
      0.7262522578239441,
      0.1471640020608902,
      0.09077779948711395,
      0.2790653109550476,
      -0.10763581097126007,
      0.23546825349330902,
      0.1565176099538803,
      0.014223034493625164,
      -0.004569430369883776,
      -0.09718445688486099,
      0.045268233865499496,
      0.7004227042198181,
      0.07659933716058731,
      0.45267826318740845,
      1.5529661178588867,
      1.2948890924453735,
      1.404618740081787,
      0.6539789438247681,
      0.4592897295951843,
      0.8098440170288086,
      0.10248731076717377,
      -1.181931972503662,
      0.12343795597553253,
      0.27479201555252075,
      -0.4352600574493408,
      0.14459308981895447,
      -0.3206709921360016,
      -0.9283362627029419,
      0.042812660336494446,
      -1.2058093547821045,
      0.42554908990859985,
      -0.31480109691619873,
      0.30402103066444397,
      0.6577160358428955,
      -0.18563707172870636,
      -1.0641640424728394,
      -0.035609934478998184,
      0.29743266105651855,
      0.15922048687934875,
      -0.25748780369758606,
      0.1774294525384903,
      -0.11630962044000626,
      -0.3237461745738983,
      0.14723075926303864,
      -0.07881142944097519,
      -0.20698165893554688,
      -0.06187283620238304,
      -1.8010311126708984,
      0.7855535745620728,
      -1.2953040599822998,
      0.7730961441993713,
      1.0347193479537964,
      -0.82017582654953,
      0.3310319185256958,
      0.22207391262054443,
      0.4359939396381378,
      -0.6824905872344971,
      0.005543470848351717,
      0.2284742146730423,
      -2.2494685649871826,
      0.3779277503490448,
      0.4558353126049042,
      -0.5180131196975708,
      -0.17416583001613617,
      0.12281050533056259,
      0.24631792306900024,
      1.3734391927719116,
      -1.963494062423706,
      0.4045521914958954,
      1.3654794692993164,
      0.39678946137428284,
      -1.3467108011245728,
      0.21726691722869873,
      0.18888910114765167,
      0.21167153120040894,
      -0.4358217716217041,
      0.28782281279563904,
      0.08504275977611542,
      -0.7577086091041565,
      0.22549980878829956,
      -0.25283879041671753,
      -0.9761295318603516,
      0.13025231659412384,
      -0.5315580368041992,
      -0.03101843036711216,
      -0.3327544629573822,
      0.623353898525238,
      -0.3317180871963501,
      0.1486404687166214,
      0.03980756551027298,
      -0.259299099445343,
      -0.21517612040042877,
      0.011861077509820461,
      -0.027304433286190033,
      -0.03870106488466263,
      -0.10071919858455658,
      0.048441458493471146,
      -0.23178891837596893,
      0.0679207444190979,
      -0.142518550157547,
      -0.08982260525226593,
      -0.37649694085121155,
      -0.10241104662418365,
      -0.23541712760925293,
      0.39678439497947693,
      -0.7850416898727417,
      0.17394240200519562,
      -0.3322952687740326,
      -0.009871763177216053,
      -0.26360905170440674,
      -0.042056743055582047,
      0.18879884481430054,
      -0.018855035305023193,
      -0.1451244354248047,
      -0.5204588174819946,
      -0.07707206159830093,
      0.1302632987499237,
      0.2639673054218292,
      0.0003839638375211507,
      -0.2608061730861664,
      -0.021105840802192688,
      -0.06018627807497978,
      0.28653985261917114,
      -0.795503556728363,
      -0.01175176165997982,
      0.3158796429634094,
      0.10065678507089615,
      -0.1855088174343109,
      -0.0435483381152153,
      -0.04274875298142433,
      0.0905567854642868,
      -0.075687937438488,
      -0.1701742559671402,
      -0.12995755672454834,
      0.018630050122737885,
      0.16171732544898987,
      0.008094310760498047,
      -0.16573378443717957,
      0.031881995499134064,
      0.05019441619515419,
      0.4796042740345001,
      -0.26121002435684204,
      0.38885927200317383,
      0.05013274773955345,
      -0.12508107721805573,
      -0.1582837700843811,
      0.016101844608783722,
      0.11700993031263351,
      -0.05347839742898941,
      -0.15738984942436218,
      -0.19368760287761688,
      -0.23909755051136017,
      0.04188156872987747,
      -0.0313820019364357,
      -0.22497421503067017,
      -0.01890893653035164,
      -0.05767753720283508,
      -0.055099111050367355,
      0.19290423393249512,
      -0.6346138715744019,
      0.23836249113082886,
      0.07849059998989105,
      0.00838241446763277,
      -0.06033101677894592,
      0.20861473679542542,
      0.30059364438056946,
      0.17200496792793274,
      0.24636170268058777,
      0.18147040903568268,
      -0.20329444110393524,
      0.4900396168231964,
      0.5402929186820984,
      0.0928318053483963,
      0.10012996196746826,
      0.04047318547964096,
      -0.039913076907396317,
      -0.20191508531570435,
      -0.07964659482240677,
      -0.1289365142583847,
      0.11022383719682693,
      -0.25533536076545715,
      0.19325260818004608,
      1.2916409969329834,
      0.2647209167480469,
      1.2091844081878662,
      -0.031288739293813705,
      1.1019648313522339,
      0.3259983956813812,
      0.6162187457084656,
      0.51120924949646,
      0.7677348852157593,
      -0.5616740584373474,
      -1.1523211002349854,
      0.09872105717658997,
      0.22253069281578064,
      -0.6340268850326538,
      -0.45118826627731323,
      0.2223924696445465,
      -0.09773381054401398,
      -0.5661343932151794,
      -0.7201391458511353,
      0.6238158345222473,
      -1.3267854452133179,
      0.5297333598136902,
      1.2637807130813599,
      0.1050804927945137,
      -1.4417701959609985,
      -1.4329843521118164,
      -0.8147323727607727,
      -0.10773763805627823,
      0.1521429568529129,
      -0.0941786989569664,
      -0.478956937789917,
      1.1247998476028442,
      -0.7190175652503967,
      -0.13406583666801453,
      -0.39087408781051636,
      -0.39263013005256653,
      -0.35394033789634705,
      -0.5159437656402588,
      -0.7068524956703186,
      0.37929633259773254,
      1.2496086359024048,
      -0.37615612149238586,
      0.03895643353462219,
      -0.37355536222457886,
      -0.9564617276191711,
      0.7808563709259033,
      0.5415438413619995,
      -1.2189677953720093,
      0.03396892547607422,
      0.35554373264312744,
      -1.9011038541793823,
      -0.11603979021310806,
      0.5136789083480835,
      -1.933554768562317,
      -1.7114448547363281,
      0.6020046472549438,
      -0.5498321056365967,
      -1.4087727069854736,
      1.8486120700836182,
      -0.9213030934333801,
      -1.4672480821609497,
      0.6804190874099731,
      -1.6021041870117188,
      -0.05713504180312157,
      -0.140265092253685,
      -0.15616020560264587,
      -0.5192938446998596,
      0.6621919870376587,
      -0.7248285412788391,
      -0.1615024209022522,
      -1.0379151105880737,
      -0.22325892746448517,
      0.41127946972846985,
      0.038075078278779984,
      0.4976705312728882,
      0.27352890372276306,
      -1.7796366214752197,
      0.608566164970398,
      0.07943841069936752,
      -0.1273103952407837,
      0.08231790363788605,
      -0.0031478379387408495,
      -0.09704361855983734,
      0.18144622445106506,
      0.25631651282310486,
      -0.20997099578380585,
      0.40016239881515503,
      0.0006831482169218361,
      -0.33134686946868896,
      0.10408889502286911,
      -0.055818237364292145,
      -0.3262770175933838,
      0.49156883358955383,
      0.3504144251346588,
      0.021120594814419746,
      0.5984112620353699,
      0.09912773966789246,
      0.2547451853752136,
      -0.08296940475702286,
      -0.209835946559906,
      -0.06951901316642761,
      0.1653052717447281,
      0.242056205868721,
      -0.6113920211791992,
      0.43591398000717163,
      0.2018412947654724,
      -0.2199106365442276,
      0.0010349085787311196,
      -0.1770743429660797,
      -0.3268917202949524,
      0.287609338760376,
      0.07843029499053955,
      0.08363601565361023,
      0.6664981842041016,
      0.33008915185928345,
      -0.10645555704832077,
      -0.03551534563302994,
      0.022348908707499504,
      -0.30634841322898865,
      0.2546287775039673,
      0.0349552184343338,
      -0.032742664217948914,
      0.23198840022087097,
      0.1372508853673935,
      -0.3953879773616791,
      0.13601239025592804,
      -0.22591769695281982,
      -0.0730113536119461,
      0.3430218994617462,
      0.2663048207759857,
      -0.023717045783996582,
      0.4282883405685425,
      0.46685996651649475,
      -0.020351773127913475,
      0.10703977197408676,
      -0.06297745555639267,
      -0.1217571347951889,
      0.19890424609184265,
      0.05986075848340988,
      -0.2361525297164917,
      0.33274567127227783,
      -0.03347107023000717,
      -0.10063137859106064,
      0.07775168120861053,
      0.014896919950842857,
      -0.2829023599624634,
      0.11572686582803726,
      0.12687993049621582,
      -0.1068047434091568,
      -0.038678813725709915,
      -0.0006172170978970826,
      -0.03358300402760506,
      0.04433415085077286,
      -0.5345809459686279,
      0.04089880362153053,
      0.5412330627441406,
      -0.01980985887348652,
      0.37699955701828003,
      0.5687398910522461,
      -0.676737368106842,
      -0.5221458673477173,
      0.16787737607955933,
      -0.38900306820869446,
      0.023199213668704033,
      -0.2440965622663498,
      -0.05600857362151146,
      -0.030426448211073875,
      -0.0024544040206819773,
      0.07130273431539536,
      -0.0005246302462182939,
      -0.1323300004005432,
      0.7874254584312439,
      -1.4013569355010986,
      0.08010278642177582,
      1.2971644401550293,
      1.032570481300354,
      0.34053486585617065,
      0.12800976634025574,
      0.001250718953087926,
      0.6058750152587891,
      0.1659189760684967,
      -0.48680800199508667,
      -0.06877539306879044,
      -0.0087817944586277,
      -0.49750247597694397,
      0.4580364525318146,
      0.41943442821502686,
      -0.01912912167608738,
      0.13940802216529846,
      -0.06255553662776947,
      -1.5923045873641968,
      -0.3794786036014557,
      0.35055679082870483,
      -2.042401075363159,
      -0.6604358553886414,
      0.02340380847454071,
      0.1264134645462036,
      0.11172378808259964,
      -0.3081519305706024,
      0.5229672789573669,
      -0.011378609575331211,
      -0.4850233495235443,
      0.7981103658676147,
      -0.7571113109588623,
      0.2454904019832611,
      -0.18368197977542877,
      0.24812829494476318,
      0.4640747904777527,
      -1.5683196783065796,
      0.7368974685668945,
      1.1756995916366577,
      2.5226194858551025,
      1.3473055362701416,
      -0.0055000195279717445,
      0.20031560957431793,
      0.23650410771369934,
      -0.2530173659324646,
      -2.9817638397216797,
      -0.3936316967010498,
      0.08303596824407578,
      -0.6753326058387756,
      -0.0711769163608551,
      0.5682181119918823,
      0.2748260796070099,
      0.5677928924560547,
      1.112108588218689,
      -1.093951940536499,
      0.6894044280052185,
      1.144645094871521,
      1.2850193977355957,
      0.9150840640068054,
      -0.3181002736091614,
      -0.15146107971668243,
      -0.21444369852542877,
      -0.4665709435939789,
      0.0763934925198555,
      -0.6156027317047119,
      0.037736039608716965,
      0.39981627464294434,
      -0.07642276585102081,
      0.4444493353366852,
      -0.20857220888137817,
      0.6085399985313416,
      0.2744496166706085,
      -1.5578099489212036,
      -0.0324331559240818,
      -0.5617363452911377,
      -0.07948027551174164,
      -0.5955426096916199,
      0.0963706448674202,
      -0.4565289318561554,
      0.05041402205824852,
      0.12701468169689178,
      -0.4576520025730133,
      0.24786855280399323,
      -0.13033421337604523,
      0.4946036636829376,
      -0.034196678549051285,
      -0.0793059691786766,
      -0.07393337786197662,
      0.16270777583122253,
      -0.3776961863040924,
      -0.418041467666626,
      -0.6081373691558838,
      -0.4973333775997162,
      -0.42254310846328735,
      -0.563795804977417,
      -0.2224487066268921,
      -0.5809786915779114,
      0.015016047284007072,
      0.13285863399505615,
      0.1221480518579483,
      0.1843058168888092,
      0.041692834347486496,
      -0.47218677401542664,
      0.06318483501672745,
      -0.023498058319091797,
      0.15612994134426117,
      0.13202917575836182,
      0.2233932912349701,
      -0.6359052658081055,
      -0.2898201048374176,
      -0.08427537977695465,
      -0.16478656232357025,
      -1.0335475206375122,
      -0.31984010338783264,
      -0.42767831683158875,
      -0.1517791897058487,
      0.044505126774311066,
      -0.2659597098827362,
      0.39254650473594666,
      0.07057717442512512,
      0.25696325302124023,
      -0.2580164670944214,
      -0.10767902433872223,
      0.11093761026859283,
      0.202250674366951,
      -0.12022260576486588,
      -0.19430384039878845,
      -0.3422865867614746,
      -0.21526938676834106,
      -0.30887532234191895,
      -0.9215595722198486,
      -0.04168187081813812,
      -0.5830872058868408,
      0.09466784447431564,
      0.16953903436660767,
      -0.48268193006515503,
      -0.11501510441303253,
      -0.2605048418045044,
      0.1256496161222458,
      0.20022141933441162,
      0.008387723006308079,
      0.013374509289860725,
      0.20402173697948456,
      -0.07260142266750336,
      0.2482089251279831,
      -0.07022477686405182,
      0.022167759016156197,
      -0.03896007314324379,
      -0.082359179854393,
      -0.06507672369480133,
      -0.1546216607093811,
      -0.12606042623519897,
      0.30039548873901367,
      0.4131634533405304,
      0.1874033659696579,
      0.43412989377975464,
      0.30226731300354004,
      0.1585184931755066,
      0.705291748046875,
      0.6100608110427856,
      0.331358939409256,
      0.13863053917884827,
      0.19404926896095276,
      0.16601122915744781,
      0.16429677605628967,
      0.28658515214920044,
      0.06778483092784882,
      -0.016495944932103157,
      -0.015368943102657795,
      -0.006746101193130016,
      0.6485005021095276,
      -0.6077015399932861,
      -0.4875306785106659,
      -0.402862548828125,
      -0.631578803062439,
      -0.1296641230583191,
      0.12484711408615112,
      -0.3564859628677368,
      0.3109232783317566,
      -0.20468631386756897,
      -0.04490654170513153,
      0.4695163667201996,
      -0.6468474268913269,
      0.015792833641171455,
      0.45003369450569153,
      -0.023013686761260033,
      0.10824526101350784,
      0.2002505511045456,
      0.7666763067245483,
      -1.8534841537475586,
      -0.6208561658859253,
      -0.9746218323707581,
      -0.5918408036231995,
      -1.3114995956420898,
      0.17952825129032135,
      -0.7459198236465454,
      -1.802228331565857,
      -0.18740101158618927,
      0.38556957244873047,
      -0.0803108885884285,
      -0.9597726464271545,
      -0.02284856140613556,
      0.250765860080719,
      0.7502070665359497,
      -0.488879919052124,
      0.4758215844631195,
      0.9809800386428833,
      -2.846219062805176,
      -0.6106247901916504,
      0.9404037594795227,
      0.15326017141342163,
      -0.1677289456129074,
      -0.8053351044654846,
      -2.6760921478271484,
      -2.8457870483398438,
      -1.1025220155715942,
      0.3475766181945801,
      0.2538371682167053,
      -2.676392078399658,
      0.35829946398735046,
      0.30380651354789734,
      -1.2583239078521729,
      -1.0356333255767822,
      -0.17061252892017365,
      0.18856967985630035,
      -2.6672403812408447,
      1.134740948677063,
      -0.05663693696260452,
      -1.522292137145996,
      0.3344994783401489,
      -0.7380919456481934,
      -1.2228788137435913,
      -0.029133547097444534,
      -0.2520442605018616,
      -0.34512192010879517,
      -0.4494342803955078,
      -0.5592417120933533,
      0.5723851323127747,
      -1.3125815391540527,
      0.4371444582939148,
      -0.09772682189941406,
      -0.43516039848327637,
      1.3254741430282593,
      0.8087560534477234,
      -0.1928512305021286,
      0.737554669380188,
      0.8670158982276917,
      0.6028040647506714,
      0.6098407506942749,
      0.42108187079429626,
      0.2768482565879822,
      0.21350343525409698,
      0.3216126561164856,
      -0.05910973250865936,
      0.0960225984454155,
      0.27402570843696594,
      0.2347705066204071,
      -0.22417084872722626,
      0.02851993590593338,
      -0.11492925882339478,
      0.9258991479873657,
      1.216336965560913,
      -0.05349982529878616,
      0.4367944002151489,
      0.26381468772888184,
      0.4934050440788269,
      0.49669504165649414,
      -0.18326279520988464,
      0.35333773493766785,
      0.07482437044382095,
      0.38769277930259705,
      -0.03839178383350372,
      0.18588408827781677,
      -0.025909094139933586,
      0.07080835849046707,
      -0.1389264464378357,
      0.069518081843853,
      -0.04843870550394058,
      0.9299570918083191,
      0.8784145712852478,
      -0.19903020560741425,
      0.5699058175086975,
      0.5871315598487854,
      0.21638482809066772,
      0.48229965567588806,
      0.32492753863334656,
      0.18925367295742035,
      0.0937022864818573,
      0.4356488883495331,
      0.04138851538300514,
      0.08157776296138763,
      0.006926955189555883,
      0.01949158124625683,
      -0.06143244355916977,
      -0.11243169754743576,
      0.14311708509922028,
      0.5600555539131165,
      0.8156044483184814,
      -0.0610676109790802,
      0.4183865785598755,
      0.5857671499252319,
      0.08794678002595901,
      0.46341031789779663,
      0.4302864074707031,
      0.5182332396507263,
      0.09827574342489243,
      0.28916096687316895,
      0.18795335292816162,
      0.09613782167434692,
      0.0054457783699035645,
      -0.01973605342209339,
      -0.10689611732959747,
      0.07453664392232895,
      0.04522900655865669,
      -0.04790569469332695,
      -0.18445083498954773,
      0.06698205322027206,
      -0.10296324640512466,
      -3.0238633155822754,
      -0.06395487487316132,
      -0.13658735156059265,
      0.32692548632621765,
      -0.033245012164115906,
      0.4375566840171814,
      0.26495102047920227,
      0.6477715969085693,
      0.5900092124938965,
      0.5103737711906433,
      0.38325852155685425,
      0.43935641646385193,
      1.3398383855819702,
      0.7604776620864868,
      -0.15661264955997467,
      -0.3313554525375366,
      0.1313740760087967,
      0.25034502148628235,
      0.19178928434848785,
      -0.17153863608837128,
      -0.08981569111347198,
      0.17281807959079742,
      -0.1604451686143875,
      -0.5317362546920776,
      -0.5933281779289246,
      0.4216881990432739,
      0.6581889390945435,
      -0.031804148107767105,
      -0.05488394945859909,
      -1.5743532180786133,
      -0.8561064004898071,
      0.09274307638406754,
      -0.2362668365240097,
      0.2806378901004791,
      -0.5575308799743652,
      -0.44091126322746277,
      0.6435537934303284,
      -1.4011963605880737,
      0.1557617485523224,
      -0.31704726815223694,
      0.348230242729187,
      -0.1845240592956543,
      -0.9857327342033386,
      -0.9223936796188354,
      0.02756328321993351,
      -0.08892680704593658,
      0.1742975413799286,
      -1.3383280038833618,
      0.014981738291680813,
      -0.8491451740264893,
      -0.4836016297340393,
      -1.0436029434204102,
      -0.3408868908882141,
      -1.2850712537765503,
      0.2745042145252228,
      -2.3393542766571045,
      0.4222760498523712,
      0.4876824617385864,
      0.16773705184459686,
      -0.49986210465431213,
      -0.056060854345560074,
      -0.6377052664756775,
      0.3451692461967468,
      0.000452684354968369,
      -2.569596767425537,
      -1.1770869493484497,
      -0.5805468559265137,
      -0.7190841436386108,
      -0.37175166606903076,
      -0.4121394455432892,
      0.07413849234580994,
      -0.5168941020965576,
      0.19974486529827118,
      -1.4443273544311523,
      -0.036785855889320374,
      0.19614052772521973,
      -0.38044673204421997,
      -0.6973005533218384,
      -0.8799114227294922,
      -0.6818621158599854,
      1.3194010257720947,
      -0.12003621459007263,
      0.8969192504882812,
      -1.0678555965423584,
      -0.7059811353683472,
      -0.5276232957839966,
      -0.22259114682674408,
      -2.1027023792266846,
      -0.416791707277298,
      -1.5234699249267578,
      0.6250516176223755,
      -2.2656378746032715,
      -0.23487795889377594,
      0.03077125735580921,
      -0.15986964106559753,
      0.35640522837638855,
      0.804411768913269,
      0.39559561014175415,
      0.48249539732933044,
      0.02720683068037033,
      0.41507142782211304,
      0.27556946873664856,
      0.6451290249824524,
      0.4415688216686249,
      -0.014453484676778316,
      0.12429292500019073,
      0.09297151118516922,
      -0.18920795619487762,
      0.0914803221821785,
      -0.6091539859771729,
      -0.07481984049081802,
      -0.005352807696908712,
      0.08058536052703857,
      0.26974841952323914,
      0.9367430806159973,
      0.38569748401641846,
      0.31103986501693726,
      0.4169744849205017,
      0.6467801332473755,
      0.3901834189891815,
      0.39884114265441895,
      0.5228433609008789,
      -0.11600324511528015,
      0.2468462884426117,
      0.018846359103918076,
      -0.05342021957039833,
      0.15247192978858948,
      -0.5517391562461853,
      -0.02523786388337612,
      0.05800699442625046,
      0.2618650794029236,
      0.33630770444869995,
      1.0653258562088013,
      0.4546293616294861,
      0.3785584270954132,
      0.4897316098213196,
      0.6014460921287537,
      0.3724837005138397,
      0.2606147527694702,
      0.6602120995521545,
      0.12527944147586823,
      0.14231637120246887,
      0.10615671426057816,
      -0.17670606076717377,
      0.18759892880916595,
      -0.40892478823661804,
      -0.08001942932605743,
      -0.060317907482385635,
      0.1294270008802414,
      0.30600160360336304,
      0.7185471653938293,
      0.626395583152771,
      0.3342120945453644,
      0.018734320998191833,
      0.6379839181900024,
      0.33807724714279175,
      0.21360734105110168,
      0.5366686582565308,
      -0.11252141743898392,
      0.11492597311735153,
      0.044736459851264954,
      -0.18984387814998627,
      0.02569672465324402,
      -0.6297942996025085,
      0.05909881740808487,
      0.21301375329494476,
      0.22492416203022003,
      -0.08152565360069275,
      0.26219260692596436,
      0.0015794659266248345,
      -0.16413718461990356,
      -0.3170931041240692,
      0.17524954676628113,
      -0.028281016275286674,
      -0.0033928819466382265,
      0.04275689274072647,
      0.1443210244178772,
      -1.004772663116455,
      0.0770808532834053,
      0.12439893186092377,
      0.0998624861240387,
      -0.10894809663295746,
      -0.010426289401948452,
      0.1488715559244156,
      0.04284636676311493,
      -0.5232142210006714,
      0.09285109490156174,
      0.18375052511692047,
      0.013541454449295998,
      -0.016522806137800217,
      0.08079829812049866,
      -0.21422408521175385,
      0.10421623289585114,
      0.14131663739681244,
      -0.0406288243830204,
      0.07742767035961151,
      0.4102855324745178,
      0.4176114797592163,
      0.24491168558597565,
      -0.7764590382575989,
      -0.004549707751721144,
      0.14208893477916718,
      -0.6320527791976929,
      0.11410341411828995,
      -0.9562632441520691,
      -1.6347846984863281,
      -0.2590115964412689,
      0.328767865896225,
      -0.42142453789711,
      0.012969864532351494,
      0.02938065305352211,
      -0.16202129423618317,
      0.7932118773460388,
      -0.30414170026779175,
      0.49977409839630127,
      1.9712446928024292,
      -0.962236225605011,
      -1.0930863618850708,
      0.07476247102022171,
      -0.09136928617954254,
      -1.621904969215393,
      -2.5886454582214355,
      0.43161657452583313,
      -0.302961528301239,
      -1.826562762260437,
      -0.12141396105289459,
      0.23923909664154053,
      -3.296077013015747,
      0.018242783844470978,
      -0.011270069517195225,
      0.763439416885376,
      -0.20579585433006287,
      0.5281057953834534,
      1.1385014057159424,
      -0.8644516468048096,
      -0.5392683148384094,
      0.034701522439718246,
      -0.12627077102661133,
      -0.7011958360671997,
      -1.2044628858566284,
      0.2872221767902374,
      -0.05648139864206314,
      -1.6208573579788208,
      0.5312002897262573,
      -0.2746487259864807,
      -1.0748474597930908,
      -0.35175609588623047,
      0.33100807666778564,
      0.8869650959968567,
      -0.14136645197868347,
      0.8944582343101501,
      1.3996262550354004,
      -0.49083200097084045,
      0.05657445266842842,
      0.5968216061592102,
      0.21221181750297546,
      -0.5386930108070374,
      -1.3405256271362305,
      0.051904138177633286,
      -0.48330122232437134,
      -0.9725050330162048,
      0.7696264982223511,
      -0.4686751067638397,
      -1.23139488697052,
      -0.6059113144874573,
      -0.23096121847629547,
      -0.2602371871471405,
      -0.2519374489784241,
      0.19570669531822205,
      -0.8587403893470764,
      -0.6630282402038574,
      -0.15805833041667938,
      -0.43679073452949524,
      -0.4255867302417755,
      0.02768654190003872,
      0.34815743565559387,
      -0.24097217619419098,
      0.040051911026239395,
      -0.6076170802116394,
      0.4519039988517761,
      0.07444079965353012,
      0.050789397209882736,
      -0.08703704178333282,
      0.09814592450857162,
      -0.013619603589177132,
      -0.13791561126708984,
      0.24565477669239044,
      -0.8736984729766846,
      -0.1812799870967865,
      -0.3416815996170044,
      -0.0558621771633625,
      -0.2547406852245331,
      0.15079185366630554,
      -0.1264127492904663,
      -0.13246411085128784,
      0.07653337717056274,
      -0.15558253228664398,
      0.2275492548942566,
      0.04833795875310898,
      0.0019757605623453856,
      -0.13187119364738464,
      0.15717333555221558,
      -0.5084400773048401,
      0.1007293239235878,
      -0.029854459688067436,
      -0.9474273324012756,
      -0.2618189752101898,
      -0.17614512145519257,
      -0.21942946314811707,
      -0.41748863458633423,
      0.0032621969003230333,
      0.20749537646770477,
      -0.03328419104218483,
      0.027036326006054878,
      -0.520110547542572,
      0.24743026494979858,
      0.17465034127235413,
      0.11323434859514236,
      -0.08127527683973312,
      0.05179216340184212,
      -0.19272661209106445,
      0.18497996032238007,
      0.28508156538009644,
      -0.8134756088256836,
      -0.5298051238059998,
      -0.3646715581417084,
      -0.3432177007198334,
      -0.11529438197612762,
      0.05735107138752937,
      0.20423470437526703,
      -0.06827305257320404,
      0.08363933116197586,
      -0.17709091305732727,
      0.13990418612957,
      0.059205666184425354,
      0.05678575485944748,
      -0.12217799574136734,
      0.014256041496992111,
      -0.011537905782461166,
      -0.010305034928023815,
      -0.041883379220962524,
      -0.022994602099061012,
      -2.666825771331787,
      -0.07985087484121323,
      0.023080624639987946,
      0.10057207196950912,
      0.05313621833920479,
      0.09153319150209427,
      0.09317871183156967,
      -0.11808263510465622,
      0.09420420229434967,
      0.1073426753282547,
      0.019820982590317726,
      0.048314210027456284,
      -0.04317716136574745,
      0.30907610058784485,
      0.00682408269494772,
      0.1897885650396347,
      -0.28809046745300293,
      -1.1690698862075806,
      -0.0044167242012917995,
      -0.9793118834495544,
      -0.16590231657028198,
      -0.542643666267395,
      -0.11078080534934998,
      0.30869391560554504,
      0.30277207493782043,
      0.25800621509552,
      2.026648759841919,
      -0.6990735530853271,
      1.7642874717712402,
      0.03935124725103378,
      0.6141165494918823,
      0.25037601590156555,
      -0.34436511993408203,
      0.6670084595680237,
      -0.17172369360923767,
      -2.0052828788757324,
      -0.09916459769010544,
      -0.3021734654903412,
      -0.8434756398200989,
      0.21825705468654633,
      -0.707970380783081,
      -0.548798143863678,
      0.16086624562740326,
      0.0009760180255398154,
      0.799353837966919,
      -0.09043198823928833,
      1.9364125728607178,
      0.25209322571754456,
      0.46933621168136597,
      0.32044726610183716,
      0.287808895111084,
      0.1490682065486908,
      -0.26256856322288513,
      -1.6358771324157715,
      0.09822899103164673,
      -0.019945327192544937,
      0.48617544770240784,
      0.2893500328063965,
      -1.017167091369629,
      -0.5497934818267822,
      0.06405607610940933,
      -0.311301052570343,
      1.7684531211853027,
      -0.06757981330156326,
      1.5908401012420654,
      -0.37845084071159363,
      0.1556040346622467,
      -0.2720717489719391,
      0.2274847775697708,
      0.13678492605686188,
      0.2715381681919098,
      -0.9806225299835205,
      0.2216169834136963,
      -1.335442066192627,
      -0.4920382797718048,
      0.18529477715492249,
      -0.6063445210456848,
      -0.842452883720398,
      -0.18501293659210205,
      0.06210507079958916,
      -2.000783681869507,
      -1.6008497476577759,
      1.4101263284683228,
      -0.03449254482984543,
      -0.6791641712188721,
      0.20902524888515472,
      -0.36029770970344543,
      0.08454929292201996,
      -0.05512207746505737,
      -1.7195401191711426,
      0.2791452705860138,
      -0.7517578601837158,
      0.5559145212173462,
      0.27550560235977173,
      -0.686982274055481,
      0.059338025748729706,
      0.598285973072052,
      -0.0414724163711071,
      -1.0805401802062988,
      -1.8972666263580322,
      -0.6199740767478943,
      0.043994251638650894,
      0.5473863482475281,
      -0.07899384200572968,
      -0.1575850397348404,
      0.024854592978954315,
      0.1044841855764389,
      0.08889826387166977,
      0.07797535508871078,
      -0.1618378907442093,
      -0.29231545329093933,
      0.027229899540543556,
      -0.08405598998069763,
      -0.02611553855240345,
      0.37403604388237,
      -0.08161655068397522,
      -0.9386368989944458,
      -1.9705969095230103,
      -0.8102707266807556,
      0.02688450738787651,
      0.5317929983139038,
      0.09385891258716583,
      -0.13057652115821838,
      0.03441958129405975,
      0.021829254925251007,
      -0.09287375211715698,
      0.3648395240306854,
      -0.40401455760002136,
      -0.45338156819343567,
      -0.13565687835216522,
      -0.1380072385072708,
      0.07659129053354263,
      -0.015835002064704895,
      0.07797086238861084,
      -0.8343767523765564,
      -2.505946159362793,
      -0.05668482184410095,
      0.08870389312505722,
      0.6267843842506409,
      -0.18079347908496857,
      -0.07872263342142105,
      0.2642518877983093,
      -0.028513560071587563,
      0.05717838555574417,
      -0.22831670939922333,
      -0.06279066205024719,
      -0.3019014596939087,
      -0.276574045419693,
      0.13599659502506256,
      -0.058859776705503464,
      -0.14639396965503693,
      0.06125294044613838,
      -0.4072527587413788,
      -1.9518193006515503,
      0.2071111649274826,
      -0.04653680697083473,
      0.32771870493888855,
      0.03685412555932999,
      -0.07445461302995682,
      0.13392263650894165,
      0.08332978934049606,
      0.07988188415765762,
      -0.3571886420249939,
      -0.022850276902318,
      0.12343361228704453,
      -0.14896538853645325,
      0.28115132451057434,
      -0.008353989571332932,
      -0.04825367033481598,
      -0.04817032814025879,
      -0.02956627495586872,
      -0.01680758036673069,
      -0.0023316005244851112,
      -0.031076179817318916,
      0.0019122407538816333,
      -0.03772447630763054,
      -0.14222069084644318,
      -0.06371185183525085,
      -0.05429861322045326,
      0.0061476584523916245,
      -0.2849355638027191,
      0.01361099909991026,
      -0.19829384982585907,
      -0.19072097539901733,
      -0.07691962271928787,
      0.007577643729746342,
      -0.19517751038074493,
      -0.11962047964334488,
      0.074188232421875,
      0.15327420830726624,
      -0.06510424613952637,
      0.12467174232006073,
      -0.13210158050060272,
      0.009394139982759953,
      -1.9837367534637451,
      0.47254639863967896,
      -0.12386409938335419,
      0.7728760242462158,
      0.6807973384857178,
      0.5469912886619568,
      -1.1567550897598267,
      0.3560631573200226,
      -1.1648865938186646,
      -0.6259496212005615,
      -1.1398311853408813,
      -0.05545293167233467,
      -1.8572477102279663,
      1.2911635637283325,
      -1.5782099962234497,
      -0.48160767555236816,
      -0.2342480570077896,
      0.055974166840314865,
      0.681098461151123,
      -0.023854348808526993,
      0.12258816510438919,
      1.3618619441986084,
      -0.767602801322937,
      0.15003344416618347,
      1.151060700416565,
      -0.34261733293533325,
      -0.4045355021953583,
      -1.747185230255127,
      0.14013701677322388,
      -0.008149657398462296,
      -1.6735749244689941,
      0.8396156430244446,
      -0.6164164543151855,
      -1.366091012954712,
      -0.6107029914855957,
      0.0612339973449707,
      0.7809595465660095,
      -0.07344755530357361,
      -1.1360536813735962,
      0.5468083024024963,
      0.7770652174949646,
      1.517594814300537,
      -0.011143917217850685,
      0.08798278123140335,
      -0.6359779834747314,
      -0.1459006369113922,
      0.17403540015220642,
      -1.5898643732070923,
      -0.9652971625328064,
      1.07149076461792,
      -2.0033068656921387,
      -0.18063566088676453,
      -0.8433855175971985,
      -0.8762093782424927,
      1.1399732828140259,
      0.013286917470395565,
      0.5437659025192261,
      0.2900017201900482,
      0.7296991944313049,
      0.3666802942752838,
      0.4310114085674286,
      0.13711227476596832,
      -0.7077229619026184,
      -0.2182588279247284,
      0.1486344188451767,
      -0.42240211367607117,
      -1.2526524066925049,
      0.5065430998802185,
      -0.6783144474029541,
      -0.15727129578590393,
      -0.351644903421402,
      0.07588929682970047,
      0.056612975895404816,
      0.04712514206767082,
      0.017196066677570343,
      -0.1052231639623642,
      -0.18116821348667145,
      -0.029508812353014946,
      -0.16448210179805756,
      -0.19535288214683533,
      0.04494317248463631,
      0.05693702772259712,
      -0.0018440806306898594,
      0.11549833416938782,
      0.1080998033285141,
      0.11746212095022202,
      -0.0065800100564956665,
      -0.11495539546012878,
      -0.15249034762382507,
      0.007451015058904886,
      0.04947631061077118,
      -0.17982862889766693,
      0.2409181147813797,
      -0.3852376639842987,
      -0.03253183513879776,
      -0.34534555673599243,
      -0.371558278799057,
      -0.08938977867364883,
      -0.25513675808906555,
      0.04503050819039345,
      0.0723661407828331,
      0.0545278899371624,
      0.1033998653292656,
      0.13007378578186035,
      0.10918006300926208,
      -0.0037644910626113415,
      0.16263709962368011,
      -0.18063487112522125,
      -0.0127621591091156,
      -0.15722213685512543,
      0.22943730652332306,
      -0.10070184618234634,
      -0.08129797875881195,
      -0.37820467352867126,
      -0.21498528122901917,
      0.05198974534869194,
      -0.17843866348266602,
      0.036681924015283585,
      -0.058892399072647095,
      0.05846085026860237,
      0.10658060014247894,
      0.14681313931941986,
      0.036311011761426926,
      0.014599315822124481,
      -0.010029813274741173,
      -0.0880393385887146,
      -0.0817381888628006,
      0.21545326709747314,
      0.08482500165700912,
      -0.26701170206069946,
      -0.005547046661376953,
      -0.11880846321582794,
      -0.1160769984126091,
      0.09177489578723907,
      0.04987550526857376,
      -0.025349801406264305,
      -0.015247923322021961,
      -0.025029825046658516,
      0.030314845964312553,
      -0.16781984269618988,
      0.05935567989945412,
      -0.0317225381731987,
      0.009411532431840897,
      -0.004235998261719942,
      -0.07941513508558273,
      0.16207608580589294,
      -0.039876312017440796,
      -0.12314959615468979,
      0.10852733254432678,
      -0.016372086480259895,
      0.028984297066926956,
      -0.12308549135923386,
      -0.032359763979911804,
      -0.14960801601409912,
      -0.4981279969215393,
      -0.05158654972910881,
      0.10673736035823822,
      -0.07530524581670761,
      0.05886196717619896,
      -0.4487651586532593,
      -0.6779465675354004,
      0.01708034798502922,
      -0.8580604195594788,
      0.5321835875511169,
      -0.2619887590408325,
      -0.39538711309432983,
      0.010220814496278763,
      -0.24687550961971283,
      -0.31818267703056335,
      0.41570690274238586,
      -0.1814253032207489,
      -0.444728821516037,
      0.010738616809248924,
      -0.9822500944137573,
      -0.07451706379652023,
      -0.4769078493118286,
      -1.002868413925171,
      0.4360043704509735,
      0.0941803827881813,
      0.2728799283504486,
      0.34642553329467773,
      0.6679258346557617,
      0.23988713324069977,
      -0.7271668314933777,
      0.055791907012462616,
      -0.22840239107608795,
      0.9441894888877869,
      0.2075183391571045,
      0.3834657073020935,
      -0.8013361692428589,
      0.2987293004989624,
      -0.49261385202407837,
      -2.2831265926361084,
      -0.5132039785385132,
      -2.616931200027466,
      -1.0408765077590942,
      0.18147070705890656,
      0.25516191124916077,
      -0.44780436158180237,
      0.3866746723651886,
      -0.691649854183197,
      0.8744999766349792,
      -0.17268839478492737,
      0.6087835431098938,
      0.6114982962608337,
      0.2607502341270447,
      0.631247878074646,
      0.6772666573524475,
      -0.08968836069107056,
      -0.4147076904773712,
      1.2443267107009888,
      0.3962104022502899,
      0.7129429578781128,
      0.44301682710647583,
      -1.1474913358688354,
      0.3099463880062103,
      0.02184290811419487,
      -0.00911459606140852,
      -0.0920855924487114,
      -1.038528323173523,
      0.2457294464111328,
      -1.0475001335144043,
      -0.016010336577892303,
      0.022359587252140045,
      -2.0946953296661377,
      0.48150625824928284,
      0.31211623549461365,
      0.4570346474647522,
      -0.1442348212003708,
      -0.17941731214523315,
      -0.6138083338737488,
      0.5809385180473328,
      0.7900909781455994,
      0.5742164850234985,
      -0.2557150423526764,
      0.47558724880218506,
      -0.6782219409942627,
      0.07278336584568024,
      -0.44300392270088196,
      -0.0691801980137825,
      0.8364299535751343,
      -0.08098328858613968,
      0.6261929869651794,
      0.41602396965026855,
      0.32758504152297974,
      0.15392638742923737,
      0.10798359662294388,
      -0.053787022829055786,
      0.09430199861526489,
      0.173722043633461,
      0.3093404471874237,
      -0.16103297472000122,
      -0.5515293478965759,
      -0.04032978042960167,
      -0.12041988968849182,
      -0.06588910520076752,
      -0.22084887325763702,
      -0.2840426564216614,
      0.13356003165245056,
      -0.14320889115333557,
      0.002570220734924078,
      0.2845378518104553,
      0.14298541843891144,
      -0.19191327691078186,
      0.10989294946193695,
      0.04470038786530495,
      -0.37917232513427734,
      0.3766234517097473,
      -0.04914054647088051,
      -0.2571709454059601,
      -0.26728856563568115,
      -0.021497057750821114,
      -0.21270278096199036,
      -0.21955928206443787,
      -0.30616962909698486,
      -0.4196637272834778,
      0.3824557662010193,
      -0.09244688600301743,
      0.4880874752998352,
      0.22910119593143463,
      0.3290320038795471,
      0.09243669360876083,
      0.053138941526412964,
      -0.7473331093788147,
      -0.21878722310066223,
      0.34641650319099426,
      0.2538028657436371,
      0.2832612991333008,
      -0.5622188448905945,
      -0.0008365797693841159,
      -0.08398782461881638,
      -0.029012633487582207,
      -0.2059062272310257,
      -0.2995622158050537,
      0.3511033058166504,
      -0.10574233531951904,
      0.3073800504207611,
      0.21406327188014984,
      0.007543544750660658,
      0.074132040143013,
      0.06502174586057663,
      -0.24585022032260895,
      -0.417064368724823,
      0.3413452208042145,
      -0.1711011528968811,
      -0.08512561023235321,
      -0.17138275504112244,
      -0.0005943155847489834,
      0.0990847498178482,
      -0.1670965701341629,
      -0.23979903757572174,
      -0.41798797249794006,
      0.3828219473361969,
      -0.041105642914772034,
      0.35626962780952454,
      -0.0554707869887352,
      -0.3053444027900696,
      -0.030141830444335938,
      -0.011222532950341702,
      0.15564075112342834,
      0.03658689558506012,
      0.06157417967915535,
      -0.1791892945766449,
      0.09562782198190689,
      -0.051303036510944366,
      0.14822398126125336,
      -0.058429792523384094,
      -0.20318035781383514,
      -1.576992392539978,
      -0.028332533314824104,
      0.3762787878513336,
      0.49138695001602173,
      0.2725776135921478,
      -0.03699466586112976,
      -0.03829345852136612,
      0.006937568541616201,
      0.1907002031803131,
      0.2189786732196808,
      0.028732914477586746,
      0.21583445370197296,
      -0.2646329402923584,
      0.00040310638723894954,
      -0.4090566337108612,
      1.2004626989364624,
      -1.4488533735275269,
      0.6932845115661621,
