{
  "board_height": 24,
  "board_width": 44,
  "conv1": {
    "bias": [
      0.30479341745376587,
      -0.0031751079950481653,
      -0.2500658631324768,
      -0.16848470270633698,
      -0.04334438219666481,
      0.10312531888484955,
      -0.17337262630462646,
      -0.0804871916770935,
      -0.05402308702468872,
      0.06595943868160248,
      0.1603851467370987,
      -0.09873177111148834,
      -0.1696527898311615,
      -0.005257006268948317,
      -0.3779582381248474,
      -0.24277722835540771,
      -0.1077677458524704,
      -0.004467877093702555,
      -0.13491672277450562,
      -0.19226254522800446,
      -0.23579061031341553,
      -0.07583262771368027,
      -0.16411647200584412,
      -0.1852746605873108,
      -0.11159733682870865,
      -0.18261957168579102,
      -0.004950296599417925,
      -0.8915848731994629,
      -0.4021103084087372,
      -0.2772079110145569,
      -0.3203463554382324,
      -0.33411815762519836
    ],
    "in_channels": 19,
    "kernel_size": 3,
    "out_channels": 32,
    "weights": [
      0.011230350472033024,
      0.12010408937931061,
      -0.07692649960517883,
      -0.011732893995940685,
      -0.22304667532444,
      -0.04192669689655304,
      0.09700513631105423,
      0.05665770173072815,
      0.0558442547917366,
      -0.610325038433075,
      -0.3166760802268982,
      -0.21530583500862122,
      -0.5093801617622375,
      -2.198780059814453,
      -0.43809086084365845,
      -0.2504933774471283,
      -0.4232673943042755,
      0.07949164509773254,
      -0.23003360629081726,
      -0.16976359486579895,
      -0.2552112936973572,
      -0.05288378521800041,
      -0.0035725554917007685,
      0.055314209312200546,
      -0.24966323375701904,
      -0.09922536462545395,
      -0.2641741633415222,
      0.39815786480903625,
      0.7331050038337708,
      0.29232504963874817,
      1.0924509763717651,
      1.1868523359298706,
      0.6930837631225586,
      -0.3219224214553833,
      0.21983332931995392,
      0.6475839614868164,
      -0.7969844341278076,
      -0.45997747778892517,
      -0.7248532176017761,
      -1.523439884185791,
      0.5925384163856506,
      -1.6582990884780884,
      -0.6193262338638306,
      -0.09611041098833084,
      -0.7227884531021118,
      0.775355339050293,
      0.377411425113678,
      1.4309852123260498,
      1.0891743898391724,
      0.5122804045677185,
      1.4769316911697388,
      0.16850408911705017,
      -0.026746658608317375,
      0.12252508103847504,
      -0.7589631080627441,
      0.14528614282608032,
      -1.5766816139221191,
      -0.8121498227119446,
      0.7385082244873047,
      -1.5940356254577637,
      -0.2072322517633438,
      -0.7151886224746704,
      -0.31225404143333435,
      0.024950051680207253,
      0.45464396476745605,
      0.33328381180763245,
      0.8002063632011414,
      0.409269243478775,
      1.0195293426513672,
      -1.1625475883483887,
      -0.033129774034023285,
      -0.9898043870925903,
      -0.7890455722808838,
      -0.7719066739082336,
      -0.7354289889335632,
      -1.0664232969284058,
      0.7377316951751709,
      -1.5766932964324951,
      -0.2106286734342575,
      -0.024816341698169708,
      -1.0348153114318848,
      -0.06222467124462128,
      1.083678126335144,
      0.18172624707221985,
      0.7216116189956665,
      0.3176213502883911,
      0.926726222038269,
      0.007694998290389776,
      -0.9499987363815308,
      -0.049492835998535156,
      -1.1928297281265259,
      -0.4801742434501648,
      -1.1944808959960938,
      -0.6273401379585266,
      0.08049400895833969,
      -0.8099278211593628,
      -0.14600029587745667,
      0.11285749077796936,
      -1.0776019096374512,
      -0.0991007387638092,
      0.7306316494941711,
      -0.5510382652282715,
      -0.5097991824150085,
      -0.003968483302742243,
      -0.7694932818412781,
      -0.05709139630198479,
      -0.4468511939048767,
      -0.07851754873991013,
      0.18341895937919617,
      0.07194812595844269,
      0.23423142731189728,
      -0.33570337295532227,
      0.10158906877040863,
      -0.07575079798698425,
      0.16279342770576477,
      0.06566230207681656,
      0.16562813520431519,
      0.06053246557712555,
      -0.33290374279022217,
      -0.36274728178977966,
      -0.4684104919433594,
      -0.38060468435287476,
      -0.8601741790771484,
      -0.10411587357521057,
      -0.36567771434783936,
      -0.2952139675617218,
      0.05249791964888573,
      0.2216954082250595,
      0.053503796458244324,
      -0.2538259029388428,
      -0.17175209522247314,
      -0.04431189224123955,
      0.07076344639062881,
      0.3562115430831909,
      0.023990383371710777,
      -0.0010354358237236738,
      0.0630362257361412,
      -0.2407451570034027,
      -0.3560997247695923,
      -0.05769377946853638,
      -0.776796817779541,
      -0.056418269872665405,
      -0.8136755228042603,
      -0.0753207802772522,
      0.016226939857006073,
      0.2178727686405182,
      0.11648459732532501,
      -0.2755313217639923,
      -0.16887272894382477,
      -0.05874183028936386,
      0.15713316202163696,
      0.20654763281345367,
      0.09134042263031006,
      -0.19974283874034882,
      0.2350323349237442,
      -0.2735734283924103,
      -0.39256078004837036,
      -0.36450740694999695,
      -0.7291904091835022,
      -0.1480260044336319,
      -0.49849075078964233,
      -0.02597944438457489,
      0.024749288335442543,
      0.33242109417915344,
      0.0690506175160408,
      -0.18175986409187317,
      -0.13992628455162048,
      -0.05532355606555939,
      0.1519223004579544,
      0.2543948292732239,
      0.20205453038215637,
      -0.08227863162755966,
      -0.11281783133745193,
      0.03982405364513397,
      0.016118567436933517,
      -4.3023881912231445,
      -0.015871316194534302,
      -0.051046714186668396,
      0.09805592894554138,
      -0.017223449423909187,
      0.2852339446544647,
      0.49148014187812805,
      -0.44795528054237366,
      0.5148306488990784,
      0.3297401964664459,
      0.3692253530025482,
      0.8802453875541687,
      1.8499345779418945,
      0.8062244653701782,
      -0.1358635425567627,
      -0.10865606367588043,
      -0.16608843207359314,
      0.06088609993457794,
      0.10227284580469131,
      0.1117243766784668,
      -0.042563725262880325,
      -0.11044064909219742,
      0.07175522297620773,
      0.4960038363933563,
      1.0617460012435913,
      0.5704729557037354,
      -0.05706268176436424,
      -0.9151554703712463,
      0.4473998546600342,
      0.22540321946144104,
      0.07581779360771179,
      -0.08369730412960052,
      -2.923769950866699,
      -0.4549705386161804,
      -2.570507526397705,
      -0.4853588938713074,
      0.7676920294761658,
      -0.5099265575408936,
      -0.007960960268974304,
      0.07452556490898132,
      -0.025637278333306313,
      0.44936105608940125,
      -1.7775301933288574,
      0.46376433968544006,
      1.3478171825408936,
      -1.7722910642623901,
      1.6731548309326172,
      -0.015238400548696518,
      -0.01457363273948431,
      -0.17295320332050323,
      -1.1510484218597412,
      -1.59574294090271,
      -1.475417971611023,
      -1.0082207918167114,
      -1.1273070573806763,
      0.0033243803773075342,
      -1.0552603006362915,
      -0.43762099742889404,
      -1.0808733701705933,
      0.3213043510913849,
      -0.9546355605125427,
      -0.08753863722085953,
      0.7012731432914734,
      -2.3199589252471924,
      1.6285698413848877,
      0.09027029573917389,
      0.18322938680648804,
      -0.006382874213159084,
      -0.39064839482307434,
      -0.759763240814209,
      -1.2622202634811401,
      -0.34590640664100647,
      -0.3724716603755951,
      -0.32663068175315857,
      -0.5660456418991089,
      0.15739965438842773,
      -1.1751339435577393,
      0.1960265189409256,
      1.2983742952346802,
      0.1577756702899933,
      -0.4389441907405853,
      1.1355818510055542,
      -0.08744723349809647,
      0.1862199455499649,
      0.3762527406215668,
      -0.41730862855911255,
      -0.5144164562225342,
      -0.1941991150379181,
      -0.5289261937141418,
      -0.4937467873096466,
      1.2667043209075928,
      -0.8038055896759033,
      -0.693776547908783,
      -0.808150053024292,
      -0.6504403948783875,
      -0.28661561012268066,
      -1.215752124786377,
      0.06541302800178528,
      0.10564010590314865,
      -2.630784511566162,
      0.10952632129192352,
      0.14716607332229614,
      -0.017593029886484146,
      0.23988725244998932,
      -0.03029002994298935,
      -0.248691126704216,
      0.08416541665792465,
      0.09788701683282852,
      -0.6499950885772705,
      0.12055578827857971,
      0.02006983943283558,
      0.6930246353149414,
      -0.24273665249347687,
      0.17963427305221558,
      -0.768162727355957,
      0.016467083245515823,
      0.06954669952392578,
      -2.370199203491211,
      0.09346501529216766,
      0.25204959511756897,
      0.016383785754442215,
      0.32489439845085144,
      0.000610781367868185,
      -0.7676557898521423,
      0.1310514211654663,
      0.04475369304418564,
      0.21481619775295258,
      0.05079982057213783,
      -0.1285417526960373,
      0.2939634919166565,
      -0.25388261675834656,
      0.001010095002129674,
      -0.4502636194229126,
      -0.1440085768699646,
      -0.03554689139127731,
      -2.2724008560180664,
      0.028284713625907898,
      0.22155730426311493,
      0.17395368218421936,
      0.1249895915389061,
      -0.11468106508255005,
      -0.5634127855300903,
      0.07396329194307327,
      0.03875970095396042,
      -0.10664636641740799,
      0.10999244451522827,
      0.05173439532518387,
      0.5622231960296631,
      -0.2814364731311798,
      0.08068855851888657,
      -1.9912554025650024,
      -0.009096767753362656,
      0.16513212025165558,
      -2.2306666374206543,
      0.13090677559375763,
      0.03070097602903843,
      0.45064350962638855,
      0.33922263979911804,
      0.03958350792527199,
      -0.8678861856460571,
      0.1136011853814125,
      0.0664675384759903,
      0.2013387382030487,
      -0.03691989183425903,
      -0.14350441098213196,
      0.47524139285087585,
      -0.2001267373561859,
      0.012501914985477924,
      -3.5901072025299072,
      0.04002292454242706,
      0.13047970831394196,
      -0.15499469637870789,
      0.14602218568325043,
      -0.2018495798110962,
      0.02290000207722187,
      -0.14905960857868195,
      3.7412362871691585e-05,
      0.8643412590026855,
      -0.3138161599636078,
      -0.2273675501346588,
      0.22795821726322174,
      0.23912376165390015,
      -0.18983221054077148,
      -1.852855920791626,
      -0.23435908555984497,
      -0.12417951971292496,
      -0.45978009700775146,
      -0.009416365064680576,
      -0.01967187225818634,
      0.17799566686153412,
      -0.03312450274825096,
      -0.01993045210838318,
      -0.1454925537109375,
      -0.06047000363469124,
      -0.8722425103187561,
      1.3529565334320068,
      0.046001411974430084,
      -0.17111030220985413,
      2.6558451652526855,
      -0.44549256563186646,
      -0.01340306643396616,
      0.5908806920051575,
      0.15619878470897675,
      -0.12083831429481506,
      -0.3972652852535248,
      -0.26930370926856995,
      0.5092946887016296,
      -0.14806796610355377,
      0.41394561529159546,
      -0.11030197143554688,
      0.011868501082062721,
      -0.025963185355067253,
      -2.3073439598083496,
      -0.3422432541847229,
      -1.3329081535339355,
      0.2057567685842514,
      0.9681918025016785,
      -0.3277583718299866,
      -0.6076744198799133,
      0.46994200348854065,
      0.09541551023721695,
      -0.4701075255870819,
      0.08431918919086456,
      -0.20421548187732697,
      -0.23954878747463226,
      0.527226448059082,
      -0.6612306237220764,
      -0.074613556265831,
      0.07835318893194199,
      -0.4744516611099243,
      -1.0003933906555176,
      -3.0255980491638184,
      -0.09534424543380737,
      -0.3564610779285431,
      1.852252721786499,
      -0.6004281640052795,
      -0.07365460693836212,
      0.49426326155662537,
      0.21709312498569489,
      -0.09247741848230362,
      -0.47074708342552185,
      -0.19753827154636383,
      0.5608293414115906,
      -0.12873706221580505,
      0.4649960398674011,
      -0.09147948771715164,
      -0.3122214674949646,
      0.14488334953784943,
      -0.8237580060958862,
      -2.6960318088531494,
      -0.4482695162296295,
      -0.1473485678434372,
      1.2455863952636719,
      0.16716066002845764,
      -0.2940867245197296,
      0.44112062454223633,
      -0.5750335454940796,
      -0.3873896896839142,
      0.18046361207962036,
      0.2851133346557617,
      -0.8864867687225342,
      0.3237583637237549,
      0.05558966100215912,
      -0.7162460684776306,
      -0.09524235874414444,
      0.01095160935074091,
      -0.39483094215393066,
      -1.0725160837173462,
      0.08440092951059341,
      0.3432539999485016,
      -0.45786798000335693,
      0.4442100524902344,
      -0.08390086889266968,
      0.1293829381465912,
      -0.061946626752614975,
      -0.04869387298822403,
      -0.0460754930973053,
      -0.17989228665828705,
      0.09833448380231857,
      -0.33687347173690796,
      0.34343332052230835,
      0.1498347967863083,
      -0.3585518002510071,
      0.09120237082242966,
      -0.574964165687561,
      -1.4613335132598877,
      -0.4766376316547394,
      0.06841832399368286,
      -0.6130161881446838,
      0.49790191650390625,
      -0.08941210061311722,
      0.06565060466527939,
      -0.18489404022693634,
      -0.1138983890414238,
      -0.34443044662475586,
      -0.055237144231796265,
      0.20036379992961884,
      -0.4911998510360718,
      0.20334069430828094,
      0.058370232582092285,
      -0.051363226026296616,
      0.12376897037029266,
      -0.6761199831962585,
      -1.544049620628357,
      -0.3776623606681824,
      0.2501112222671509,
      -0.33039391040802,
      0.47395631670951843,
      -0.027203556150197983,
      0.0011527684982866049,
      -0.02073821797966957,
      -0.032872408628463745,
      -0.242763951420784,
      -0.0700371041893959,
      0.0486060194671154,
      -0.17894253134727478,
      0.22553081810474396,
      0.21174728870391846,
      -0.208160862326622,
      0.12205278873443604,
      -0.7222262620925903,
      -1.8068439960479736,
      -0.3326888382434845,
      0.47892165184020996,
      -0.5897096395492554,
      0.5109571814537048,
      0.06904898583889008,
      -0.02222713828086853,
      -0.1676446795463562,
      -0.03431043028831482,
      0.06395763903856277,
      -0.022234926000237465,
      0.23666685819625854,
      -0.7009822130203247,
      0.2987957000732422,
      0.023520877584815025,
      0.0203465037047863,
      0.04633782431483269,
      0.007766697555780411,
      0.026067964732646942,
      -0.02863139845430851,
      0.0484052449464798,
      -0.10073791444301605,
      0.03079310804605484,
      -0.02651960588991642,
      -0.09314657747745514,
      0.03863317146897316,
      -0.05997235327959061,
      0.10587524622678757,
      -0.03275036811828613,
      0.013365271501243114,
      -0.03500863164663315,
      0.1440274566411972,
      0.010523071512579918,
      0.13652972877025604,
      0.11854434758424759,
      -0.11482689529657364,
      -0.18232464790344238,
      -0.2433290332555771,
      0.07316146790981293,
      0.22242604196071625,
      -0.016919555142521858,
      -0.19417710602283478,
      -0.1322527378797531,
      -0.2939952313899994,
      -1.7851860523223877,
      -2.22343111038208,
      0.344767302274704,
      1.4395171403884888,
      -2.148574113845825,
      1.616303563117981,
      0.7207249402999878,
      -2.5625593662261963,
      0.8406132459640503,
      0.3026972711086273,
      -1.442934513092041,
      0.3636269271373749,
      -1.8066312074661255,
      -0.09529424458742142,
      -1.605177640914917,
      -0.2307712882757187,
      0.11740396171808243,
      -0.847023069858551,
      2.5094549655914307,
      2.7113964557647705,
      1.621330738067627,
      2.6569137573242188,
      -1.6575610637664795,
      1.2937356233596802,
      2.152369737625122,
      -1.338201642036438,
      -0.5671579241752625,
      -0.42953479290008545,
      -1.2375507354736328,
      0.3111514151096344,
      -0.311049222946167,
      0.13016165792942047,
      -0.860506534576416,
      -0.5014632344245911,
      -0.31921446323394775,
      -0.14372356235980988,
      1.2856050729751587,
      1.6912821531295776,
      0.5150432586669922,
      1.0224547386169434,
      -1.7738628387451172,
      0.39147046208381653,
      1.3748522996902466,
      -2.6285738945007324,
      1.0798414945602417,
      -1.5453212261199951,
      -1.1444251537322998,
      -0.7878375053405762,
      -0.09096620231866837,
      -0.06457094103097916,
      -0.09128628671169281,
      -0.19593365490436554,
      -0.10117637366056442,
      0.04325367510318756,
      1.6945698261260986,
      -1.6030136346817017,
      1.1930773258209229,
      0.3832634389400482,
      2.1215169429779053,
      0.4217335283756256,
      0.8106073141098022,
      2.2048699855804443,
      0.3643835484981537,
      -0.4822179675102234,
      0.668963611125946,
      -0.4996051490306854,
      0.21753087639808655,
      -1.5333620309829712,
      0.20577853918075562,
      0.01141995657235384,
      -0.885120153427124,
      0.14795388281345367,
      -0.011412185616791248,
      -0.5067622661590576,
      -0.2662368714809418,
      -0.3104374408721924,
      -0.2983724772930145,
      -0.2917921543121338,
      -0.39880380034446716,
      -0.05141401290893555,
      -0.02131662890315056,
      -0.26840534806251526,
      0.013046907261013985,
      -0.2303353250026703,
      0.04399747774004936,
      -0.3337095081806183,
      0.14539287984371185,
      0.11369013786315918,
      -0.37967920303344727,
      0.17219139635562897,
      0.08181244134902954,
      -0.4732684791088104,
      -0.3904974162578583,
      -0.33189108967781067,
      -0.25501391291618347,
      -0.5117893815040588,
      -0.18694616854190826,
      -0.4837374985218048,
      -0.050679899752140045,
      -0.27180445194244385,
      0.10366405546665192,
      -0.2322545349597931,
      0.055267084389925,
      -0.22225210070610046,
      0.005026626866310835,
      -0.1210234984755516,
      -0.0561944954097271,
      0.02291152812540531,
      0.24734815955162048,
      -0.26730695366859436,
      -0.6228427290916443,
      -0.4713667631149292,
      -0.8147823214530945,
      -0.3757488429546356,
      -0.05022111162543297,
      -0.20994603633880615,
      0.21801848709583282,
      -0.22062453627586365,
      0.1295466274023056,
      -0.1895931363105774,
      -0.035852059721946716,
      -0.2881220579147339,
      0.09701799601316452,
      0.16526104509830475,
      -0.15114551782608032,
      0.14457139372825623,
      -0.1936417818069458,
      -0.38271573185920715,
      -0.29777848720550537,
      0.12514540553092957,
      -0.9830282926559448,
      -0.26864638924598694,
      -0.16065816581249237,
      0.15281511843204498,
      0.3277755379676819,
      -0.25133249163627625,
      -0.005787895061075687,
      -0.2185295671224594,
      0.018550097942352295,
      -0.0855029821395874,
      0.1819126307964325,
      0.14932169020175934,
      -0.22354906797409058,
      0.09864598512649536,
      -0.045428317040205,
      0.04460824653506279,
      0.026249952614307404,
      0.009737445041537285,
      -2.2186625003814697,
      0.006306931376457214,
      0.01150621846318245,
      -0.0029262001626193523,
      -0.00015142362099140882,
      0.21688096225261688,
      0.1618104875087738,
      -0.19233720004558563,
      0.22787882387638092,
      0.5821769833564758,
      -0.16801027953624725,
      -0.24069076776504517,
      0.06199914589524269,
      -1.7682852745056152,
      -0.06273356080055237,
      -0.05198635160923004,
      -0.2131786197423935,
      -1.279991626739502,
      0.01965361461043358,
      -0.8418530821800232,
      -0.2557636499404907,
      0.21525324881076813,
      -0.12351749837398529,
      -0.5866299867630005,
      0.24256585538387299,
      -0.3135666847229004,
      1.7566313743591309,
      0.19006198644638062,
      1.5934665203094482,
      0.24929289519786835,
      1.0079158544540405,
      -1.3457574844360352,
      -0.09484218806028366,
      -0.11048220843076706,
      -0.022051922976970673,
      -0.014508378691971302,
      -0.08770275861024857,
      -0.033975813537836075,
      -0.668285071849823,
      0.05862664803862572,
      -0.9787027835845947,
      -1.1039681434631348,
      -0.014108431525528431,
      -1.329576849937439,
      1.9139453172683716,
      0.3625788390636444,
      2.120762586593628,
      0.04252929240465164,
      1.004509687423706,
      -0.11708265542984009,
      -0.6745226383209229,
      0.67753005027771,
      -0.889140784740448,
      -0.9239668250083923,
      0.30306267738342285,
      -0.847017765045166,
      -0.9641311168670654,
      0.05059027299284935,
      -1.4789011478424072,
      -0.6232624053955078,
      0.13895896077156067,
      -0.695824146270752,
      1.4512606859207153,
      -0.21026533842086792,
      1.5644984245300293,
      0.33343252539634705,
      0.8435519933700562,
      -0.09314237534999847,
      0.10802717506885529,
      0.12509426474571228,
      0.024144066497683525,
      -0.19863222539424896,
      0.10059044510126114,
      -0.12270544469356537,
      -0.796500563621521,
      -0.22200393676757812,
      -0.8593220710754395,
      -0.9246143102645874,
      -0.2877148687839508,
      -1.2246332168579102,
      1.8920425176620483,
      0.3885936141014099,
      1.8341281414031982,
      0.22857877612113953,
      0.7057536244392395,
      -0.2507162094116211,
      -0.11097709834575653,
      0.4200298488140106,
      -0.016393672674894333,
      -0.5736236572265625,
      0.3872916102409363,
      -0.5545003414154053,
      -0.7317585349082947,
      0.27038201689720154,
      -0.832454264163971,
      -0.7039569020271301,
      -0.674403965473175,
      -0.18445681035518646,
      -0.7666555047035217,
      -2.2510125637054443,
      0.3021436929702759,
      -0.12058215588331223,
      0.4672996699810028,
      -0.03268713131546974,
      -0.0446811206638813,
      0.06259970366954803,
      0.24701137840747833,
      0.5169420838356018,
      -0.33577245473861694,
      0.4400658905506134,
      -0.17921483516693115,
      -0.842208206653595,
      0.15994229912757874,
      -0.5738018751144409,
      -0.681016743183136,
      -0.13955485820770264,
      -0.8384417295455933,
      -2.4380576610565186,
      -0.11194299906492233,
      -0.23560605943202972,
      0.707239031791687,
      0.11666451394557953,
      -0.0417407862842083,
      -0.016409989446401596,
      0.18361274898052216,
      0.3012184500694275,
      -0.2678481936454773,
      0.5156781673431396,
      -1.6618657112121582,
      -0.9441527128219604,
      -0.1707485169172287,
      -0.6409046053886414,
      -0.6912447214126587,
      -0.14710326492786407,
      -0.853158712387085,
      -1.6816800832748413,
      0.22549085319042206,
      -0.01537858322262764,
      0.49840790033340454,
      0.0017560850828886032,
      -0.021922536194324493,
      -0.06478063762187958,
      0.1912352442741394,
      0.5036261677742004,
      -0.2783183157444,
      0.6164828538894653,
      -1.1343456506729126,
      -0.7271280288696289,
      0.18651878833770752,
      -0.4836452007293701,
      -0.9988425970077515,
      -0.2468152642250061,
      -1.053866982460022,
      -1.5323989391326904,
      -1.1407966613769531,
      -0.41344329714775085,
      0.4629777669906616,
      0.21708868443965912,
      -0.08643020689487457,
      0.15394040942192078,
      0.11988646537065506,
      0.020265990868210793,
      0.17306454479694366,
      0.25294554233551025,
      -1.4809720516204834,
      -0.36418262124061584,
      -0.8506664633750916,
      0.13947463035583496,
      -0.3172169625759125,
      0.03254721313714981,
      0.10985876619815826,
      0.272605299949646,
      0.14815209805965424,
      -0.1150696650147438,
      -0.03832821920514107,
      -0.10639943927526474,
      0.032841797918081284,
      0.5190815329551697,
      0.1763397455215454,
      0.10428164899349213,
      0.2714594304561615,
      0.5291950702667236,
      0.11153905838727951,
      0.16887128353118896,
      0.7514190673828125,
      0.06702806800603867,
      -0.16660632193088531,
      0.16060134768486023,
      0.21144245564937592,
      0.061841342598199844,
      0.06748189777135849,
      -0.01564846560359001,
      0.28406399488449097,
      -0.005667343735694885,
      -1.920977234840393,
      -2.8531253337860107,
      -0.9895074963569641,
      -3.328413486480713,
      -3.109924793243408,
      -3.461637258529663,
      -0.13400061428546906,
      -1.424985408782959,
      -0.12303634732961655,
      0.2686888575553894,
      -0.5703710913658142,
      0.4713653326034546,
      0.7843374013900757,
      0.637352705001831,
      0.2369965761899948,
      0.6196059584617615,
      0.008406555280089378,
      0.3550446629524231,
      -0.3847806453704834,
      -0.044828012585639954,
      0.003559741424396634,
      -0.03789200261235237,
      -0.4397611916065216,
      -0.121078260242939,
      0.4304583668708801,
      -0.027364926412701607,
      0.722320556640625,
      0.5174096822738647,
      0.25702622532844543,
      0.19969096779823303,
      0.5474110245704651,
      0.6247220039367676,
      0.20681045949459076,
      0.5236213207244873,
      0.6412340402603149,
      0.3302351236343384,
      -1.3214988708496094,
      -0.6191878318786621,
      -0.8595342040061951,
      -1.9995193481445312,
      -2.4270355701446533,
      -1.8753993511199951,
      0.027448482811450958,
      -0.13348273932933807,
      -0.165380597114563,
      0.38488438725471497,
      0.4032198488712311,
      0.5759071111679077,
      0.13156364858150482,
      -0.2094619870185852,
      -0.15527155995368958,
      0.7427126169204712,
      0.5600980520248413,
      0.7069118022918701,
      -0.6317694187164307,
      -0.7388018369674683,
      -0.9157757759094238,
      -0.14800621569156647,
      -3.6979546546936035,
      -0.945223331451416,
      0.21887940168380737,
      -0.02552359364926815,
      0.23428213596343994,
      0.33496835827827454,
      0.30373454093933105,
      0.30077269673347473,
      -0.3054729104042053,
      -0.21186430752277374,
      0.021062985062599182,
      0.5849177837371826,
      0.6998559832572937,
      0.5497206449508667,
      0.1794266551733017,
      0.09773390740156174,
      -0.14101357758045197,
      0.38214418292045593,
      1.1065294742584229,
      0.5844398736953735,
      0.054732080549001694,
      0.7015230655670166,
      0.1547463834285736,
      0.25022509694099426,
      0.049932945519685745,
      0.10910005122423172,
      -0.1841469705104828,
      -0.2168685495853424,
      -0.06682870537042618,
      -0.3728031516075134,
      0.152668759226799,
      -0.08611362427473068,
      0.32857275009155273,
      -1.211197018623352,
      0.3429719805717468,
      0.28907331824302673,
      0.6389111876487732,
      0.3767957091331482,
      0.1159399226307869,
      0.13828934729099274,
      0.3638128638267517,
      0.22092881798744202,
      -0.11930514127016068,
      0.13619494438171387,
      -0.10684965550899506,
      0.09016729146242142,
      -0.027421867474913597,
      -0.25855401158332825,
      0.3835225999355316,
      -0.3021627962589264,
      0.42788824439048767,
      -0.7692649960517883,
      0.15046094357967377,
      0.2749805748462677,
      0.36694076657295227,
      0.31939896941185,
      0.17975535988807678,
      -0.072955422103405,
      0.45827004313468933,
      0.4737931489944458,
      -0.29682186245918274,
      0.333109974861145,
      -0.40486446022987366,
      -0.12991884350776672,
      -0.39340487122535706,
      -0.3469054400920868,
      0.6103664636611938,
      -0.09869302064180374,
      0.6105098128318787,
      -0.527544379234314,
      0.5958643555641174,
      0.6925613284111023,
      -1.0285179615020752,
      0.5593691468238831,
      0.09449649602174759,
      0.10225193947553635,
      0.22315770387649536,
      0.4686906933784485,
      -0.21178297698497772,
      0.3997633159160614,
      -0.3942929208278656,
      -0.0923810601234436,
      -0.27665209770202637,
      -0.11555317044258118,
      0.39826157689094543,
      -0.1468585878610611,
      -0.03487977012991905,
      -0.15727399289608002,
      0.009410920552909374,
      -0.1285393238067627,
      0.29181280732154846,
      -0.1294567883014679,
      -0.05751991271972656,
      -0.10225947946310043,
      -0.0208076573908329,
      0.4124394655227661,
      0.6508515477180481,
      -0.2733731269836426,
      0.14342381060123444,
      -0.48652687668800354,
      0.29289305210113525,
      -0.726306676864624,
      -0.16540862619876862,
      -1.0167686939239502,
      -0.3389608860015869,
      -0.7321574687957764,
      -0.21348202228546143,
      0.13023799657821655,
      0.17854024469852448,
      0.14885364472866058,
      0.09003555029630661,
      0.029918311163783073,
      -0.051886219531297684,
      0.26721811294555664,
      -1.2159205675125122,
      -2.1877737045288086,
      1.0018670558929443,
      -0.03816588222980499,
      0.5864546298980713,
      0.20241166651248932,
      -1.2090065479278564,
      -1.4142448902130127,
      -0.3116690218448639,
      -0.4405606985092163,
      -0.28405648469924927,
      -1.2378261089324951,
      0.6940770745277405,
      0.24797295033931732,
      0.06923943012952805,
      0.1576094776391983,
      -0.14289358258247375,
      0.4790828824043274,
      1.2041023969650269,
      -1.5091190338134766,
      0.6806823015213013,
      1.4077686071395874,
      0.08259738236665726,
      0.02986975386738777,
      -0.8620572090148926,
      -0.6004501581192017,
      0.11898532509803772,
      -1.0614980459213257,
      0.1518522948026657,
      0.2867475152015686,
      0.11942142993211746,
      0.16267496347427368,
      -0.12743864953517914,
      0.4306260347366333,
      -0.25620749592781067,
      1.1581381559371948,
      0.7979851365089417,
      0.9766278862953186,
      1.0290058851242065,
      0.12272804230451584,
      1.1429628133773804,
      0.6131576299667358,
      -0.27109453082084656,
      0.44191357493400574,
      -0.3400466740131378,
      -0.35937899351119995,
      -0.6173822283744812,
      0.08290322124958038,
      0.6514367461204529,
      0.026319727301597595,
      0.30492103099823,
      -0.5834167003631592,
      0.38290727138519287,
      1.5247820615768433,
      -1.7909114360809326,
      1.5514874458312988,
      1.4738136529922485,
      -0.05463547259569168,
      1.5384786128997803,
      0.2516193091869354,
      -0.4499661326408386,
      0.4686521291732788,
      0.0855742022395134,
      -0.9251168966293335,
      -0.16820228099822998,
      -0.09583601355552673,
      -0.6396641731262207,
      0.3215446472167969,
      0.31359371542930603,
      -0.23126569390296936,
      0.026582639664411545,
      0.03567814454436302,
      -0.9946793913841248,
      0.22214043140411377,
      -0.19389712810516357,
      -0.02103624865412712,
      -0.09941356629133224,
      -0.15226425230503082,
      0.1830943077802658,
      -0.2318533957004547,
      0.04082536697387695,
      -0.395893931388855,
      0.1338016241788864,
      0.1251862347126007,
      -0.2876310646533966,
      -0.1999194175004959,
      -0.3289884328842163,
      0.09716728329658508,
      -0.07589858025312424,
      -0.21951651573181152,
      0.10484158247709274,
      0.024343738332390785,
      -0.06437746435403824,
      -0.28187984228134155,
      -0.08856856822967529,
      -0.12073978036642075,
      0.027841754257678986,
      -0.31065240502357483,
      -0.20300309360027313,
      0.04643724486231804,
      -0.0924343541264534,
      0.3229309022426605,
      0.13900455832481384,
      -0.1169065311551094,
      -0.37265098094940186,
      -0.2853536009788513,
      -0.0684094950556755,
      0.05885982885956764,
      0.48917901515960693,
      0.029424838721752167,
      -0.423649400472641,
      -0.45314767956733704,
      -0.16838720440864563,
      -0.17400211095809937,
      0.036764055490493774,
      0.015719957649707794,
      0.09005670249462128,
      -0.5614705681800842,
      -0.11926059424877167,
      0.3081091046333313,
      0.14552149176597595,
      -0.09167834371328354,
      -0.4491531550884247,
      -0.190854012966156,
      -0.10453543066978455,
      -0.16862595081329346,
      0.7350284457206726,
      0.03958591818809509,
      -0.1191641166806221,
      -0.030303021892905235,
      -0.0791134461760521,
      0.120888352394104,
      -0.256605327129364,
      0.0708572119474411,
      -0.08342811465263367,
      -0.32488930225372314,
      0.0014116709353402257,
      0.2507559359073639,
      0.26298779249191284,
      -0.035676341503858566,
      -0.23570488393306732,
      0.08529388159513474,
      -0.1760641634464264,
      0.04007213935256004,
      -0.20153355598449707,
      0.016025766730308533,
      0.045235343277454376,
      0.2700651288032532,
      0.05723799392580986,
      -0.04204806685447693,
      0.004095126409083605,
      -0.0831180065870285,
      -0.10032142698764801,
      0.35298269987106323,
      0.33217501640319824,
      0.12829038500785828,
      -0.2845434248447418,
      0.2087239921092987,
      -0.02668084017932415,
      -0.0358545295894146,
      0.07041230797767639,
      -0.06960036605596542,
      -0.47139331698417664,
      -0.14061759412288666,
      0.1017247661948204,
      0.17111711204051971,
      -0.1894889920949936,
      0.266109824180603,
      -0.07206621021032333,
      0.3164633512496948,
      -0.6033614277839661,
      -1.0920406579971313,
      0.02707543782889843,
      1.6304203271865845,
      0.5039775371551514,
      0.5284875631332397,
      0.34468674659729004,
      -0.3171488642692566,
      -1.1233940124511719,
      -1.5150693655014038,
      -0.2597897946834564,
      -0.010286174714565277,
      -1.341822862625122,
      0.909038245677948,
      -0.3669086694717407,
      -1.852364182472229,
      -0.21933643519878387,
      -0.43915224075317383,
      -0.7997952699661255,
      -1.5049163103103638,
      -0.13234426081180573,
      0.6621720790863037,
      1.1038622856140137,
      0.7783342599868774,
      -0.58206707239151,
      -1.8553321361541748,
      -1.0092188119888306,
      -0.2397250533103943,
      -0.1277521699666977,
      -0.09742894023656845,
      -0.48102182149887085,
      0.8491503000259399,
      -0.28854241967201233,
      -0.8340423107147217,
      -0.6336623430252075,
      -0.6327288746833801,
      0.771011233329773,
      -1.7594115734100342,
      -1.266693353652954,
      1.9102212190628052,
      1.1802256107330322,
      0.7396866083145142,
      -0.6825917959213257,
      -0.5655473470687866,
      -0.4691160023212433,
      -1.5767287015914917,
      -0.005007829982787371,
      -0.04395709186792374,
      -1.0276200771331787,
      0.9249474406242371,
      -0.024750089272856712,
      -2.209836483001709,
      -0.4991329312324524,
      -0.6545671224594116,
      0.04109965264797211,
      1.8665024042129517,
      0.6299062967300415,
      0.29790860414505005,
      2.15971302986145,
      0.46488049626350403,
      -0.36454975605010986,
      0.60736083984375,
      -1.1345491409301758,
      -0.5578360557556152,
      0.208442822098732,
      -0.6850223541259766,
      -0.2377622425556183,
      0.3516611158847809,
      -0.24659575521945953,
      -0.2991219758987427,
      -0.010574713349342346,
      -0.23177455365657806,
      0.10919515788555145,
      -1.1194931268692017,
      -0.10391079634428024,
      -0.26319822669029236,
      0.1497395634651184,
      0.05377543717622757,
      -0.06567265093326569,
      -0.48189443349838257,
      -0.17519286274909973,
      0.037857212126255035,
      -0.5190393924713135,
      0.015202775597572327,
      -0.0412217378616333,
      -0.09443057328462601,
      0.18265675008296967,
      -0.13267342746257782,
      -0.06302029639482498,
      -0.23465506732463837,
      0.11520007252693176,
      -1.0174750089645386,
      -0.148437961935997,
      -0.04209155961871147,
      0.0430210717022419,
      -0.016459239646792412,
      -0.23505647480487823,
      -0.23905564844608307,
      -0.38069164752960205,
      -0.0011626948835328221,
      -0.43153437972068787,
      0.13409069180488586,
      -0.01781454309821129,
      -0.24166929721832275,
      0.054470740258693695,
      -0.13081103563308716,
      0.05782654508948326,
      -0.26990851759910583,
      0.053355615586042404,
      -0.758661150932312,
      -0.1409870982170105,
      -0.2567986249923706,
      0.1846611350774765,
      0.11836342513561249,
      -0.22331444919109344,
      -0.26423925161361694,
      -0.27508360147476196,
      0.001559027936309576,
      -0.3565077483654022,
      0.10165871679782867,
      -0.05218574404716492,
      -0.21510262787342072,
      0.10448576509952545,
      -0.07660439610481262,
      -0.01315302774310112,
      -0.24686649441719055,
      0.2501448094844818,
      -1.2104759216308594,
      0.15198473632335663,
      -0.034411996603012085,
      0.16691793501377106,
      0.24568599462509155,
      -0.12784411013126373,
      -0.3288721740245819,
      0.0026621532160788774,
      0.1435880959033966,
      -0.6805999875068665,
      0.21203286945819855,
      -0.054279789328575134,
      -0.11166252940893173,
      0.18334512412548065,
      -0.05588884651660919,
      -0.03113437071442604,
      -0.21605664491653442,
      -0.05190769582986832,
      0.0009776386432349682,
      0.005892652086913586,
      0.02415650524199009,
      -0.19214485585689545,
      0.008482549339532852,
      0.02504466474056244,
      0.15451574325561523,
      0.012386142276227474,
      0.12542398273944855,
      -0.017103098332881927,
      -0.10600651800632477,
      0.004193800967186689,
      -1.4179365634918213,
      -0.008691467344760895,
      0.16504298150539398,
      -0.05876636877655983,
      0.1861257702112198,
      -0.270733118057251,
      0.2917393445968628,
      -0.1027446761727333,
      0.029134172946214676,
      0.15875957906246185,
      -0.08287442475557327,
      -0.1851087361574173,
      -0.09096941351890564,
      -0.20779773592948914,
      -0.7480049729347229,
      -0.03204018995165825,
      0.2033834308385849,
      -2.020754337310791,
      -1.5808579921722412,
      -1.2619376182556152,
      -0.07710197567939758,
      -0.9057992696762085,
      -0.05422725901007652,
      0.42543718218803406,
      -0.3234090805053711,
      -0.12304717302322388,
      -0.38861510157585144,
      0.7498838901519775,
      0.2096811980009079,
      -0.6034483313560486,
      -1.1022065877914429,
      -1.0884937047958374,
      -0.6885631084442139,
      0.26255661249160767,
      -0.9595507979393005,
      1.01563560962677,
      0.5974488854408264,
      0.8106781244277954,
      -2.278510093688965,
      -0.9817206263542175,
      -2.3431735038757324,
      -1.1957350969314575,
      -0.11421225965023041,
      -0.9775561690330505,
      -0.7566325664520264,
      0.8561596870422363,
      -1.1539335250854492,
      -0.8130344748497009,
      -0.7666953802108765,
      -0.4674838185310364,
      0.7261462807655334,
      2.2250592708587646,
      1.44630765914917,
      1.1069986820220947,
      3.0520782470703125,
      1.4197148084640503,
      1.8107928037643433,
      1.8879703283309937,
      1.519898772239685,
      -1.3300659656524658,
      -0.31317228078842163,
      -1.503859281539917,
      -0.8974679708480835,
      1.1764298677444458,
      -0.8788440823554993,
      -0.9082679748535156,
      0.06303931027650833,
      -1.0470541715621948,
      1.9807051420211792,
      -0.38884955644607544,
      1.234867811203003,
      2.355412244796753,
      0.6627651453018188,
      1.080291748046875,
      1.3379124402999878,
      1.2773115634918213,
      0.35633155703544617,
      -0.19425125420093536,
      0.5558139085769653,
      -0.5466930270195007,
      0.18897655606269836,
      0.4037700891494751,
      -0.22023369371891022,
      -0.2026643455028534,
      0.37896957993507385,
      -0.512283444404602,
      0.005240500904619694,
      0.08275333046913147,
      -0.2650190591812134,
      -0.1622428596019745,
      -0.15339019894599915,
      -0.06318577378988266,
      0.20754390954971313,
      0.13376837968826294,
      0.06906833499670029,
      -0.13470177352428436,
      -0.183489128947258,
      0.04496258497238159,
      0.26021215319633484,
      -0.012607038021087646,
      0.017775680869817734,
      0.03955601528286934,
      0.11045877635478973,
      0.3317785859107971,
      -0.22987383604049683,
      -0.06981264799833298,
      -0.519581139087677,
      -0.422921359539032,
      -0.2830027639865875,
      0.23227408528327942,
      0.39090868830680847,
      0.12761548161506653,
      0.21934321522712708,
      -0.2180434763431549,
      0.16319483518600464,
      -0.2311524748802185,
      0.21530470252037048,
      -0.12887737154960632,
      0.24674558639526367,
      0.21240708231925964,
      -0.05809011682868004,
      0.15676334500312805,
      0.03661596029996872,
      0.09972576051950455,
      -0.12764422595500946,
      -0.25658923387527466,
      -0.07749755680561066,
      0.16307738423347473,
      0.16904297471046448,
      0.1415015459060669,
      0.23507598042488098,
      -0.18321144580841064,
      0.07102704048156738,
      -0.11525146663188934,
      0.21213196218013763,
      0.234071746468544,
      0.03148161247372627,
      0.09150174260139465,
      -0.026815801858901978,
      0.21263869106769562,
      -0.2080771028995514,
      0.08055156469345093,
      -0.24264007806777954,
      -0.006527427118271589,
      0.6923381686210632,
      -0.027324313297867775,
      0.4884437322616577,
      0.14773677289485931,
      0.40660175681114197,
      -0.1785241961479187,
      0.1729540079832077,
      -0.21087956428527832,
      0.11179004609584808,
      0.11667533963918686,
      0.2220727801322937,
      0.22563868761062622,
      -0.08932647854089737,
      0.24644213914871216,
      0.04952447861433029,
      -0.17748135328292847,
      0.05607570335268974,
      0.02959294803440571,
      -0.363910436630249,
      -0.02684551104903221,
      -0.06973762810230255,
      8.503079152433202e-05,
      -0.06780030578374863,
      0.0803573727607727,
      -0.13302461802959442,
      -0.007284617517143488,
      0.11920073628425598,
      0.30532050132751465,
      0.19438575208187103,
      0.21096602082252502,
      1.2183570861816406,
      0.2586412727832794,
      -0.2977672517299652,
      0.19381187856197357,
      -0.20110346376895905,
      0.21098026633262634,
      0.06603017449378967,
      0.13771407306194305,
      -0.09613926708698273,
      0.18920066952705383,
      -0.006582191679626703,
      -0.13413658738136292,
      0.17573852837085724,
      -0.2754684090614319,
      -1.9186111688613892,
      1.50446617603302,
      -2.2276620864868164,
      -2.6550791263580322,
      0.22376859188079834,
      -2.251133441925049,
      -0.02609863691031933,
      -1.5538280010223389,
      0.023218397051095963,
      0.5853145718574524,
      -0.9812541604042053,
      0.5700016617774963,
      -0.13743527233600616,
      -1.6560871601104736,
      -0.01360023021697998,
      -0.2889217436313629,
      0.7536371350288391,
      -1.4270665645599365,
      -1.9034126996994019,
      0.9987179040908813,
      -1.8391354084014893,
      -2.2389347553253174,
      0.4851584732532501,
      -1.808477759361267,
      -0.04989004135131836,
      -1.553020715713501,
      -0.08599859476089478,
      0.5141613483428955,
      -1.2674992084503174,
      0.5177607536315918,
      0.04979865998029709,
      -1.455810785293579,
      0.07745090126991272,
      0.20252318680286407,
      -0.5831466317176819,
      0.14522245526313782,
      0.14991870522499084,
      -0.9637498259544373,
      0.44756266474723816,
      -0.6113554239273071,
      0.5297402143478394,
      -0.7411990165710449,
      -0.0013078986667096615,
      0.234331414103508,
      0.06806203722953796,
      0.42956915497779846,
      -0.032356150448322296,
      0.3660668134689331,
      0.3848961591720581,
      0.579513669013977,
      0.1937267929315567,
      -0.8419834971427917,
      -1.671167016029358,
      -1.0504217147827148,
      -0.8674048781394958,
      -0.441805362701416,
      -2.074695110321045,
      -1.7781068086624146,
      -1.4526740312576294,
      -0.9875446557998657,
      0.11543718725442886,
      0.06261780858039856,
      0.13550305366516113,
      0.805235743522644,
      0.7813582420349121,
      0.47210121154785156,
      -0.26508215069770813,
      -0.3822251856327057,
      0.10978749394416809,
      -0.054581884294748306,
      -0.32807648181915283,
      0.0731721818447113,
      -0.10688330233097076,
      -0.16039927303791046,
      -0.056822270154953,
      -0.04771002009510994,
      -0.10338620841503143,
      -0.21920020878314972,
      0.08296525478363037,
      -0.105637326836586,
      0.035690587013959885,
      0.12548594176769257,
      -0.28617003560066223,
      0.16303624212741852,
      -0.0879421979188919,
      -0.01062304712831974,
      -0.15957951545715332,
      -0.11840254813432693,
      -0.41897153854370117,
      0.14675909280776978,
      -0.20235486328601837,
      -0.6049044728279114,
      -0.16003616154193878,
      0.06714396923780441,
      0.3088439702987671,
      -0.03013177029788494,
      0.09143374115228653,
      -0.25955742597579956,
      0.19745111465454102,
      0.019783683121204376,
      -0.013001075014472008,
      0.006425217725336552,
      0.05326494947075844,
      -0.13298074901103973,
      -0.02878411114215851,
      0.11211241036653519,
      -0.6118338704109192,
      0.10997451841831207,
      -0.28769680857658386,
      -0.04328012466430664,
      -0.01399142574518919,
      -0.019542507827281952,
      0.12289553135633469,
      -0.1015426442027092,
      0.16739559173583984,
      -0.22444294393062592,
      0.1625719517469406,
      -0.12349721789360046,
      -0.017686018720269203,
      -0.007365643512457609,
      0.13580726087093353,
      -0.1350148767232895,
      0.02251274697482586,
      -0.08711621165275574,
      -0.3912462890148163,
      0.014546312391757965,
      -0.16645263135433197,
      -0.8738316297531128,
      0.04381168261170387,
      0.021228652447462082,
      -0.10871923714876175,
      -0.13606975972652435,
      0.09525004774332047,
      -0.15700924396514893,
      0.0666179433465004,
      0.013580741360783577,
      -0.0681101381778717,
      0.10433883965015411,
      0.09942024946212769,
      -0.26228708028793335,
      -0.015637727454304695,
      -0.07736458629369736,
      -0.07779688388109207,
      -0.054951172322034836,
      -0.2790665626525879,
      -0.20314647257328033,
      -0.32626500725746155,
      0.007890312001109123,
      -0.08900720626115799,
      0.015026324428617954,
      -0.017327506095170975,
      0.47099605202674866,
      0.128468319773674,
      0.26269298791885376,
      0.3700130879878998,
      0.490271657705307,
      0.3182125389575958,
      0.34960776567459106,
      0.49182042479515076,
      -0.8507206439971924,
      0.25011032819747925,
      -0.6258413195610046,
      -0.11055667698383331,
      0.21623943746089935,
      -0.07607793807983398,
      0.04277852177619934,
      -0.02429000288248062,
      -0.11072946339845657,
      -0.687368631362915,
      -1.507164716720581,
      -0.9067941308021545,
      0.003527520690113306,
      -0.288232684135437,
      -1.446614384651184,
      0.6918922662734985,
      0.481591135263443,
      0.7038406133651733,
      -0.18705372512340546,
      -0.16413462162017822,
      -0.19107316434383392,
      0.8812429904937744,
      0.40343689918518066,
      0.7305005788803101,
      0.13623100519180298,
      0.48242542147636414,
      0.10925732553005219,
      -0.03811727836728096,
      0.22766515612602234,
      0.16165949404239655,
      -0.9941944479942322,
      0.9944706559181213,
      0.5798130631446838,
      -0.43068447709083557,
      -2.7291369438171387,
      -0.4311566948890686,
      0.21594767272472382,
      0.11692731827497482,
      -0.05201209709048271,
      0.421453595161438,
      -0.25145575404167175,
      0.5650705695152283,
      -1.088053822517395,
      -0.6897640824317932,
      -0.3543682396411896,
      0.14793889224529266,
      0.09082607924938202,
      -0.14886963367462158,
      0.602888286113739,
      1.4508979320526123,
      -0.44759321212768555,
      -1.4228293895721436,
      0.026600254699587822,
      -0.517693817615509,
      -1.736539602279663,
      -1.4486479759216309,
      -0.8052104711532593,
      1.4141533374786377,
      -0.9056999683380127,
      0.871102511882782,
      -0.5436514616012573,
      -0.0777556449174881,
      -0.0886509120464325,
      -0.5621970295906067,
      -0.6823793649673462,
      -0.902862012386322,
      -0.2586335837841034,
      1.161679744720459,
      -0.6285041570663452,
      -1.6031088829040527,
      -2.1186718940734863,
      -0.83260178565979,
      -0.8891928791999817,
      -2.4238710403442383,
      -0.6285792589187622,
      1.635488510131836,
      0.3200560510158539,
      1.0750778913497925,
      -0.023976922035217285,
      -0.8233655095100403,
      0.3495553135871887,
      -0.08296547830104828,
      0.06301272660493851,
      -0.0032357724849134684,
      -0.3519429862499237,
      -0.13310648500919342,
      -0.6461185216903687,
      -0.22800202667713165,
      -0.009108335711061954,
      -0.11329766362905502,
      0.21241070330142975,
      0.3614843487739563,
      0.07082100212574005,
      0.36038732528686523,
      -0.5242998600006104,
      0.21878795325756073,
      0.4148978292942047,
      -0.17065218091011047,
      0.4157346487045288,
      -3.399670822545886e-05,
      0.2953171133995056,
      -0.240525022149086,
      -0.2767823338508606,
      0.43120458722114563,
      -0.17051880061626434,
      -0.054441120475530624,
      0.21873369812965393,
      -0.2101241946220398,
      0.10859005153179169,
      0.28145045042037964,
      -0.24522164463996887,
      0.5553877353668213,
      -0.2507064640522003,
      0.3810364902019501,
      0.1776040643453598,
      -0.7008800506591797,
      0.24748700857162476,
      -0.10509739071130753,
      0.16298162937164307,
      -0.2505379319190979,
      -0.6457667946815491,
      0.2000180184841156,
      -1.0255720615386963,
      -0.03651861101388931,
      -0.011449571698904037,
      0.17642129957675934,
      0.15234339237213135,
      0.33264994621276855,
      0.05936593934893608,
      0.28500908613204956,
      -0.3716011941432953,
      0.21958684921264648,
      0.4456793963909149,
      -0.4413573741912842,
      0.40021637082099915,
      0.026258718222379684,
      -0.1271526962518692,
      0.3100826144218445,
      -0.27924972772598267,
      0.05324094742536545,
      -0.30339911580085754,
      -0.010454066097736359,
      0.36524105072021484,
      0.029293781146407127,
      0.20449981093406677,
      0.18823160231113434,
      0.09153062850236893,
      0.4027371406555176,
      -0.28411665558815,
      0.3026755452156067,
      0.2696753144264221,
      -0.07370636612176895,
      0.11692649126052856,
      -0.012034564279019833,
      -0.0319657064974308,
      -0.01084927562624216,
      0.10764326900243759,
      -3.643146514892578,
      0.054368190467357635,
      0.031199777498841286,
      -0.04624827578663826,
      -0.007564603816717863,
      0.42684227228164673,
      0.27505597472190857,
      -0.3267720341682434,
      -0.2796919643878937,
      0.5909904837608337,
      -0.16753913462162018,
      0.275119423866272,
      0.5059553980827332,
      0.2434510737657547,
      0.09935402125120163,
      -0.055683683604002,
      0.09304170310497284,
      -0.04508768022060394,
      -0.03591466695070267,
      0.03349506855010986,
      -0.09687408804893494,
      -0.25099214911460876,
      -0.1317015290260315,
      -1.4287434816360474,
      0.13953597843647003,
      -1.2151885032653809,
      -1.8588647842407227,
      0.3311644196510315,
      -1.0276281833648682,
      0.14364014565944672,
      0.7071207761764526,
      0.11212629824876785,
      -0.5275874137878418,
      0.4882003366947174,
      -0.6102941632270813,
      -3.507647752761841,
      0.6865680813789368,
      -0.37334418296813965,
      -0.3415660560131073,
      0.3530745208263397,
      -0.2740992605686188,
      -0.7262430191040039,
      -0.10654281079769135,
      -0.652442455291748,
      -0.6687745451927185,
      0.09879402816295624,
      -0.5244055390357971,
      -0.04789283871650696,
      2.2085273265838623,
      -0.2080686092376709,
      -0.13816328346729279,
      0.20028093457221985,
      -0.06928709149360657,
      -0.5092291235923767,
      0.47237682342529297,
      -0.6068743467330933,
      0.19297559559345245,
      0.20615704357624054,
      0.030943790450692177,
      -1.3633123636245728,
      0.06500916928052902,
      -1.3183009624481201,
      -1.9681668281555176,
      1.1131147146224976,
      -0.8711057901382446,
      0.09021478146314621,
      1.0895978212356567,
      -0.13829277455806732,
      -0.3834463059902191,
      0.6490517258644104,
      -0.4379730522632599,
      -1.194127082824707,
      0.7450497150421143,
      -3.0686299800872803,
      -0.6374844908714294,
      0.017656629905104637,
      -0.9463532567024231,
      -0.9901962876319885,
      -0.3422330617904663,
      -0.6914685368537903,
      -0.6597751975059509,
      0.2615398168563843,
      -0.4410422444343567,
      0.026867574080824852,
      2.787388324737549,
      -0.206594318151474,
      -0.01901048608124256,
      0.22100447118282318,
      -0.04555203393101692,
      -0.5671216249465942,
      0.5012571811676025,
      -0.71090167760849,
      0.26938387751579285,
      0.040798913687467575,
      0.11170609295368195,
      0.23120896518230438,
      -1.3926588296890259,
      0.24158237874507904,
      -0.42524847388267517,
      -3.0589067935943604,
      -0.460315465927124,
      0.4292273223400116,
      -1.8024423122406006,
      0.43212082982063293,
      -0.21202462911605835,
      -0.38355252146720886,
      -0.2085290551185608,
      0.34220317006111145,
      -0.4729778468608856,
      0.1341792494058609,
      0.322441965341568,
      -2.4160921573638916,
      0.27193117141723633,
      0.1355648636817932,
      -1.1659373044967651,
      0.23775382339954376,
      -0.2071569412946701,
      -3.0992305278778076,
      -0.2290673553943634,
      0.45162683725357056,
      -1.6816997528076172,
      0.5044430494308472,
      -0.10429389774799347,
      -0.42088431119918823,
      -0.20134015381336212,
      0.2862999439239502,
      -0.6490105390548706,
      0.15704777836799622,
      0.29030489921569824,
      -2.2729923725128174,
      0.1861807107925415,
      0.2992703914642334,
      -1.3326343297958374,
      0.27177396416664124,
      -0.5335850119590759,
      -3.1540589332580566,
      -0.48698219656944275,
      0.4914349615573883,
      -1.79702889919281,
      0.3547111451625824,
      -0.14563767611980438,
      -0.2957763373851776,
      -0.1682104617357254,
      0.24500778317451477,
      -0.4222307503223419,
      0.08743354678153992,
      0.29242831468582153,
      -2.3359389305114746,
      0.3017948865890503,
      0.2051958441734314,
      -0.786866307258606,
      0.2583024501800537,
      -0.41691264510154724,
      -3.115410327911377,
      -0.2593636214733124,
      0.347461998462677,
      -1.7769014835357666,
      0.41423964500427246,
      -0.19646959006786346,
      -0.5411519408226013,
      -0.07971233129501343,
      0.3531130850315094,
      -0.4463832676410675,
      0.23193997144699097,
      0.21993610262870789,
      -2.198850154876709,
      0.14848533272743225,
      -0.065449059009552,
      0.15711171925067902,
      0.05353749543428421,
      0.09469794481992722,
      -0.3713870644569397,
      0.1319962590932846,
      -0.04884674400091171,
      0.10466641187667847,
      -0.07386225461959839,
      0.034042876213788986,
      0.166183739900589,
      -0.30308809876441956,
      0.18453112244606018,
      0.4647979438304901,
      -0.1991264969110489,
      -0.04948671907186508,
      0.5614915490150452,
      -0.17145243287086487,
      0.09617313742637634,
      0.0027673623990267515,
      0.11770981550216675,
      0.09285873919725418,
      0.06539681553840637,
      0.08421201258897781,
      0.01702314056456089,
      -0.12656189501285553,
      0.057870592921972275,
      1.60797917842865,
      0.14049291610717773,
      1.2895687818527222,
      1.4772642850875854,
      -1.2119520902633667,
      0.9928439855575562,
      0.16980890929698944,
      -1.7575604915618896,
      0.3696475028991699,
      -0.12362737953662872,
      -2.5764830112457275,
      0.11523625999689102,
      0.3423829674720764,
      -1.5915433168411255,
      0.5257052183151245,
      0.17206275463104248,
      -0.14163273572921753,
      0.023065948858857155,
      -1.015397310256958,
      -1.5262413024902344,
      0.09359056502580643,
      0.08363756537437439,
      0.7708269357681274,
      0.6099425554275513,
      0.17267177999019623,
      -0.4178546965122223,
      0.7764026522636414,
      -0.01620023138821125,
      0.7137486338615417,
      -0.5116676092147827,
      -0.8659889698028564,
      -0.7818828225135803,
      0.39194726943969727,
      0.17361044883728027,
      0.47460275888442993,
      -0.5787048935890198,
      1.0351817607879639,
      -0.3136711120605469,
      0.6712368130683899,
      0.6771878004074097,
      -0.4837360978126526,
      0.6023070812225342,
      1.354777216911316,
      0.126812145113945,
      0.8786041140556335,
      -0.1436111032962799,
      0.42098909616470337,
      -0.0433029942214489,
      -0.44957584142684937,
      -0.027898551896214485,
      -0.2522660791873932,
      -0.6376416683197021,
      0.6840324997901917,
      -0.5209353566169739,
      0.44142159819602966,
      -0.9065266847610474,
      0.32596540451049805,
      0.05842201039195061,
      -2.6020405292510986,
      0.3105130195617676,
      0.26002824306488037,
      -0.3102017343044281,
      -0.10682308673858643,
      0.24982748925685883,
      0.7322289943695068,
      0.21087947487831116,
      -0.37444230914115906,
      -0.4160626232624054,
      -0.4218699336051941,
      0.722150981426239,
      -0.9511231780052185,
      1.015167474746704,
      -0.07365207374095917,
      -0.7454367876052856,
      0.47784677147865295,
      0.05455246567726135,
      0.374043732881546,
      0.3062976002693176,
      0.19317921996116638,
      0.8052087426185608,
      0.16705642640590668,
      0.13839691877365112,
      0.053187064826488495,
      0.08831070363521576,
      -0.16861912608146667,
      -0.08202333003282547,
      -0.0445210225880146,
      -0.04701817408204079,
      0.041598979383707047,
      -0.2015344649553299,
      -0.074830062687397,
      -0.30529487133026123,
      0.027056528255343437,
      -0.7075366377830505,
      -0.6259918212890625,
      0.11755248159170151,
      0.15081071853637695,
      0.37501731514930725,
      -0.026362765580415726,
      -0.000825756520498544,
      -0.034434057772159576,
      -0.031139161437749863,
      -0.208419069647789,
      -0.20608383417129517,
      -0.033625077456235886,
      0.1374240219593048,
      0.23926250636577606,
      -0.04950027912855148,
      0.09194124490022659,
      -0.5020503997802734,
      0.3498676121234894,
      0.17582954466342926,
      -0.4799409508705139,
      0.2788456082344055,
      0.26157471537590027,
      0.572232723236084,
      0.24126559495925903,
      -0.02375982701778412,
      -0.23163579404354095,
      0.14248570799827576,
      -0.0171953272074461,
      0.19180449843406677,
      -0.026743484660983086,
      -0.16192616522312164,
      0.13066287338733673,
      -0.3532732129096985,
      -0.36435338854789734,
      -0.28648433089256287,
      0.29061567783355713,
      -0.07655882835388184,
      -0.25815537571907043,
      0.014709561131894588,
      0.30255433917045593,
      0.2871815860271454,
      0.04847422614693642,
      0.040844425559043884,
      0.10983070731163025,
      0.08042150735855103,
      -0.3404104709625244,
      -0.23190699517726898,
      -0.251235693693161,
      0.054100777953863144,
      0.255607545375824,
      0.030977239832282066,
      -0.14288464188575745,
      0.11771613359451294,
      -0.04509691521525383,
      0.09415318071842194,
      -0.07935625314712524,
      -0.14049015939235687,
      -0.06305718421936035,
      -0.09450813382863998,
      0.10925781726837158,
      -0.437566339969635,
      -1.0989247560501099,
      0.3890707194805145,
      -0.9005259871482849,
      0.28517797589302063,
      0.25471723079681396,
      -0.6745254993438721,
      0.8031286597251892,
      0.5883648991584778,
      0.10358082503080368,
      0.14535941183567047,
      -0.06260058283805847,
      -0.12258613109588623,
      -0.1384151577949524,
      -0.020698068663477898,
      0.19829387962818146,
      -0.004930322524160147,
      0.04386338219046593,
      0.6263236999511719,
      -0.28805458545684814,
      -0.968970000743866,
      0.3546033799648285,
      0.0854063332080841,
      -1.161162257194519,
      0.26810377836227417,
      -0.8562362194061279,
      -0.856882631778717,
      -0.43491414189338684,
      -0.17181003093719482,
      0.3426794111728668,
      0.02271023765206337,
      0.22593477368354797,
      -0.6134384870529175,
      -0.7389413714408875,
      0.05781639367341995,
      -0.013132665306329727,
      -0.5883784294128418,
      1.1148900985717773,
      -0.4403659999370575,
      -1.675995945930481,
      1.9753713607788086,
      -1.3696109056472778,
      1.1595948934555054,
      -0.7372094392776489,
      -0.4118523597717285,
      -0.970686137676239,
      0.30264750123023987,
      -0.93869549036026,
      -0.2872735261917114,
      0.928085207939148,
      -0.5017825365066528,
      -0.49460673332214355,
      -0.6952307224273682,
      -0.1596338152885437,
      -0.5259633660316467,
      -1.5160280466079712,
      -0.9740710854530334,
      -0.043589036911726,
      1.4555426836013794,
      -0.560053288936615,
      -0.05936218053102493,
      -1.7636852264404297,
      -0.9717952013015747,
      -0.12800274789333344,
      0.6953145861625671,
      -0.12795254588127136,
      -1.9032624959945679,
      -1.7408968210220337,
      -1.7803889513015747,
      -0.03255685791373253,
      0.20413705706596375,
      -0.007759301923215389,
      -2.328347682952881,
      0.23781776428222656,
      -1.9672988653182983,
      0.025151614099740982,
      1.733847975730896,
      -0.05607842653989792,
      0.34437310695648193,
      0.4507690668106079,
      0.10942711681127548,
      -0.08158572018146515,
      0.768885612487793,
      -0.0680006742477417,
      -0.5886403918266296,
      -0.5699678063392639,
      -0.48273786902427673,
      -0.19220022857189178,
      0.5123622417449951,
      -0.35104191303253174,
      0.06613649427890778,
      -0.4497913718223572,
      -0.194022998213768,
      0.4307500720024109,
      -0.6278581023216248,
      -0.3450634479522705,
      -0.34373441338539124,
      -0.6045408248901367,
      -0.06135539337992668,
      0.19549117982387543,
      -0.3972274661064148,
      0.03332267701625824,
      0.15821321308612823,
      -0.12023072689771652,
      0.03484214469790459,
      -0.22023850679397583,
      -0.01812821999192238,
      -0.17382614314556122,
      -0.08258296549320221,
      0.014876051805913448,
      -0.4683884084224701,
      0.35825681686401367,
      0.4281357228755951,
      -0.30931994318962097,
      -0.31219494342803955,
      -0.009321308694779873,
      -0.1633366495370865,
      0.0576004795730114,
      -0.28895169496536255,
      0.0027240950148552656,
      0.04656762257218361,
      -0.06963946670293808,
      0.02763652242720127,
      -0.23038996756076813,
      0.17197087407112122,
      -0.265913188457489,
      -0.04384258762001991,
      -0.19946733117103577,
      -0.2514688968658447,
      0.44914889335632324,
      -0.12237799167633057,
      -0.43172669410705566,
      -0.44270527362823486,
      -0.27513664960861206,
      -0.022603482007980347,
      -0.06643600761890411,
      -0.24565374851226807,
      -0.05811314284801483,
      0.1733684241771698,
      -0.04310528561472893,
      0.0930875912308693,
      -0.13409364223480225,
      -0.14972059428691864,
      -0.043863844126462936,
      0.13907267153263092,
      -0.40839141607284546,
      -0.2556217312812805,
      0.2859729528427124,
      -0.05012030154466629,
      -0.18445317447185516,
      -0.4557797908782959,
      -0.3692701458930969,
      -0.2603941559791565,
      0.11483103036880493,
      -0.37895816564559937,
      0.025703221559524536,
      0.17156760394573212,
      -0.19657480716705322,
      0.12529410421848297,
      -0.11941903084516525,
      -0.13931314647197723,
      -0.1788468360900879,
      -0.01028665155172348,
      0.15137022733688354,
      0.0988946184515953,
      -0.04505647346377373,
      -0.3349909484386444,
      -0.0067246477119624615,
      -0.004170218948274851,
      -0.044287458062171936,
      -0.021343331784009933,
      0.11101953685283661,
      0.24736961722373962,
      0.32190728187561035,
      0.3715793192386627,
      0.31148040294647217,
      0.6048304438591003,
      -1.3235996961593628,
      0.4411669075489044,
      0.04402891919016838,
      -0.0033824194688349962,
      -0.432443231344223,
      0.0035053789615631104,
      -0.1833864003419876,
      0.488605797290802,
      -0.0007916069589555264,
      -0.0021641517523676157,
      0.2420516014099121,
      0.0020335204899311066,
      0.9233423471450806,
      -1.4132370948791504,
      0.8164629936218262,
      1.073123574256897,
      -0.14157956838607788,
      0.6542500853538513,
      0.5477740168571472,
      1.057202696800232,
      0.5761827826499939,
      -0.8615115880966187,
      -0.791434109210968,
      -1.0582469701766968,
      0.4182359576225281,
      0.9529634118080139,
      0.02003626711666584,
      0.24966458976268768,
      -0.44315382838249207,
      0.421188622713089,
      0.8207123875617981,
      0.4507158100605011,
      0.6444904208183289,
      1.722141146659851,
      -1.8162930011749268,
      1.3508849143981934,
      0.488685667514801,
      1.0833994150161743,
      0.49667850136756897,
      -0.3379649519920349,
      -0.9047548770904541,
      -0.2652883231639862,
      -0.009258966892957687,
      0.05153403803706169,
      0.003793081734329462,
      0.09927632659673691,
      -0.41469648480415344,
      0.08587602525949478,
      0.2704036831855774,
      -0.4791414141654968,
      0.3360956609249115,
      0.9679965972900391,
      -0.6195281147956848,
      0.5369982123374939,
      -0.08462317287921906,
      0.6894696950912476,
      -0.17793332040309906,
      -0.06939531117677689,
      -0.8266717791557312,
      0.14530329406261444,
      -0.25471043586730957,
      0.6608746647834778,
      -0.1941954642534256,
      -0.2314911037683487,
      -0.472173810005188,
      -0.49866366386413574,
      0.9213834404945374,
      1.7721260786056519,
      0.7375147938728333,
      1.14277184009552,
      -0.7128052115440369,
      0.7299789190292358,
      0.8763715028762817,
      0.41440388560295105,
      0.2860119640827179,
      -0.7751075625419617,
      -0.6841971278190613,
      -0.6558100581169128,
      0.2725624144077301,
      0.75626540184021,
      0.035222962498664856,
      0.1270691156387329,
      -0.19077520072460175,
      -0.031133322045207024,
      0.042040567845106125,
      -0.7360811829566956,
      0.11888039112091064,
      0.5773417353630066,
      -1.123894214630127,
      0.1346936970949173,
      0.22949610650539398,
      -0.2534167468547821,
      0.07733136415481567,
      0.11866452544927597,
      -0.01626673899590969,
      0.22668801248073578,
      0.10523820668458939,
      -0.6520588994026184,
      0.08698811382055283,
      0.046252671629190445,
      -0.06939633190631866,
      -0.029772603884339333,
      0.2325119525194168,
      -1.106095314025879,
      0.25869446992874146,
      0.20627611875534058,
      -2.001108169555664,
      0.08938083052635193,
      0.2504347562789917,
      -0.02764422446489334,
      0.16853399574756622,
      0.11830383539199829,
      -0.2735591232776642,
      0.17204883694648743,
      0.13992775976657867,
      -0.278032511472702,
      -0.0015479496214538813,
      0.08460525423288345,
      -0.12366429716348648,
      -0.03643323481082916,
      0.07073111832141876,
      -1.2291303873062134,
      0.0683978870511055,
      0.3486148416996002,
      -1.1991233825683594,
      0.091024249792099,
      0.3317524194717407,
      0.024642178788781166,
      0.0992228165268898,
      0.08835913240909576,
      -0.13876985013484955,
      0.2413429170846939,
      0.10795830935239792,
      -0.5057275295257568,
      0.06223025918006897,
      0.14921064674854279,
      0.004197708796709776,
      -0.01883142627775669,
      0.13889667391777039,
      -1.0277090072631836,
      0.17113152146339417,
      0.5719201564788818,
      -1.2164287567138672,
      -0.020873600617051125,
      0.20605924725532532,
      0.035819221287965775,
      0.22440886497497559,
      0.1990310549736023,
      -0.26346948742866516,
      0.21216034889221191,
      0.07516900449991226,
      -0.5626689195632935,
      0.15274879336357117,
      0.03725316375494003,
      -0.041199635714292526,
      -0.04945402592420578,
      0.015146075747907162,
      -0.1863837093114853,
      -0.07297824323177338,
      -0.047361698001623154,
      0.21939897537231445,
      -0.11230567842721939,
      0.08742469549179077,
      0.06076444685459137,
      0.055530428886413574,
      0.020226268097758293,
      0.13391181826591492,
      -0.017826266586780548,
      -0.14410336315631866,
      -0.3451407253742218,
      0.23579135537147522,
      0.29385343194007874,
      0.08846904337406158,
      0.23834992945194244,
      -0.060694370418787,
      -0.12135132402181625,
      -0.259641170501709,
      -0.02394593320786953,
      0.2739110589027405,
      0.1179599016904831,
      0.050708599388599396,
      -0.016172310337424278,
      0.003191411029547453,
      -0.29856163263320923,
      -2.387246608734131,
      -0.31217560172080994,
      -0.5421658158302307,
      -0.31397831439971924,
      0.2734590470790863,
      -0.28623297810554504,
      0.014153449796140194,
      -1.2161779403686523,
      0.7778936624526978,
      -0.9954220056533813,
      -0.36621010303497314,
      -1.5365055799484253,
      0.05844071879982948,
      0.19913485646247864,
      -0.8151512145996094,
      0.2980954051017761,
      0.4031912386417389,
      1.6982176303863525,
      1.3650853633880615,
      1.404176950454712,
      1.2907136678695679,
      1.1928701400756836,
      0.758579671382904,
      1.36753249168396,
      1.6730668544769287,
      1.1991536617279053,
      0.10601385682821274,
      -0.7095012068748474,
      0.16601085662841797,
      -0.5305169224739075,
      0.09881724417209625,
      -0.3967556953430176,
      -0.04816173389554024,
      0.4340493977069855,
      0.45099276304244995,
      0.3607388138771057,
      -2.0492472648620605,
      -0.2923238277435303,
      -1.1817710399627686,
      0.21125344932079315,
      0.007296656258404255,
      -0.2324262112379074,
      0.11106090992689133,
      0.3935709297657013,
      0.2051265835762024,
      -0.22524479031562805,
      0.03245176747441292,
      -0.048157066106796265,
      0.006243910640478134,
      0.41857168078422546,
      0.04133768007159233,
      0.10459143668413162,
      0.2297828644514084,
      0.493971586227417,
      -1.0879749059677124,
      1.6202796697616577,
      1.2320556640625,
      0.5975320339202881,
      2.822025775909424,
      -1.427748441696167,
      -0.6346529722213745,
      -0.2835831642150879,
      -0.6699713468551636,
      0.5349087715148926,
      -3.1168739795684814,
      -0.866138756275177,
      0.9909751415252686,
      -2.568779706954956,
      0.562745988368988,
      -0.5977967381477356,
      -0.8870748281478882,
      -0.5211829543113708,
      -0.5473694801330566,
      -0.14487481117248535,
      -0.16090422868728638,
      -0.08842804282903671,
      0.024802476167678833,
      -0.15069057047367096,
      0.25204721093177795,
      -0.8541594743728638,
      -0.24142959713935852,
      -0.11105657368898392,
      0.055796217173337936,
      0.17033284902572632,
      0.007530344650149345,
      0.14057868719100952,
      -0.03211876004934311,
      0.046107832342386246,
      -0.1113509014248848,
      -0.5382754802703857,
      -0.7468568682670593,
      -0.4120209515094757,
      -0.03786000609397888,
      -0.22287043929100037,
      0.05971440672874451,
      -0.10387346148490906,
      0.13230466842651367,
      -0.3643289804458618,
      -0.31692543625831604,
      0.023985911160707474,
      -0.026313932612538338,
      0.23173049092292786,
      0.13708461821079254,
      -0.020771779119968414,
      0.12979687750339508,
      0.0811149924993515,
      0.11774200946092606,
      -0.11825009435415268,
      -0.10312572866678238,
      0.0298563614487648,
      -0.5294172763824463,
      -0.006509426049888134,
      -0.20528213679790497,
      -0.20396734774112701,
      0.2616790235042572,
      -0.4873559772968292,
      -0.23960542678833008,
      0.032675910741090775,
      0.012593491934239864,
      0.30459216237068176,
      0.031587839126586914,
      0.11133211106061935,
      0.11631269752979279,
      -0.020500460639595985,
      0.07257770001888275,
      -0.7017820477485657,
      -0.2090773731470108,
      0.3055916428565979,
      -0.0747794508934021,
      0.11248540878295898,
      0.31204915046691895,
      -0.1316087245941162,
      0.12707915902137756,
      -0.10681580752134323,
      -0.18264149129390717,
      -0.19718368351459503,
      0.09704136848449707,
      0.2132035791873932,
      0.03286856785416603,
      0.17268802225589752,
      0.07504827529191971,
      0.18858195841312408,
      -0.23987120389938354,
      0.013306446373462677,
      -0.028880180791020393,
      0.05409233644604683,
      -0.04579829052090645,
      -0.07803825289011002,
      -0.05734342336654663,
      -0.010287622921168804,
      0.0013148426078259945,
      -0.04734846577048302,
      0.30436304211616516,
      0.2467515915632248,
      0.13565681874752045,
      0.3184356689453125,
      0.46654653549194336,
      0.18983948230743408,
      -0.24061773717403412,
      0.3168375492095947,
      0.16230107843875885,
      0.058105383068323135,
      0.26528632640838623,
      0.03774942830204964,
      -0.10386558622121811,
      -0.1536446064710617,
      0.10027682036161423,
      -0.08526784926652908,
      0.07817717641592026,
      -0.01569831371307373,
      0.3272916078567505,
      -1.3357949256896973,
      0.3952491581439972,
      -0.403034508228302,
      -0.3700818419456482,
      -0.31677788496017456,
      -0.31823885440826416,
      1.0829904079437256,
      -0.18900461494922638,
      -0.47039711475372314,
      -0.03214395046234131,
      -0.5386298894882202,
      0.5620225667953491,
      -0.47179263830184937,
      0.3239852488040924,
      -0.7574450969696045,
      -0.23753288388252258,
      -0.8432227373123169,
      -0.8397563099861145,
      1.185481309890747,
      -0.32999908924102783,
      -0.30197983980178833,
      0.17257732152938843,
      -0.8710582256317139,
      0.1662982851266861,
      0.769962728023529,
      -0.08744294196367264,
      -0.021071825176477432,
      -0.30554434657096863,
      -0.1147802397608757,
      -1.3105026483535767,
      -0.6351175308227539,
      -0.5773681402206421,
      0.38957470655441284,
      0.3809109628200531,
      -0.013706616126000881,
      1.6592351198196411,
      0.4381435215473175,
      2.0333850383758545,
      1.542115569114685,
      -0.40339937806129456,
      1.8370248079299927,
      0.14640863239765167,
      -0.08766509592533112,
      0.08861685544252396,
      0.5896245241165161,
      -1.8789006471633911,
      -0.19761711359024048,
      0.6609800457954407,
      -1.2950857877731323,
      -0.21200795471668243,
      -0.38088634610176086,
      -0.7076873183250427,
      -0.521144688129425,
      -1.6142014265060425,
      1.7453131675720215,
      0.179864764213562,
      1.9847526550292969,
      2.120358467102051,
      1.527390956878662,
      0.09585534781217575,
      1.3296455144882202,
      -0.3101719319820404,
      -0.700982928276062,
      -0.652065634727478,
      -0.24520406126976013,
      0.019225670024752617,
      0.12799639999866486,
      0.09486972540616989,
      -1.579682469367981,
      0.20388402044773102,
      -0.34665605425834656,
      -0.523421585559845,
      0.08756168186664581,
      -0.13923923671245575,
      -0.06048034131526947,
      0.03408805653452873,
      -0.3044537901878357,
      0.14477871358394623,
      -0.1841360628604889,
      -0.4847201108932495,
      -0.18763220310211182,
      -0.040731802582740784,
      0.16297322511672974,
      -0.08942621946334839,
      -0.13011671602725983,
      -0.11227383464574814,
      -0.0519692525267601,
      0.03015855886042118,
      -0.12777771055698395,
      -0.2757683992385864,
      0.1776595115661621,
      0.055186301469802856,
      0.21728168427944183,
      0.09288894385099411,
      -0.496863454580307,
      0.07217197865247726,
      -0.14932876825332642,
      -0.04245702549815178,
      -0.20371104776859283,
      0.06955467164516449,
      -0.1490042507648468,
      -0.025687383487820625,
      -0.23002904653549194,
      -0.03797698765993118,
      0.01735164225101471,
      -0.008331753313541412,
      -0.1728692501783371,
      0.022656535729765892,
      0.11403604596853256,
      0.1360248178243637,
      0.2897713780403137,
      0.06874772906303406,
      -0.23568467795848846,
      0.30952534079551697,
      -0.1772931069135666,
      0.051902320235967636,
      -0.21440289914608002,
      -0.026479572057724,
      -0.07038090378046036,
      -0.07211905717849731,
      -0.1304193139076233,
      -0.19723866879940033,
      0.015077992342412472,
      -0.06692613661289215,
      -0.09363451600074768,
      -0.4846731126308441,
      0.292741596698761,
      -0.4500003159046173,
      0.28041568398475647,
      -0.6997438073158264,
      -0.34044983983039856,
      0.11451640725135803,
      -0.17507946491241455,
      0.07313822209835052,
      -0.1951431781053543,
      0.07045795768499374,
      -0.20759382843971252,
      -0.11611974984407425,
      -0.2433142364025116,
      -0.23421551287174225,
      -0.03279111161828041,
      -0.14006662368774414,
      -0.19196143746376038,
      -0.0860934853553772,
      0.14939485490322113,
      0.0828055664896965,
      -0.15132246911525726,
      -0.30044910311698914,
      0.25894245505332947,
      0.13925771415233612,
      0.004480873700231314,
      -0.026065319776535034,
      0.22609801590442657,
      0.4390100836753845,
      0.46214789152145386,
      0.3779112994670868,
      1.0524886846542358,
      0.4373472332954407,
      1.0477726459503174,
      0.43676742911338806,
      -1.7393176555633545,
      0.07682949304580688,
      -0.2236192375421524,
      0.18205693364143372,
      0.2070619761943817,
      0.3765948712825775,
      -0.2525613009929657,
      -0.12046094983816147,
      0.011143791489303112,
      0.04843103513121605,
      -0.1540469527244568,
      -1.7319318056106567,
      -0.09472157806158066,
      -0.28515735268592834,
      -1.145827054977417,
      0.3104417324066162,
      0.34138306975364685,
      -0.7072384357452393,
      -0.18645815551280975,
      -0.07260217517614365,
      -0.9520549774169922,
      -1.8763387203216553,
      -1.3907769918441772,
      0.22365856170654297,
      -1.3836994171142578,
      0.9350640177726746,
      0.30168962478637695,
      0.17754621803760529,
      0.9730300903320312,
      -0.13371318578720093,
      -0.8214715123176575,
      2.3320846557617188,
      -0.9404112100601196,
      -2.2572922706604004,
      0.4022388160228729,
      -0.8253165483474731,
      -0.08846298605203629,
      -2.9515151977539062,
      -0.2626183331012726,
      0.283041775226593,
      -2.150426149368286,
      -0.5712965130805969,
      0.023423895239830017,
      -2.6697309017181396,
      0.5461968183517456,
      -0.8760627508163452,
      0.032235510647296906,
      -0.03515256941318512,
      -1.0362882614135742,
      -0.42312711477279663,
      -0.30512312054634094,
      -1.1157108545303345,
      -1.9026614427566528,
      -3.567379951477051,
      0.6083610653877258,
      0.6005954146385193,
      0.07993370294570923,
      1.1135716438293457,
      0.35159748792648315,
      0.7029692530632019,
      -0.5386283993721008,
      -0.5752577185630798,
      -0.10657498240470886,
      -0.4287283420562744,
      -1.902621865272522,
      -0.5986840128898621,
      -1.048380732536316,
      -0.1677733063697815,
      -0.5413159728050232,
      -0.9318863749504089,
      0.07450573146343231,
      -2.5752484798431396,
      -0.618527352809906,
      0.1447066217660904,
      -0.031030846759676933,
      0.26554426550865173,
      -0.037880789488554,
      0.2424582988023758,
      0.2147068828344345,
      0.034595392644405365,
      0.13322670757770538,
      -0.386288046836853,
      0.2567952573299408,
      -0.19327020645141602,
      0.35544610023498535,
      -0.29534390568733215,
      -0.5076338648796082,
      -0.2106860727071762,
      0.32633981108665466,
      0.07155971229076385,
      0.07314576208591461,
      0.023573577404022217,
      0.10186571627855301,
      0.10738104581832886,
      0.060332536697387695,
      -0.03239176794886589,
      -0.154702290892601,
      -0.04071904718875885,
      0.11700577288866043,
      0.04122437909245491,
      0.5011915564537048,
      -0.4418350160121918,
      0.46030735969543457,
      0.07680149376392365,
      -0.35708728432655334,
      -0.07883753627538681,
      0.2031175196170807,
      0.023261332884430885,
      0.02412818931043148,
      0.06430625915527344,
      0.08264714479446411,
      0.24993732571601868,
      -0.21572153270244598,
      -0.06240328401327133,
      -0.31581538915634155,
      -0.036747340112924576,
      -0.08491194993257523,
      0.17845341563224792,
      0.1784788817167282,
      -0.33844831585884094,
      0.41160815954208374,
      0.06857311725616455,
      0.23323814570903778,
      -0.06737498193979263,
      0.3480277955532074,
      0.2776946723461151,
      0.02944261021912098,
      -0.035109881311655045,
      -0.027282584458589554,
      0.21175317466259003,
      -0.012614023871719837,
      0.11997920274734497,
      -0.2365543097257614,
      0.03255591541528702,
      -0.11574207246303558,
      0.15972314774990082,
      0.1543104499578476,
      -0.17673073709011078,
      0.15610945224761963,
      0.06232106685638428,
      -0.43544650077819824,
      0.08722635358572006,
      0.2902415096759796,
      -0.03780310973525047,
      0.13825803995132446,
      0.11140445619821548,
      -0.16215838491916656,
      0.17656387388706207,
      0.15566791594028473,
      0.06936632841825485,
      -0.24824759364128113,
      -0.31670311093330383,
      -0.058930620551109314,
      0.262288898229599,
      -0.0837603285908699,
      0.0015791456680744886,
      -0.030491536483168602,
      -0.11502759903669357,
      -0.0021766789723187685,
      -0.1287507265806198,
      0.027390243485569954,
      0.09819138795137405,
      0.05157746002078056,
      -0.30105170607566833,
      0.20276854932308197,
      -1.6338651180267334,
      -0.1471380591392517,
      -0.09242137521505356,
      -1.9595783948898315,
      0.6687153577804565,
      0.07893906533718109,
      -3.9676430225372314,
      -0.5911318063735962,
      0.11442026495933533,
      -1.5642673969268799,
      0.6464822292327881,
      0.24865704774856567,
      -2.213557004928589,
      -0.08083480596542358,
      -0.30898281931877136,
      -0.1156369224190712,
      0.3374488949775696,
      0.04267594963312149,
      0.7250612378120422,
      -1.050106406211853,
      -0.6713635921478271,
      4.085171222686768,
      0.3363759219646454,
      0.5359612703323364,
      0.8284047245979309,
      0.22470404207706451,
      0.045511696487665176,
      -3.2154898643493652,
      -0.3793441653251648,
      0.08135221898555756,
      -1.8852612972259521,
      -0.034525591880083084,
      0.18968981504440308,
      -2.2958481311798096,
      -0.2861631512641907,
      0.31918275356292725,
      -0.6691655516624451,
      -1.1014996767044067,
      -0.45061397552490234,
      1.8565574884414673,
      0.5034822821617126,
      0.7808215618133545,
      0.2166602611541748,
      -0.14167632162570953,
      -0.011265064589679241,
      -0.6428940296173096,
      -0.32916343212127686,
      0.26434263586997986,
      -1.293216586112976,
      -0.6476381421089172,
      0.01108035258948803,
      -2.2668914794921875,
      -0.15103194117546082,
      0.28063130378723145,
      0.7943812608718872,
      -1.16311514377594,
      -2.1352944374084473,
      1.9089555740356445,
      0.12882624566555023,
      0.5352733135223389,
      0.1343860924243927,
      -0.039862386882305145,
      -0.08434448391199112,
      -0.1025259718298912,
      -0.01067151129245758,
      0.013443605042994022,
      -1.4128649234771729,
      -0.5715334415435791,
      0.10168427973985672,
      -0.3993314206600189,
      -0.01803073287010193,
      0.40305498242378235,
      1.476351261138916,
      -1.369368314743042,
      0.13357067108154297,
      1.8994899988174438,
      0.33501148223876953,
      0.5279767513275146,
      0.06497634202241898,
      -0.07022804766893387,
      -0.19184459745883942,
      -0.060337044298648834,
      -0.1660541594028473,
      0.027719097211956978,
      -0.9336201548576355,
      -0.4572289288043976,
      0.15055955946445465,
      -1.056014060974121,
      -0.10566263645887375,
      0.16953738033771515,
      -0.5305377840995789,
      -0.4485476016998291,
      0.16815146803855896,
      -0.33472856879234314,
      -0.0031951614655554295,
      -0.19423143565654755,
      0.017873654142022133,
      0.003145658178254962,
      0.07775896787643433,
      -1.0001648664474487,
      -0.6143891215324402,
      0.14062117040157318,
      -1.528300166130066,
      -0.4110495448112488,
      0.21109695732593536,
      -3.3668508529663086,
      -0.08690355718135834,
      -0.01173565536737442,
      -0.5482205152511597,
      -0.008977243676781654,
      -0.017824506387114525,
      -0.6960659623146057,
      -0.3048454225063324,
      -0.06311851739883423,
      0.05721736699342728,
      0.023787273094058037,
      0.1496150642633438,
      -1.0817437171936035,
      -0.7018933892250061,
      0.15971364080905914,
      -1.9337774515151978,
      -0.139372780919075,
      0.07800719141960144,
      -2.1430513858795166,
      -0.20729093253612518,
      0.05874717980623245,
      -0.5688485503196716,
      -0.07295050472021103,
      0.1369379609823227,
      -0.8626416921615601,
      -0.21778617799282074,
      -0.2960134446620941,
      -0.05045619234442711,
      -0.0802009180188179,
      0.17334523797035217,
      -1.0585886240005493,
      -0.8148030042648315,
      0.18390129506587982,
      -1.9125896692276,
      -0.18060480058193207,
      0.15936632454395294,
      -2.3248367309570312,
      -0.06874123215675354,
      0.23962479829788208,
      -0.4630020260810852,
      -0.16154685616493225,
      -0.20234838128089905,
      -0.3553609549999237,
      -0.231254443526268,
      -0.43407613039016724,
      -0.1780855357646942,
      0.014705494046211243,
      0.046127885580062866,
      -0.9144349694252014,
      -0.6564391851425171,
      0.22766359150409698,
      -2.2354984283447266,
      -0.19489693641662598,
      0.13907408714294434,
      -2.034595251083374,
      -0.02460651472210884,
      0.09665103256702423,
      0.025974879041314125,
      -0.08015602827072144,
      -0.36961108446121216,
      -0.025864377617836,
      0.05814657360315323,
      0.010578914545476437,
      0.09254251420497894,
      -0.33725035190582275,
      0.08080940693616867,
      -0.3420764207839966,
      0.9248447418212891,
      0.6430811882019043,
      0.20304712653160095,
      1.5846521854400635,
      0.3721418082714081,
      0.269868940114975,
      0.4144335985183716,
      -0.10709672421216965,
      0.36976027488708496,
      0.3724353611469269,
      -0.07455022633075714,
      -0.24986523389816284,
      0.09069111198186874,
      -0.03521163761615753,
      0.0006969851674512029,
      -0.5892160534858704,
      -3.1468162536621094,
      0.6618822813034058,
      0.2851177155971527,
      -0.8107094168663025,
      -1.2500613927841187,
      -0.877470076084137,
      -1.1327354907989502,
      0.15569277107715607,
      -0.8270453810691833,
      -0.558629035949707,
      -0.13129526376724243,
      0.4778895080089569,
      1.2302616834640503,
      -0.014750714413821697,
      -0.9916301965713501,
      -0.0022784771863371134,
      0.16289648413658142,
      0.0938844382762909,
      0.32414206862449646,
      -0.15976911783218384,
      1.276366949081421,
      -3.0297601222991943,
      -2.9730684757232666,
      -1.5673658847808838,
      -2.867241382598877,
      -0.6941285133361816,
      -0.731293261051178,
      0.33726638555526733,
      0.26328444480895996,
      -1.7548515796661377,
      0.16333363950252533,
      -0.46756160259246826,
      -1.1394457817077637,
      -0.5935688018798828,
      0.31440651416778564,
      0.33069685101509094,
      -0.010935737751424313,
      -1.598665475845337,
      -0.7802392840385437,
      -1.0384324789047241,
      -1.2240419387817383,
      -2.046816825866699,
      -2.8502793312072754,
      -0.8436815738677979,
      0.7009164690971375,
      0.373044490814209,
      0.2801704704761505,
      -1.5783257484436035,
      -0.19758467376232147,
      0.2090211659669876,
      0.3351510167121887,
      0.10758250951766968,
      0.3240863084793091,
      1.0940688848495483,
      -0.9759218096733093,
      0.4911133646965027,
      0.9610159993171692,
      0.1895778328180313,
      0.6239392161369324,
      1.1181806325912476,
      -0.7913413047790527,
      0.2751229703426361,
      0.5895274877548218,
      0.7700439691543579,
      0.6283915638923645,
      0.3516315221786499,
      -0.9551107287406921,
      0.1978103369474411,
      0.360637903213501,
      0.5348286032676697,
      0.391847163438797,
      0.17106717824935913,
      0.268295556306839,
      0.3858790695667267,
      -0.6829054355621338,
      0.01830475591123104,
      0.06633301824331284,
      0.006579018197953701,
      0.2730466425418854,
      0.10422343760728836,
      -0.13355952501296997,
      0.11819646507501602,
      0.0067105707712471485,
      -0.7364888787269592,
      -0.2789642810821533,
      -0.00464227981865406,
      0.021857524290680885,
      0.16137294471263885,
      0.01854817010462284,
      -0.19323235750198364,
      0.5138516426086426,
      0.1574445217847824,
      -0.6371253132820129,
      -0.10447748750448227,
      -0.38126078248023987,
      0.020070016384124756,
      0.5037288069725037,
      0.25472694635391235,
      -0.2798960506916046,
      -0.15300524234771729,
      -0.22262440621852875,
      -0.694495677947998,
      0.18209199607372284,
      0.029595019295811653,
      -0.02520880103111267,
      -0.3100563883781433,
      -0.03299451991915703,
      0.22830423712730408,
      0.4393928647041321,
      0.4059820771217346,
      -0.5242048501968384,
      0.016074785962700844,
      -0.6913082003593445,
      -0.06003056839108467,
      0.3693851828575134,
      0.3742274045944214,
      0.07097693532705307,
      0.00826803408563137,
      0.025378894060850143,
      -0.878078281879425,
      0.1308797001838684,
      -0.24362146854400635,
      -0.07876550406217575,
      -0.32329273223876953,
      0.20504486560821533,
      -0.21019260585308075,
      0.47904330492019653,
      0.24936814606189728,
      -0.7636014819145203,
      -0.5357843041419983,
      0.07653263956308365,
      0.2607564628124237,
      0.15983180701732635,
      0.2977413237094879,
      -0.19080407917499542,
      0.15529409050941467,
      0.043326713144779205,
      -0.7271127104759216,
      0.08751554787158966,
      -0.0025129711721092463,
      0.011942719109356403,
      0.034441519528627396,
      0.08214925229549408,
      -0.019012045115232468,
      -0.15959154069423676,
      -0.07184886932373047,
      -0.06059570237994194,
      -0.0007929351413622499,
      -0.05785737186670303,
      0.05805251747369766,
      0.07936380803585052,
      0.09056071937084198,
      -0.25285083055496216,
      -0.12721572816371918,
      -0.3575289845466614,
      -0.07871279120445251,
      0.15193945169448853,
      -0.06364668160676956,
      -2.1260437965393066,
      0.26268962025642395,
      -2.3325347900390625,
      -0.022532695904374123,
      0.1020267903804779,
      -0.11356461048126221,
      0.0718466266989708,
      0.26312267780303955,
      -0.10161440819501877,
      -0.031498972326517105,
      -0.037119727581739426,
      -0.015535799786448479,
      -1.9925240278244019,
      -0.20126037299633026,
      -1.5472455024719238,
      -1.4532747268676758,
      -0.7961520552635193,
      -1.2804995775222778,
      -0.49811285734176636,
      -0.4542069137096405,
      -1.8219881057739258,
      -0.20504282414913177,
      0.19031205773353577,
      -0.09754452854394913,
      -1.249980092048645,
      0.3312205672264099,
      -1.3234505653381348,
      -0.5822928547859192,
      0.704456627368927,
      -1.5639467239379883,
      1.5195740461349487,
      -2.7243094444274902,
      1.1137653589248657,
      1.6961780786514282,
      -0.6436072587966919,
      1.575374960899353,
      1.048608660697937,
      0.72990483045578,
      0.7271897792816162,
      0.061110883951187134,
      -0.7357727885246277,
      -0.25219640135765076,
      0.5464932322502136,
      0.14188028872013092,
      0.27939358353614807,
      -0.142762690782547,
      -0.5828998684883118,
      -0.040906213223934174,
      -1.472516655921936,
      -0.10546000301837921,
      -0.6725006103515625,
      -1.2416117191314697,
      0.8815115690231323,
      -1.0772180557250977,
      -0.14260631799697876,
      0.5548050403594971,
      -0.3488939106464386,
      -0.1658662110567093,
      0.26613283157348633,
      0.15375477075576782,
      -1.2172716856002808,
      0.2282477617263794,
      -1.3241305351257324,
      -0.3440491259098053,
      0.5989295244216919,
      -0.4836834967136383,
      -0.3895648121833801,
      -0.31114208698272705,
      -0.4192695915699005,
      -0.18143776059150696,
      -0.2646269202232361,
      -1.1925880908966064,
      0.11211782693862915,
      2.426482915878296,
      0.25120997428894043,
      -0.18450944125652313,
      0.17740727961063385,
      0.056681469082832336,
      -0.1142389327287674,
      -0.10091259330511093,
      -0.04246607795357704,
      -2.8918612003326416,
      -0.02472362108528614,
      -2.6110730171203613,
      -0.15455777943134308,
      -0.1903924196958542,
      -0.07241953909397125,
      -0.12914852797985077,
      -0.2770785391330719,
      0.016236521303653717,
      -0.5232797265052795,
      0.21604889631271362,
      0.032424528151750565,
      0.16321565210819244,
      -0.19908510148525238,
      0.1920958310365677,
      0.10464224964380264,
      -0.19333191215991974,
      0.26093822717666626,
      -0.0828382670879364,
      0.15163001418113708,
      -0.026028815656900406,
      -0.046933602541685104,
      0.12373512983322144,
      -0.3380422294139862,
      -0.008007190190255642,
      0.1741512417793274,
      -0.22735141217708588,
      -0.10073849558830261,
      -0.3097052574157715,
      0.06394511461257935,
      -0.004675181582570076,
      0.004496965557336807,
      0.03163265064358711,
      0.0487317256629467,
      0.08184970915317535,
      0.1815185844898224,
      -0.16129948198795319,
      0.01009398978203535,
      -0.28411805629730225,
      0.24599933624267578,
      -0.34523141384124756,
      0.05150442570447922,
      0.06051117926836014,
      -0.2965368330478668,
      0.19639235734939575,
      -0.6676697134971619,
      0.007692563813179731,
      -0.12787166237831116,
      0.1801210641860962,
      -0.34061935544013977,
      0.20743981003761292,
      0.08365665376186371,
      -0.249189555644989,
      0.1666501760482788,
      0.017409920692443848,
      0.033137641847133636,
      0.009048893116414547,
      0.08105006814002991,
      -0.12620677053928375,
      -0.144221231341362,
      -0.016829106956720352,
      -0.2158747762441635,
      0.27727773785591125,
      0.22976967692375183,
      -0.39927613735198975,
      0.08295032382011414,
      0.15538598597049713,
      -0.22118858993053436,
      0.15362265706062317,
      0.1576935350894928,
      -0.21856363117694855,
      0.26705607771873474,
      0.07466340065002441,
      0.0586649551987648,
      -0.027961649000644684,
      -0.013028093613684177,
      -0.11227597296237946,
      0.061004314571619034,
      -0.14433732628822327,
      -0.1083049327135086,
      -0.044151030480861664,
      -0.03706599026918411,
      0.04098663106560707,
      -0.03400730341672897,
      -0.1925126612186432,
      -0.1922331154346466,
      -0.2018122673034668,
      0.09071434289216995,
      0.07449538260698318,
      -0.22748029232025146,
      0.5644688606262207,
      0.15880954265594482,
      0.07922932505607605,
      0.03985336795449257,
      0.011563184671103954,
      0.08944502472877502,
      0.27704837918281555,
      -0.12757350504398346,
      -0.02034028246998787,
      -0.4209044575691223,
      -0.011502011679112911,
      -0.10363892465829849,
      -0.9331581592559814,
      0.4067903757095337,
      -1.0355539321899414,
      0.24103759229183197,
      -1.426835536956787,
      -1.3444042205810547,
      -0.32911416888237,
      -1.5898990631103516,
      -0.5342768430709839,
      -0.13526268303394318,
      -0.4729652404785156,
      0.07592389732599258,
      -1.4089254140853882,
      0.7232967615127563,
      0.040661271661520004,
      0.49038979411125183,
      -1.0994243621826172,
      -0.14342628419399261,
      1.8605252504348755,
      1.9513407945632935,
      1.1124838590621948,
      1.703468918800354,
      2.2665719985961914,
      1.1555192470550537,
      2.1284403800964355,
      2.2941300868988037,
      1.517785906791687,
      -0.41572946310043335,
      1.1744530200958252,
      -0.020559221506118774,
      -0.4074796438217163,
      0.47476106882095337,
      -0.2615443170070648,
      -0.13750050961971283,
      -0.04704811051487923,
      -0.20339982211589813,
      0.8765221238136292,
